{"learner":{"attributes":{"scikit_learn":"{\"_estimator_type\": \"classifier\"}"},"feature_names":["dur","spkts","dpkts","sbytes","dbytes","rate","sttl","dttl","sload","dload","sloss","dloss","sinpkt","dinpkt","sjit","djit","swin","stcpb","dtcpb","dwin","tcprtt","synack","ackdat","smean","dmean","trans_depth","response_body_len","ct_srv_src","ct_state_ttl","ct_dst_ltm","ct_src_dport_ltm","ct_dst_sport_ltm","ct_dst_src_ltm","is_ftp_login","ct_ftp_cmd","ct_flw_http_mthd","ct_src_ltm","ct_srv_dst","is_sm_ips_ports","proto_3pc","proto_a/n","proto_aes-sp3-d","proto_any","proto_argus","proto_aris","proto_arp","proto_ax.25","proto_bbn-rcc","proto_bna","proto_br-sat-mon","proto_cbt","proto_cftp","proto_chaos","proto_compaq-peer","proto_cphb","proto_cpnx","proto_crtp","proto_crudp","proto_dcn","proto_ddp","proto_ddx","proto_dgp","proto_egp","proto_eigrp","proto_emcon","proto_encap","proto_etherip","proto_fc","proto_fire","proto_ggp","proto_gmtp","proto_gre","proto_hmp","proto_i-nlsp","proto_iatp","proto_ib","proto_icmp","proto_idpr","proto_idpr-cmtp","proto_idrp","proto_ifmp","proto_igmp","proto_igp","proto_il","proto_ip","proto_ipcomp","proto_ipcv","proto_ipip","proto_iplt","proto_ipnip","proto_ippc","proto_ipv6","proto_ipv6-frag","proto_ipv6-no","proto_ipv6-opts","proto_ipv6-route","proto_ipx-n-ip","proto_irtp","proto_isis","proto_iso-ip","proto_iso-tp4","proto_kryptolan","proto_l2tp","proto_larp","proto_leaf-1","proto_leaf-2","proto_merit-inp","proto_mfe-nsp","proto_mhrp","proto_micp","proto_mobile","proto_mtp","proto_mux","proto_narp","proto_netblt","proto_nsfnet-igp","proto_nvp","proto_ospf","proto_pgm","proto_pim","proto_pipe","proto_pnni","proto_pri-enc","proto_prm","proto_ptp","proto_pup","proto_pvp","proto_qnx","proto_rdp","proto_rsvp","proto_rtp","proto_rvd","proto_sat-expak","proto_sat-mon","proto_sccopmce","proto_scps","proto_sctp","proto_sdrp","proto_secure-vmtp","proto_sep","proto_skip","proto_sm","proto_smp","proto_snp","proto_sprite-rpc","proto_sps","proto_srp","proto_st2","proto_stp","proto_sun-nd","proto_swipe","proto_tcf","proto_tcp","proto_tlsp","proto_tp++","proto_trunk-1","proto_trunk-2","proto_ttp","proto_udp","proto_unas","proto_uti","proto_vines","proto_visa","proto_vmtp","proto_vrrp","proto_wb-expak","proto_wb-mon","proto_wsn","proto_xnet","proto_xns-idp","proto_xtp","proto_zero","service_-","service_dhcp","service_dns","service_ftp","service_ftp-data","service_http","service_irc","service_pop3","service_radius","service_smtp","service_snmp","service_ssh","service_ssl","state_CON","state_ECO","state_FIN","state_INT","state_PAR","state_REQ","state_RST","state_URN","state_no"],"feature_types":["float","int","int","int","int","float","int","int","float","float","int","int","float","float","float","float","int","int","int","int","float","float","float","int","int","int","int","int","int","int","int","int","int","int","int","int","int","int","int","i","i","i","i","i","i","i","i","i","i","i","i","i","i","i","i","i","i","i","i","i","i","i","i","i","i","i","i","i","i","i","i","i","i","i","i","i","i","i","i","i","i","i","i","i","i","i","i","i","i","i","i","i","i","i","i","i","i","i","i","i","i","i","i","i","i","i","i","i","i","i","i","i","i","i","i","i","i","i","i","i","i","i","i","i","i","i","i","i","i","i","i","i","i","i","i","i","i","i","i","i","i","i","i","i","i","i","i","i","i","i","i","i","i","i","i","i","i","i","i","i","i","i","i","i","i","i","i","i","i","i","i","i","i","i","i","i","i","i","i","i","i","i","i","i","i","i","i","i","i","i","i","i","i","i"],"gradient_booster":{"model":{"cats":{"enc":[],"feature_segments":[],"sorted_idx":[]},"gbtree_model_param":{"num_parallel_tree":"1","num_trees":"200"},"iteration_indptr":[0,1,2,3,4,5,6,7,8,9,10,11,12,13,14,15,16,17,18,19,20,21,22,23,24,25,26,27,28,29,30,31,32,33,34,35,36,37,38,39,40,41,42,43,44,45,46,47,48,49,50,51,52,53,54,55,56,57,58,59,60,61,62,63,64,65,66,67,68,69,70,71,72,73,74,75,76,77,78,79,80,81,82,83,84,85,86,87,88,89,90,91,92,93,94,95,96,97,98,99,100,101,102,103,104,105,106,107,108,109,110,111,112,113,114,115,116,117,118,119,120,121,122,123,124,125,126,127,128,129,130,131,132,133,134,135,136,137,138,139,140,141,142,143,144,145,146,147,148,149,150,151,152,153,154,155,156,157,158,159,160,161,162,163,164,165,166,167,168,169,170,171,172,173,174,175,176,177,178,179,180,181,182,183,184,185,186,187,188,189,190,191,192,193,194,195,196,197,198,199,200],"tree_info":[0,0,0,0,0,0,0,0,0,0,0,0,0,0,0,0,0,0,0,0,0,0,0,0,0,0,0,0,0,0,0,0,0,0,0,0,0,0,0,0,0,0,0,0,0,0,0,0,0,0,0,0,0,0,0,0,0,0,0,0,0,0,0,0,0,0,0,0,0,0,0,0,0,0,0,0,0,0,0,0,0,0,0,0,0,0,0,0,0,0,0,0,0,0,0,0,0,0,0,0,0,0,0,0,0,0,0,0,0,0,0,0,0,0,0,0,0,0,0,0,0,0,0,0,0,0,0,0,0,0,0,0,0,0,0,0,0,0,0,0,0,0,0,0,0,0,0,0,0,0,0,0,0,0,0,0,0,0,0,0,0,0,0,0,0,0,0,0,0,0,0,0,0,0,0,0,0,0,0,0,0,0,0,0,0,0,0,0,0,0,0,0,0,0,0,0,0,0,0,0],"trees":[{"base_weights":[-8.307562E-4,-3.0321567E0,9.177148E-1,-3.0915112E0,1.4517646E-1,1.0020692E0,-3.1238025E-1,-3.0981326E0,1.3242055E-1,1.313277E0,5.139846E-1,-3.1008172E0,9.666296E-2,1.3793325E0,-1.7807087E-1,1.1015857E0,-7.193207E-1,-3.102715E0,1.0620864E-1,1.2418904E-1,1.4471833E0,5.8341825E-1,-1.5009313E0,1.3131737E0,3.8060483E-1,-3.119395E-1,-4.4227126E-1,-1.8308337E0,-3.1089692E0,6.8222266E-1,-8.583425E-1,1.4639332E0,1.0264126E0,8.795582E-1,2.1201208E-1,-2.0618315E0,-3.8332033E-1,-2.5896862E0,1.3216729E0,-2.905407E-1,4.418278E-1,-6.0174835E-1,3.4577307E-1,-2.4562454E0,7.2043675E-1,-3.1097655E0,7.652077E-2,1.2924234E0,3.5276586E-1,-1.2112168E0,5.1597446E-1,1.4658065E0,1.2729589E0,1.412007E0,3.0255884E-1,5.399588E-1,1.12492E0,3.9650944E-1,-2.0313735E-1,-2.132732E0,-1.6838536E-1,1.0171942E-1,-1.6012571E0,-2.757916E-1,-6.723442E-2,1.1612514E0,1.3776671E0,1.2561938E0,2.77068E-1,-9.483381E-1,-2.722289E-1,5.7724487E-2,6.427389E-1,-4.6402994E-3,-2.7134547E-1,1.2243588E-1,-9.042927E-2,-2.5722295E-1,-3.117723E-1,1.3274416E-1,-1.6307122E-1,2.0465164E-2,7.950326E-2,1.0812809E-2,-1.3836883E-1,7.7050366E-2,-2.3566799E-1,1.465898E-1,2.8602375E-2,1.4431103E-1,4.4683497E-2,1.4152788E-1,2.8602375E-2,6.8276203E-3,1.4145632E-1,5.8736313E-2,-1.338272E-1,1.2674229E-1,7.617391E-2,4.99429E-2,-1.05943166E-1,-2.950877E-2,8.5854165E-2,-2.2040549E-1,-1.0546434E-1,4.7120657E-2,-1.338272E-1,-1.4894827E-1,4.3334223E-2,-2.3324862E-1,-4.4396408E-2,1.2307588E-1,7.3745936E-2,1.3261764E-1,1.4514951E-1,1.3737145E-1,9.7784095E-2,1.771847E-2,1.2878211E-1,-1.0312549E-1,6.6603124E-2,-1.2430436E-2,-1.3573867E-1,5.5917878E-2,-3.1078205E-2,-5.9732676E-2,7.3757544E-2],"categories":[],"categories_nodes":[],"categories_segments":[],"categories_sizes":[],"default_left":[0,0,0,0,0,0,0,0,0,0,0,0,0,0,0,0,0,0,0,0,0,0,0,0,0,0,0,0,0,0,0,0,0,0,0,0,0,0,0,0,0,0,0,0,0,0,0,0,0,0,0,0,0,0,0,0,0,0,0,0,0,0,0,0,0,0,0,0,0,0,0,0,0,0,0,0,0,0,0,0,0,0,0,0,0,0,0,0,0,0,0,0,0,0,0,0,0,0,0,0,0,0,0,0,0,0,0,0,0,0,0,0,0,0,0,0,0,0,0,0,0,0,0,0,0,0,0],"id":0,"left_children":[1,3,5,7,-1,9,-1,11,-1,13,15,17,-1,19,21,23,25,27,-1,29,31,33,35,37,39,-1,41,43,45,47,49,51,53,55,57,59,61,63,65,-1,67,69,71,73,75,77,-1,79,81,83,85,87,89,91,93,95,97,99,101,103,105,107,109,-1,-1,111,113,115,117,119,121,123,125,-1,-1,-1,-1,-1,-1,-1,-1,-1,-1,-1,-1,-1,-1,-1,-1,-1,-1,-1,-1,-1,-1,-1,-1,-1,-1,-1,-1,-1,-1,-1,-1,-1,-1,-1,-1,-1,-1,-1,-1,-1,-1,-1,-1,-1,-1,-1,-1,-1,-1,-1,-1,-1,-1],"loss_changes":[7.639664E4,1.7026211E3,7.181791E3,1.8823047E2,0E0,3.1324707E3,0E0,7.161328E1,0E0,1.2410137E3,5.82212E3,5.294922E1,0E0,1.0269648E3,5.398987E2,8.295386E2,1.7226597E3,4.4277344E1,0E0,3.403323E2,7.914258E1,3.724518E1,1.2193112E2,1.4294629E2,2.4992418E2,0E0,2.9248053E2,5.4698112E1,2.1660156E1,7.9104645E1,1.0969148E2,2.0683594E0,1.2277484E2,1.5143509E1,1.1745339E1,1.7109192E1,3.9534813E1,1.2027855E0,3.610547E1,0E0,1.6256384E2,2.2068433E2,3.3499924E1,1.6527649E1,7.087161E0,1.8703125E1,0E0,1.6329834E1,1.6762306E1,4.09375E1,3.5924393E1,7.558594E-1,1.5445816E1,6.5515137E-1,4.020246E1,8.016857E0,4.666382E0,1.6378992E1,4.892185E0,7.3131104E0,4.957191E0,2.6293499E1,1.5078869E1,0E0,0E0,3.127246E1,9.883301E0,5.330963E0,1.0185456E2,1.2684253E2,1.5924597E2,3.7153168E1,2.313137E1,0E0,0E0,0E0,0E0,0E0,0E0,0E0,0E0,0E0,0E0,0E0,0E0,0E0,0E0,0E0,0E0,0E0,0E0,0E0,0E0,0E0,0E0,0E0,0E0,0E0,0E0,0E0,0E0,0E0,0E0,0E0,0E0,0E0,0E0,0E0,0E0,0E0,0E0,0E0,0E0,0E0,0E0,0E0,0E0,0E0,0E0,0E0,0E0,0E0,0E0,0E0,0E0,0E0,0E0],"parents":[2147483647,0,0,1,1,2,2,3,3,5,5,7,7,9,9,10,10,11,11,13,13,14,14,15,15,16,16,17,17,19,19,20,20,21,21,22,22,23,23,24,24,26,26,27,27,28,28,29,29,30,30,31,31,32,32,33,33,34,34,35,35,36,36,37,37,38,38,40,40,41,41,42,42,43,43,44,44,45,45,47,47,48,48,49,49,50,50,51,51,52,52,53,53,54,54,55,55,56,56,57,57,58,58,59,59,60,60,61,61,62,62,65,65,66,66,67,67,68,68,69,69,70,70,71,71,72,72],"right_children":[2,4,6,8,-1,10,-1,12,-1,14,16,18,-1,20,22,24,26,28,-1,30,32,34,36,38,40,-1,42,44,46,48,50,52,54,56,58,60,62,64,66,-1,68,70,72,74,76,78,-1,80,82,84,86,88,90,92,94,96,98,100,102,104,106,108,110,-1,-1,112,114,116,118,120,122,124,126,-1,-1,-1,-1,-1,-1,-1,-1,-1,-1,-1,-1,-1,-1,-1,-1,-1,-1,-1,-1,-1,-1,-1,-1,-1,-1,-1,-1,-1,-1,-1,-1,-1,-1,-1,-1,-1,-1,-1,-1,-1,-1,-1,-1,-1,-1,-1,-1,-1,-1,-1,-1,-1,-1],"split_conditions":[1E0,1E0,1E0,5.932905E1,1.4517646E-1,4.2E1,-3.1238025E-1,7.89E2,1.3242055E-1,5.16E2,3E0,1E0,9.666296E-2,5.5E1,1.3E1,2E0,1.69176E-1,5.3E1,1.0620864E-1,6E0,1.14E2,4E0,5.7E2,1.69176E-1,1.69176E-1,-3.119395E-1,1.201006E0,4.214204E3,1E0,2E0,4E0,1.03E2,3E0,5.7E2,7E0,2E0,3.7E1,6.336372E2,3.4631797E3,-2.905407E-1,2E0,7.6E1,2E0,3.3E-2,4.2E1,3.2360103E3,7.652077E-2,1E0,3E0,5E0,1.2E1,6.216971E4,3E0,1.3E1,2E0,9E0,3E0,4E0,8E0,3.8E1,3.2E1,1.4E1,1.1E1,-2.757916E-1,-6.723442E-2,2.52E2,5E0,1.2405586E2,1.6333462E4,1E0,3E0,6.1E1,1.4782944E2,-4.6402994E-3,-2.7134547E-1,1.2243588E-1,-9.042927E-2,-2.5722295E-1,-3.117723E-1,1.3274416E-1,-1.6307122E-1,2.0465164E-2,7.950326E-2,1.0812809E-2,-1.3836883E-1,7.7050366E-2,-2.3566799E-1,1.465898E-1,2.8602375E-2,1.4431103E-1,4.4683497E-2,1.4152788E-1,2.8602375E-2,6.8276203E-3,1.4145632E-1,5.8736313E-2,-1.338272E-1,1.2674229E-1,7.617391E-2,4.99429E-2,-1.05943166E-1,-2.950877E-2,8.5854165E-2,-2.2040549E-1,-1.0546434E-1,4.7120657E-2,-1.338272E-1,-1.4894827E-1,4.3334223E-2,-2.3324862E-1,-4.4396408E-2,1.2307588E-1,7.3745936E-2,1.3261764E-1,1.4514951E-1,1.3737145E-1,9.7784095E-2,1.771847E-2,1.2878211E-1,-1.0312549E-1,6.6603124E-2,-1.2430436E-2,-1.3573867E-1,5.5917878E-2,-3.1078205E-2,-5.9732676E-2,7.3757544E-2],"split_indices":[28,136,45,0,0,16,0,23,0,23,37,173,0,23,27,37,13,23,0,37,23,27,23,13,13,0,0,9,180,27,30,23,37,23,37,31,27,9,9,0,27,23,11,12,16,9,0,81,36,27,30,9,27,27,31,29,27,30,29,27,27,27,36,0,0,23,11,13,9,177,11,23,15,0,0,0,0,0,0,0,0,0,0,0,0,0,0,0,0,0,0,0,0,0,0,0,0,0,0,0,0,0,0,0,0,0,0,0,0,0,0,0,0,0,0,0,0,0,0,0,0,0,0,0,0,0,0],"split_type":[0,0,0,0,0,0,0,0,0,0,0,0,0,0,0,0,0,0,0,0,0,0,0,0,0,0,0,0,0,0,0,0,0,0,0,0,0,0,0,0,0,0,0,0,0,0,0,0,0,0,0,0,0,0,0,0,0,0,0,0,0,0,0,0,0,0,0,0,0,0,0,0,0,0,0,0,0,0,0,0,0,0,0,0,0,0,0,0,0,0,0,0,0,0,0,0,0,0,0,0,0,0,0,0,0,0,0,0,0,0,0,0,0,0,0,0,0,0,0,0,0,0,0,0,0,0,0],"sum_hessian":[2.7435271E4,6.3795576E3,2.1055715E4,6.29652E3,8.303772E1,2.062596E4,4.297528E2,6.28739E3,9.129802E0,1.2594127E4,8.0318345E3,6.2834775E3,3.9127722E0,1.2060033E4,5.340934E2,5.4400576E3,2.5917769E3,6.2808687E3,2.6085148E0,6.186528E2,1.1441381E4,3.393243E2,1.947691E2,4.205143E3,1.2349144E3,2.671554E2,2.3246213E3,3.2171684E1,6.2486973E3,3.9475525E2,2.2389752E2,1.1000977E4,4.4040424E2,1.8803044E2,1.5129385E2,1.2912148E2,6.564762E1,8.477673E0,4.1966655E3,2.1737623E1,1.2131768E3,1.9335616E3,3.9105984E2,2.5867771E1,6.3039107E0,6.2476104E3,1.0868812E0,1.3738177E2,2.5737347E2,1.782485E2,4.564901E1,1.0887506E4,1.1347039E2,2.8671924E2,1.53685E2,8.021183E1,1.0781861E2,1.04775345E2,4.6518513E1,1.243392E2,4.782277E0,4.7605396E1,1.8042227E1,7.390792E0,1.0868812E0,1.091446E3,3.1052195E3,2.030294E2,1.01014734E3,9.414565E2,9.921051E2,1.9911662E2,1.919432E2,2.6085148E0,2.3259256E1,4.9996533E0,1.3042574E0,9.5862915E1,6.1517476E3,1.3629489E2,1.0868812E0,1.938996E2,6.347386E1,2.0650742E1,1.5759776E2,4.2605743E1,3.0432673E0,1.0886419E4,1.0868812E0,9.347178E1,1.9998613E1,2.8563235E2,1.0868812E0,1.2781722E2,2.5867771E1,7.890757E1,1.3042574E0,7.564693E1,3.2171684E1,9.8471436E1,6.3039107E0,4.3475246E1,3.0432673E0,1.1564416E2,8.695049E0,3.4780197E0,1.3042574E0,7.608168E0,3.9997227E1,1.0434059E1,7.608168E0,9.3602203E2,1.5542401E2,1.8405245E3,1.264695E3,1.399903E2,6.303911E1,9.20371E2,8.977638E1,8.9580743E2,4.564901E1,8.740698E2,1.1803529E2,8.41246E1,1.1499203E2,1.3259951E1,1.7868326E2],"tree_param":{"num_deleted":"0","num_feature":"194","num_nodes":"127","size_leaf_vector":"1"}},{"base_weights":[6.646692E-3,7.3095644E-1,-2.1126897E0,1.0714291E-1,1.2403215E0,-2.550286E0,1.365401E0,9.9757284E-1,-5.065831E-1,1.3175255E0,-1.6299409E-1,1.0107983E0,-2.5531332E0,1.3753232E0,-4.376989E-1,-2.4498966E0,1.1320608E0,-3.5733005E-1,-2.5523457E-1,-1.7282768E-1,1.3882362E0,4.7152406E-1,-1.2050743E0,1.1249292E-1,2.7268946E-2,-2.5547597E-1,4.172041E-1,1.3892351E-1,8.667528E-1,7.15419E-2,-9.164961E-1,-2.5351994E0,8.452154E-2,1.1808157E0,1.6358043E-1,3.7257907E-1,-6.821294E-1,4.9373098E-2,-2.4996614E-1,1.3972734E0,7.890907E-1,8.2243687E-1,1.6580394E-1,-1.6532831E0,-2.7426475E-1,-5.847543E-2,9.6965484E-2,-3.9561052E-2,1.0909464E0,-1.4467064E-1,1.0565472E-3,-2.558856E-1,2.558947E-2,1.1879519E0,-5.496375E-1,-1.9367476E0,1.1848099E0,5.828872E-1,-2.5135121E0,-8.106301E-1,5.474105E-1,4.7173044E-1,-5.450559E-1,-1.4304924E-1,1.3977505E0,1.2780391E0,1.5585749E-1,4.9842617E-1,1.1114162E0,4.0286312E-1,-1.9872183E-1,-3.1876615E-1,-1.8691161E0,-3.709099E-2,-2.3313351E-1,4.8273155E-1,-1.1390735E-1,-5.074988E-3,1.226562E0,1.1937875E0,-8.358467E-1,-2.2362922E-1,1.2290913E-1,7.674753E-1,-2.5127384E-1,1.22891E0,-5.0547177E-1,1.168235E0,1.2682742E-1,-2.5359657E-1,-1.8402819E-2,-1.8117067E0,-5.620528E-1,8.530409E-1,-2.1737494E0,1.2888686E-1,2.7747267E-1,-1.5404719E0,-2.510098E-1,1.3582761E0,1.4050972E-1,3.007937E-2,1.2985341E-1,-1.3356364E-1,7.1315295E-1,1.1232746E0,2.6161793E-1,1.2742125E0,7.8230494E-1,1.06416866E-1,6.9189924E-1,1.3448249E-1,-6.284265E-1,1.7871392E-1,-2.078922E0,-1.9299517E0,-5.6061333E-1,-1.363559E0,2.1686782E-1,-2.2400205E-3,8.862543E-2,-1.6689608E-2,1.3348126E-1,1.251464E-1,1.0108241E-1,-2.194845E-1,9.535535E-2,1.1566845E-1,-8.498625E-2,1.2536259E-1,-7.455278E-2,7.337674E-2,-1.2788229E-1,1.3161798E-1,-1.3307197E-3,-1.4870512E-2,9.094816E-2,-2.4708734E-1,1.495818E-2,-2.503738E-1,-4.27206E-2,1.3183758E-1,-1.1630448E-3,1.0772035E-1,-2.5605807E-1,2.3031086E-2,1.0604403E-1,5.0603874E-2,-1.7440133E-1,-4.08609E-2,4.7248397E-2,1.3896322E-1,6.0858544E-2,5.694775E-2,-1.0469705E-1,1.0769596E-1,-1.9494383E-2,1.1912602E-1,3.673775E-2,-1.1665167E-1,3.0722424E-2,2.319698E-2,1.2892435E-1,5.30108E-2,1.2087839E-1,1.5850572E-3,1.0016205E-1,7.3965795E-2,-6.843862E-2,-1.193229E-2,7.940457E-2,-8.473806E-2,4.5281243E-2,-1.1805625E-1,6.115788E-2,-2.32196E-1,-6.477021E-2,-7.128673E-2,-1.9475102E-1,1.7303064E-2,-1.5952036E-1,-1.5884733E-1,-2.7065456E-2,-7.1948014E-2,5.202339E-2],"categories":[],"categories_nodes":[],"categories_segments":[],"categories_sizes":[],"default_left":[0,0,0,0,0,0,0,0,0,0,0,0,0,0,0,0,0,0,0,0,0,0,0,0,0,0,0,0,0,0,0,0,0,0,0,0,0,0,0,0,0,0,0,0,0,0,0,0,0,0,0,0,0,0,0,0,0,0,0,0,0,0,0,0,0,0,0,0,0,0,0,0,0,0,0,0,0,0,0,0,0,0,0,0,0,0,0,0,0,0,0,0,0,0,0,0,0,0,0,0,0,0,0,0,0,0,0,0,0,0,0,0,0,0,0,0,0,0,0,0,0,0,0,0,0,0,0,0,0,0,0,0,0,0,0,0,0,0,0,0,0,0,0,0,0,0,0,0,0,0,0,0,0,0,0,0,0,0,0,0,0,0,0,0,0,0,0,0,0,0,0,0,0,0,0,0,0,0,0,0,0,0,0,0,0],"id":1,"left_children":[1,3,5,7,9,11,13,15,17,19,21,23,25,27,29,31,33,35,-1,37,39,41,43,-1,-1,-1,45,-1,47,-1,49,51,-1,53,55,57,59,61,-1,63,65,67,69,71,73,-1,-1,75,77,-1,-1,-1,-1,79,81,83,85,87,89,91,93,95,97,-1,99,101,103,105,107,109,111,113,115,117,-1,119,-1,-1,121,123,125,-1,-1,127,-1,129,131,133,135,-1,-1,137,139,141,143,-1,145,147,149,151,-1,-1,-1,153,155,157,159,161,163,165,167,169,171,173,175,177,179,181,183,-1,-1,-1,-1,-1,-1,-1,-1,-1,-1,-1,-1,-1,-1,-1,-1,-1,-1,-1,-1,-1,-1,-1,-1,-1,-1,-1,-1,-1,-1,-1,-1,-1,-1,-1,-1,-1,-1,-1,-1,-1,-1,-1,-1,-1,-1,-1,-1,-1,-1,-1,-1,-1,-1,-1,-1,-1,-1,-1,-1,-1,-1,-1,-1,-1,-1],"loss_changes":[4.182854E4,6.452793E3,1.0567076E4,4.989693E3,1.2114277E3,6.509766E1,1.44904785E1,1.730043E3,1.6495065E3,1.1169609E3,3.86632E2,1.6851902E-1,3.0828125E1,4.2598877E0,3.4201214E0,4.154785E1,1.6914258E2,1.1948406E3,0E0,2.4875131E2,5.3677734E1,3.8872963E1,9.185098E1,0E0,0E0,0E0,2.9091032E0,0E0,4.761713E0,0E0,1.9698334E0,9.694214E0,0E0,4.2813965E1,3.7346228E2,9.437087E2,5.5145667E2,1.1071018E2,0E0,1.5443359E1,4.705738E1,1.5273987E1,1.6980463E1,4.2361298E1,3.558229E1,0E0,0E0,3.7487042E0,2.9501896E0,0E0,0E0,0E0,0E0,4.1158203E1,4.686681E1,9.0699585E1,9.346481E0,3.8633408E2,5.0581665E0,7.8481055E2,2.7679684E2,4.055394E1,5.323858E1,0E0,9.8046875E-1,1.3316345E0,1.1005278E1,1.1766298E1,3.746933E0,1.0108774E1,1.1214891E1,1.9607815E1,9.120972E0,2.2720203E1,0E0,9.3276834E-1,0E0,0E0,2.7435818E0,3.4520508E1,2.7298922E1,0E0,0E0,7.764795E0,0E0,6.515793E0,4.4698067E0,1.10822754E2,1.758581E2,0E0,0E0,8.1188477E2,6.6167316E2,1.1989012E2,4.509224E1,0E0,7.4920216E0,1.8204376E1,1.645555E1,3.6612793E1,0E0,0E0,0E0,2.9726324E1,7.900505E0,6.978874E-1,4.2928967E0,6.040268E-1,2.7894306E0,4.836342E0,4.449251E0,7.5623026E0,8.463325E0,1.1341288E1,2.0742035E-1,1.2203064E0,5.667859E0,2.2331676E0,1.6489824E1,0E0,0E0,0E0,0E0,0E0,0E0,0E0,0E0,0E0,0E0,0E0,0E0,0E0,0E0,0E0,0E0,0E0,0E0,0E0,0E0,0E0,0E0,0E0,0E0,0E0,0E0,0E0,0E0,0E0,0E0,0E0,0E0,0E0,0E0,0E0,0E0,0E0,0E0,0E0,0E0,0E0,0E0,0E0,0E0,0E0,0E0,0E0,0E0,0E0,0E0,0E0,0E0,0E0,0E0,0E0,0E0,0E0,0E0,0E0,0E0,0E0,0E0,0E0,0E0,0E0,0E0],"parents":[2147483647,0,0,1,1,2,2,3,3,4,4,5,5,6,6,7,7,8,8,9,9,10,10,11,11,12,12,13,13,14,14,15,15,16,16,17,17,19,19,20,20,21,21,22,22,26,26,28,28,30,30,31,31,33,33,34,34,35,35,36,36,37,37,39,39,40,40,41,41,42,42,43,43,44,44,47,47,48,48,53,53,54,54,55,55,56,56,57,57,58,58,59,59,60,60,61,61,62,62,64,64,65,65,66,66,67,67,68,68,69,69,70,70,71,71,72,72,73,73,75,75,78,78,79,79,80,80,83,83,85,85,86,86,87,87,88,88,91,91,92,92,93,93,94,94,96,96,97,97,98,98,99,99,103,103,104,104,105,105,106,106,107,107,108,108,109,109,110,110,111,111,112,112,113,113,114,114,115,115,116,116,117,117,118,118],"right_children":[2,4,6,8,10,12,14,16,18,20,22,24,26,28,30,32,34,36,-1,38,40,42,44,-1,-1,-1,46,-1,48,-1,50,52,-1,54,56,58,60,62,-1,64,66,68,70,72,74,-1,-1,76,78,-1,-1,-1,-1,80,82,84,86,88,90,92,94,96,98,-1,100,102,104,106,108,110,112,114,116,118,-1,120,-1,-1,122,124,126,-1,-1,128,-1,130,132,134,136,-1,-1,138,140,142,144,-1,146,148,150,152,-1,-1,-1,154,156,158,160,162,164,166,168,170,172,174,176,178,180,182,184,-1,-1,-1,-1,-1,-1,-1,-1,-1,-1,-1,-1,-1,-1,-1,-1,-1,-1,-1,-1,-1,-1,-1,-1,-1,-1,-1,-1,-1,-1,-1,-1,-1,-1,-1,-1,-1,-1,-1,-1,-1,-1,-1,-1,-1,-1,-1,-1,-1,-1,-1,-1,-1,-1,-1,-1,-1,-1,-1,-1,-1,-1,-1,-1,-1,-1],"split_conditions":[4.7223547E4,4.56E7,7.576E-3,2E0,7.2E2,1.3E2,1.5815523E5,1.8342651E2,1E0,1.14E2,1.3E1,7.18821E4,3E0,5E0,2.8E1,8E0,3E0,3E0,-2.5523457E-1,1E0,2.58E2,3E0,1.082E3,1.1249292E-1,2.7268946E-2,-2.5547597E-1,1.704E3,1.3892351E-1,1.8732543E3,7.15419E-2,5.3E1,1E0,8.452154E-2,1.5E1,7.576E-3,1.5E1,3E0,5E0,-2.4996614E-1,1E0,3E0,1.142E3,6E0,1.064E3,4.5E1,-5.847543E-2,9.6965484E-2,1.767936E3,8.78E2,-1.4467064E-1,1.0565472E-3,-2.558856E-1,2.558947E-2,2.4219E-1,1.66E-4,1E0,6E0,2E0,5.07E-4,7.576E-3,1.9E1,1E0,8.9E1,-1.4304924E-1,2E0,1.14E8,8E0,1.064E3,2E0,6.4E8,1.174E3,3.9E1,2E0,1.4E1,-2.3313351E-1,1.1743423E5,-1.1390735E-1,-5.074988E-3,2.5779E-2,1.36223E2,8E0,-2.2362922E-1,1.2290913E-1,5.437444E3,-2.5127384E-1,4E1,1.6E1,8.291032E4,2E0,-2.5359657E-1,-1.8402819E-2,1E0,6E0,4.1289098E8,1.3E2,1.2888686E-1,8E0,7E0,5E0,2E0,1.4050972E-1,3.007937E-2,1.2985341E-1,3E0,3.2E1,5E5,8.333333E4,2.6666666E8,2.23E3,2E0,5E0,9E0,6E0,7E0,9.94E2,9.090909E4,3.2E1,1.958E3,8E0,-2.2400205E-3,8.862543E-2,-1.6689608E-2,1.3348126E-1,1.251464E-1,1.0108241E-1,-2.194845E-1,9.535535E-2,1.1566845E-1,-8.498625E-2,1.2536259E-1,-7.455278E-2,7.337674E-2,-1.2788229E-1,1.3161798E-1,-1.3307197E-3,-1.4870512E-2,9.094816E-2,-2.4708734E-1,1.495818E-2,-2.503738E-1,-4.27206E-2,1.3183758E-1,-1.1630448E-3,1.0772035E-1,-2.5605807E-1,2.3031086E-2,1.0604403E-1,5.0603874E-2,-1.7440133E-1,-4.08609E-2,4.7248397E-2,1.3896322E-1,6.0858544E-2,5.694775E-2,-1.0469705E-1,1.0769596E-1,-1.9494383E-2,1.1912602E-1,3.673775E-2,-1.1665167E-1,3.0722424E-2,2.319698E-2,1.2892435E-1,5.30108E-2,1.2087839E-1,1.5850572E-3,1.0016205E-1,7.3965795E-2,-6.843862E-2,-1.193229E-2,7.940457E-2,-8.473806E-2,4.5281243E-2,-1.1805625E-1,6.115788E-2,-2.32196E-1,-6.477021E-2,-7.128673E-2,-1.9475102E-1,1.7303064E-2,-1.5952036E-1,-1.5884733E-1,-2.7065456E-2,-7.1948014E-2,5.202339E-2],"split_indices":[9,8,22,32,3,3,8,8,45,3,27,9,31,27,1,1,29,27,0,10,3,32,3,0,0,0,3,0,14,0,10,158,0,11,22,11,31,32,0,188,32,3,27,3,27,0,0,14,3,0,0,0,0,22,22,10,27,27,22,22,31,158,3,0,31,8,29,3,32,8,3,27,31,27,0,9,0,0,22,13,1,0,0,9,0,29,2,8,30,0,0,188,2,17,3,0,27,27,30,30,0,0,0,29,27,5,5,8,3,31,29,27,29,29,3,5,27,3,29,0,0,0,0,0,0,0,0,0,0,0,0,0,0,0,0,0,0,0,0,0,0,0,0,0,0,0,0,0,0,0,0,0,0,0,0,0,0,0,0,0,0,0,0,0,0,0,0,0,0,0,0,0,0,0,0,0,0,0,0,0,0,0,0,0,0],"split_type":[0,0,0,0,0,0,0,0,0,0,0,0,0,0,0,0,0,0,0,0,0,0,0,0,0,0,0,0,0,0,0,0,0,0,0,0,0,0,0,0,0,0,0,0,0,0,0,0,0,0,0,0,0,0,0,0,0,0,0,0,0,0,0,0,0,0,0,0,0,0,0,0,0,0,0,0,0,0,0,0,0,0,0,0,0,0,0,0,0,0,0,0,0,0,0,0,0,0,0,0,0,0,0,0,0,0,0,0,0,0,0,0,0,0,0,0,0,0,0,0,0,0,0,0,0,0,0,0,0,0,0,0,0,0,0,0,0,0,0,0,0,0,0,0,0,0,0,0,0,0,0,0,0,0,0,0,0,0,0,0,0,0,0,0,0,0,0,0,0,0,0,0,0,0,0,0,0,0,0,0,0,0,0,0,0],"sum_hessian":[2.7246861E4,2.0307258E4,6.939604E3,9.12868E3,1.1178578E4,6.164308E3,7.752961E2,3.7244304E3,5.404249E3,1.0595711E4,5.828668E2,4.641862E0,6.159666E3,7.71289E2,4.0070543E0,1.3919083E2,3.5852397E3,5.0378745E3,3.6637445E2,4.7988245E2,1.0115829E4,3.626179E2,2.2024895E2,3.5663433E0,1.0755184E0,6.156435E3,3.2311745E0,7.490666E2,2.22224E1,1.0306569E0,2.9763973E0,1.3590323E2,3.2875996E0,3.4131946E3,1.720452E2,1.5513771E3,3.4864973E3,4.389443E2,4.0938164E1,9.9642E3,1.5162845E2,1.6804346E2,1.9457443E2,1.481397E2,7.2109245E1,1.127606E0,2.1035683E0,4.570295E0,1.7652105E1,1.5368849E0,1.4395124E0,1.3484354E2,1.0596937E0,3.399489E3,1.3705573E1,5.599196E1,1.1605324E2,1.446751E3,1.0462602E2,3.1569062E3,3.2959125E2,2.5673428E2,1.8221E2,1.1751907E0,9.963025E3,8.498746E1,6.6641E1,8.0504555E1,8.75389E1,1.1783716E2,7.673728E1,2.0968193E1,1.2717151E2,6.556754E1,6.5417004E0,3.478764E0,1.0915308E0,1.9406124E0,1.57114935E1,3.3901238E3,9.365205E0,6.902825E0,6.8027487E0,9.7735615E0,4.6218395E1,1.1336838E2,2.6848605E0,6.328865E2,8.1386456E2,1.0353938E2,1.0866401E0,6.267111E2,2.530195E3,2.9692795E2,3.2663307E1,4.822841E1,2.0850587E2,4.058415E1,1.4162585E2,1.592455E3,8.37057E3,2.0677822E0,8.291967E1,4.436249E1,2.2278507E1,2.1096195E1,5.940836E1,5.6646698E1,3.0892202E1,5.884831E1,5.8988846E1,4.3608856E1,3.312842E1,1.7048244E1,3.919948E0,1.21067825E2,6.1036787E0,9.833961E0,5.573358E1,1.9643142E0,1.5144497E0,1.09351E0,1.4617983E1,2.5731392E3,8.169845E2,5.193959E0,4.171245E0,8.107362E0,1.6661991E0,1.1232735E2,1.0410347E0,1.0513434E0,1.633517E0,5.6235785E2,7.0528625E1,6.0254816E2,2.1131642E2,4.6886957E2,1.5784158E2,1.6316615E2,2.3670288E3,1.9269939E2,1.0422856E2,3.283542E0,2.9379766E1,1.9788074E2,1.0625137E1,3.5368304E0,3.7047318E1,1.16650925E2,2.4974934E1,1.5277043E3,6.4750534E1,2.5280699E1,1.9081795E1,1.577335E1,6.505157E0,1.8826937E1,2.269258E0,1.0778594E0,5.8330498E1,1.0389549E0,5.5607742E1,2.0822105E1,1.0070099E1,5.4365906E1,4.482404E0,5.7457573E1,1.5312738E0,3.208238E1,1.1526477E1,2.772942E1,5.3990026E0,3.7005389E0,1.3347707E1,2.8189013E0,1.1010468E0,2.3133845E0,1.1875444E2,4.0584927E0,2.045186E0,7.7795296E0,2.054431E0,1.3302717E1,4.2430866E1],"tree_param":{"num_deleted":"0","num_feature":"194","num_nodes":"185","size_leaf_vector":"1"}},{"base_weights":[1.04727205E-2,-2.1518812E0,8.121098E-1,-2.2146838E0,1.1201439E0,-1.6440407E0,9.155272E-1,-2.875826E-1,-2.2154668E-1,-1.7209295E0,1.4110316E-1,-1.8343798E0,1.3524759E-1,1.2720376E0,4.8080146E-1,-1.5142785E-1,9.61683E-2,-1.859255E-2,-1.8437053E-1,-5.535173E-1,-2.1725295E0,-2.0821888E0,1.2943919E0,1.2002369E0,-1.7956091E-1,2.1548453E-1,-1.5374787E0,-2.187903E0,1.0143012E-1,-2.170585E0,9.0199254E-2,1.13990165E-1,1.3404102E0,1.2054942E0,-8.363251E-1,-4.0355358E-1,6.053548E-1,1.0765271E0,-3.2598528E-1,-1.7063308E0,9.846113E-2,-2.1918082E-1,-6.350329E-2,-2.2006813E-1,-4.0659957E-2,2.253177E-1,-1.299144E0,1.3477854E0,5.7810646E-1,1.2644877E0,1.0348896E0,-2.0361374E-1,9.141665E-1,-3.0644095E-1,-2.2324777E0,-5.364179E-1,1.1269381E0,1.1249776E-1,-2.4270335E-2,-6.275931E-1,9.889644E-1,-1.7833291E0,9.886693E-2,4.013287E-1,-1.6261075E-1,-1.9388829E-1,-4.0697736E-1,1.3479705E-1,2.6964506E-2,1.0774899E0,-8.542091E-2,1.3103079E0,1.1898054E0,9.493614E-1,1.3235254E0,1.9501826E-2,1.0408453E-1,2.954348E-1,-5.3369534E-1,-2.2419785E-1,-6.417439E-2,-9.2790806E-1,1.1605083E0,7.072336E-1,1.2443285E0,-8.1798516E-2,6.4715356E-2,2.8202895E-2,1.2959495E-1,-1.8286823E-1,-4.09491E-2,3.314222E-2,1.2974101E-1,-4.6579104E-2,5.3863224E-2,3.4235325E-2,-1.8702875E-1,1.2872754E-1,7.30397E-2,3.637446E-2,-3.3570062E-2,1.3245791E-1,1.06391184E-1,1.2594515E-1,9.80885E-2,8.201622E-3,1.0196257E-1,2.7403042E-2,1.3520963E-1,9.183046E-2,4.760486E-3,7.128387E-2,-6.2023725E-2,1.3081564E-1,-1.04778014E-1,1.22377455E-1,-1.1008646E-1,5.457232E-2,1.3654438E-1,1.2515615E-1,-9.843802E-2],"categories":[],"categories_nodes":[],"categories_segments":[],"categories_sizes":[],"default_left":[0,0,0,0,0,0,0,0,0,0,0,0,0,0,0,0,0,0,0,0,0,0,0,0,0,0,0,0,0,0,0,0,0,0,0,0,0,0,0,0,0,0,0,0,0,0,0,0,0,0,0,0,0,0,0,0,0,0,0,0,0,0,0,0,0,0,0,0,0,0,0,0,0,0,0,0,0,0,0,0,0,0,0,0,0,0,0,0,0,0,0,0,0,0,0,0,0,0,0,0,0,0,0,0,0,0,0,0,0,0,0,0,0,0,0,0,0,0,0,0,0],"id":2,"left_children":[1,3,5,7,9,11,13,15,-1,17,-1,19,-1,21,23,-1,-1,-1,-1,25,27,29,31,33,35,37,39,41,-1,43,-1,45,47,49,51,53,55,57,59,61,-1,-1,-1,-1,-1,63,65,67,69,71,73,-1,75,77,79,81,83,-1,-1,85,87,89,-1,91,93,-1,95,-1,-1,97,99,101,103,105,107,-1,-1,109,111,-1,-1,113,115,117,119,-1,-1,-1,-1,-1,-1,-1,-1,-1,-1,-1,-1,-1,-1,-1,-1,-1,-1,-1,-1,-1,-1,-1,-1,-1,-1,-1,-1,-1,-1,-1,-1,-1,-1,-1,-1],"loss_changes":[4.6352223E4,1.488625E3,4.95674E3,1.00703125E1,1.1553569E2,4.5224463E2,2.9007822E3,7.6342063E0,0E0,2.1377182E0,0E0,3.2012915E2,0E0,7.7387695E2,4.0083462E3,0E0,0E0,0E0,0E0,1.1859499E2,3.0958496E1,2.0020538E1,5.548633E2,4.4240234E1,7.737915E2,4.1662376E1,3.0931412E1,2.1501465E0,0E0,2.6514282E0,0E0,6.0779175E1,5.4507812E1,3.922998E1,2.4937092E1,6.0737933E2,5.825646E2,2.4744377E0,2.2499607E1,1.5198059E1,0E0,0E0,0E0,0E0,0E0,2.4458403E1,1.5320606E1,1.5800781E0,3.1896053E1,8.666992E0,2.44281E1,0E0,2.6694202E-1,4.4497574E2,1.1676025E0,2.0509615E2,3.2184998E1,0E0,0E0,1.1568775E1,1.9524479E0,3.1953583E0,0E0,1.4982395E1,2.41079E1,0E0,1.4952759E1,0E0,0E0,3.052826E0,4.859764E0,5.0688477E0,1.5456909E1,4.9045532E1,6.684662E0,0E0,0E0,1.3765103E2,2.5515082E2,0E0,0E0,6.840564E1,9.6471405E0,1.5094505E1,9.664612E0,0E0,0E0,0E0,0E0,0E0,0E0,0E0,0E0,0E0,0E0,0E0,0E0,0E0,0E0,0E0,0E0,0E0,0E0,0E0,0E0,0E0,0E0,0E0,0E0,0E0,0E0,0E0,0E0,0E0,0E0,0E0,0E0,0E0,0E0,0E0,0E0],"parents":[2147483647,0,0,1,1,2,2,3,3,4,4,5,5,6,6,7,7,9,9,11,11,13,13,14,14,19,19,20,20,21,21,22,22,23,23,24,24,25,25,26,26,27,27,29,29,31,31,32,32,33,33,34,34,35,35,36,36,37,37,38,38,39,39,45,45,46,46,47,47,48,48,49,49,50,50,52,52,53,53,54,54,55,55,56,56,59,59,60,60,61,61,63,63,64,64,66,66,69,69,70,70,71,71,72,72,73,73,74,74,77,77,78,78,81,81,82,82,83,83,84,84],"right_children":[2,4,6,8,10,12,14,16,-1,18,-1,20,-1,22,24,-1,-1,-1,-1,26,28,30,32,34,36,38,40,42,-1,44,-1,46,48,50,52,54,56,58,60,62,-1,-1,-1,-1,-1,64,66,68,70,72,74,-1,76,78,80,82,84,-1,-1,86,88,90,-1,92,94,-1,96,-1,-1,98,100,102,104,106,108,-1,-1,110,112,-1,-1,114,116,118,120,-1,-1,-1,-1,-1,-1,-1,-1,-1,-1,-1,-1,-1,-1,-1,-1,-1,-1,-1,-1,-1,-1,-1,-1,-1,-1,-1,-1,-1,-1,-1,-1,-1,-1,-1,-1],"split_conditions":[1E0,6E1,1.04E2,2E0,1E0,4.7E1,4.24E2,2E0,-2.2154668E-1,2E0,1.4110316E-1,4.5E1,1.3524759E-1,4.6E1,2E0,-1.5142785E-1,9.61683E-2,-1.859255E-2,-1.8437053E-1,8E0,5E0,3.0216715E1,1.14E2,4.58522E-1,6.7E1,2E0,4E0,4E0,1.0143012E-1,3.005009E1,9.0199254E-2,1.3E1,1.03E2,1.1828957E2,8E0,1E0,8.78E2,1.1E-5,2E0,2.05355E-1,9.846113E-2,-2.1918082E-1,-6.350329E-2,-2.2006813E-1,-4.0659957E-2,6E0,4E0,1.1996728E4,2E0,1.05953E-1,1.8E1,-2.0361374E-1,5.66E2,3E0,4.1543027E3,1.77E2,1.008E3,1.1249776E-1,-2.4270335E-2,3E0,5E-6,2E0,9.886693E-2,1E0,4E0,-1.9388829E-1,1.1E1,1.3479705E-1,2.6964506E-2,2E0,1.14E2,2.3999998E8,1E0,5.5E1,5.2E1,1.9501826E-2,1.0408453E-1,9.329E-2,1E0,-2.2419785E-1,-6.417439E-2,7.9E1,6E0,1.3698235E4,4.1E1,-8.1798516E-2,6.4715356E-2,2.8202895E-2,1.2959495E-1,-1.8286823E-1,-4.09491E-2,3.314222E-2,1.2974101E-1,-4.6579104E-2,5.3863224E-2,3.4235325E-2,-1.8702875E-1,1.2872754E-1,7.30397E-2,3.637446E-2,-3.3570062E-2,1.3245791E-1,1.06391184E-1,1.2594515E-1,9.80885E-2,8.201622E-3,1.0196257E-1,2.7403042E-2,1.3520963E-1,9.183046E-2,4.760486E-3,7.128387E-2,-6.2023725E-2,1.3081564E-1,-1.04778014E-1,1.22377455E-1,-1.1008646E-1,5.457232E-2,1.3654438E-1,1.2515615E-1,-9.843802E-2],"split_indices":[28,7,3,1,185,23,3,30,0,37,0,23,0,23,37,0,0,0,0,37,30,13,3,20,24,37,30,30,0,0,0,37,23,13,1,185,3,0,31,12,0,0,0,0,0,37,36,12,30,20,2,0,3,37,9,24,3,0,0,30,0,31,0,136,29,0,29,0,0,37,23,8,172,23,24,0,0,20,172,0,0,23,37,9,36,0,0,0,0,0,0,0,0,0,0,0,0,0,0,0,0,0,0,0,0,0,0,0,0,0,0,0,0,0,0,0,0,0,0,0,0],"split_type":[0,0,0,0,0,0,0,0,0,0,0,0,0,0,0,0,0,0,0,0,0,0,0,0,0,0,0,0,0,0,0,0,0,0,0,0,0,0,0,0,0,0,0,0,0,0,0,0,0,0,0,0,0,0,0,0,0,0,0,0,0,0,0,0,0,0,0,0,0,0,0,0,0,0,0,0,0,0,0,0,0,0,0,0,0,0,0,0,0,0,0,0,0,0,0,0,0,0,0,0,0,0,0,0,0,0,0,0,0,0,0,0,0,0,0,0,0,0,0,0,0],"sum_hessian":[2.6738275E4,7.231143E3,1.9507133E4,7.0952812E3,1.3586209E2,7.87569E2,1.8719562E4,3.0313714E0,7.0922495E3,1.2161893E1,1.237002E2,7.40895E2,4.667392E1,1.0283958E4,8.435605E3,1.4224677E0,1.6089035E0,1.0869282E0,1.1074965E1,1.5529533E2,5.8559973E2,6.747382E1,1.0216483E4,4.0368354E3,4.39877E3,8.7607704E1,6.768762E1,5.831003E2,2.4994564E0,6.579744E1,1.6763858E0,3.8347852E2,9.833005E3,4.0268484E3,9.987073E0,3.4225554E3,9.7621436E2,3.3441322E1,5.4166386E1,6.374349E1,3.9441347E0,5.812271E2,1.8731699E0,6.4450264E1,1.3471755E0,3.5625323E2,2.7225283E1,9.738023E3,9.498181E1,2.9874148E3,1.0394335E3,5.8287697E0,4.1583033E0,3.2510957E3,1.714599E2,3.0610538E2,6.7010895E2,3.2398685E1,1.0426368E0,4.4485535E1,9.680849E0,6.2301758E1,1.4417303E0,2.4503935E2,1.11213875E2,1.5172459E1,1.2052824E1,9.736102E3,1.9216825E0,5.383824E1,4.114357E1,1.841221E3,1.1461938E3,8.051437E2,2.3428986E2,1.0031202E0,3.155183E0,8.910032E2,2.3600925E3,1.7003497E2,1.4249246E0,2.4909174E2,5.7013645E1,1.479981E2,5.2211084E2,3.9016476E1,5.46906E0,3.512001E0,6.1688485E0,5.999029E1,2.3114672E0,2.2857709E2,1.646227E1,7.787892E1,3.3334953E1,8.477642E0,3.5751824E0,3.1868156E1,2.1970083E1,1.456002E1,2.6583551E1,1.7362799E3,1.0494098E2,8.558554E2,2.9033844E2,6.0499756E1,7.446439E2,6.489848E0,2.2780002E2,2.5283891E2,6.3816425E2,1.52745E2,2.2073474E3,1.21696205E1,2.3692212E2,5.5908337E1,1.1053079E0,1.2030658E2,2.7691513E1,5.2085895E2,1.251939E0],"tree_param":{"num_deleted":"0","num_feature":"194","num_nodes":"121","size_leaf_vector":"1"}},{"base_weights":[1.1999705E-2,-1.9553773E0,8.378307E-1,-4.1808513E-1,-1.9732337E-1,1.0894308E0,3.0811954E-1,-1.9437255E-1,1.2069825E0,-8.605065E-1,1.1498165E0,1.0822488E0,-2.6284584E-1,1.3001055E-1,-1.0933974E-1,1.1794605E0,-1.4867625E0,1.2271265E0,3.769016E-1,-1.144304E0,1.0916821E0,-5.0936836E-1,4.91876E-1,1.22875296E-1,-1.2997763E-1,-8.767053E-1,-1.9579935E0,4.1450167E-1,1.2717104E0,8.7659305E-1,-1.0518436E0,-1.8765141E-1,7.902164E-1,1.1806155E0,9.062801E-1,1.0605154E0,-6.326965E-1,1.0650706E0,-3.665655E-1,-1.1528891E0,3.1561434E-1,-1.9811155E-1,4.1562002E-2,1.145092E0,1.0896764E-2,1.2910591E0,8.6432976E-1,1.1754867E0,3.7738255E-1,-1.3188697E0,-1.4398032E-1,1.9898593E-2,9.359303E-2,1.1249094E0,1.3027375E0,1.184039E0,6.225034E-1,1.2196554E0,3.3184147E-1,-1.943554E0,-5.2407444E-1,1.1034567E0,4.8763368E-1,-8.102386E-1,1.2215921E0,-2.4235208E-1,-1.5865393E0,-7.8458406E-2,1.1267805E0,7.633712E-1,1.2606199E0,3.455629E-1,-4.3159798E-1,1.299448E0,1.0846752E0,1.1332887E0,1.192167E-1,1.2984322E0,8.9363533E-1,9.7189635E-1,3.0137244E-1,-1.0035444E0,-1.6268876E0,5.597983E-2,-1.9183682E-1,1.1962355E0,6.9659936E-1,1.3045686E-1,4.655141E-2,8.489376E-1,1.287325E0,1.0076562E0,4.351917E-1,6.054848E-1,1.273809E0,8.1061E-1,-9.813519E-1,8.742625E-2,-1.9667627E0,-6.1882985E-1,7.6809007E-1,8.9120424E-1,1.2066848E0,-2.347497E-1,8.219813E-1,-9.931027E-1,7.018995E-1,1.2331901E0,2.6410347E-2,-3.9249524E-2,7.289687E-2,-1.6265123E-1,1.7496368E-2,1.1201453E-1,-4.843947E-2,1.21566355E-1,3.603748E-2,8.6238556E-2,-9.7375534E-2,1.272911E-1,3.3557173E-2,4.528177E-4,6.0660627E-2,-1.5092985E-1,-3.2347288E-2,9.41525E-2,1.3006999E-1,1.257347E-1,2.1959927E-2,1.223127E-1,6.975261E-2,-1.101596E-1,2.7267084E-2,1.3011312E-1,2.4894593E-2,1.0820545E-1,6.561915E-2,1.0341169E-1,2.0981023E-2,2.1906352E-2,9.877435E-2,-1.3299055E-1,1.3318987E-1,-1.6483085E-1,-1.3853175E-2,-6.1985184E-2,3.8133837E-2,9.867815E-2,1.2595657E-1,1.08783655E-1,6.687049E-3,1.2455837E-1,9.2422925E-3,1.2903824E-1,4.4712048E-2,1.3867867E-2,1.1067724E-1,1.8419113E-2,8.580961E-2,1.21327795E-1,-5.0515746E-4,1.2871441E-1,-1.8888408E-3,-1.452974E-1,9.8223045E-2,-1.3485359E-1,5.065308E-2,-1.987596E-1,-8.408485E-2,-7.1738504E-2,1.1409553E-2,4.8024293E-2,1.0526382E-1,1.3168168E-1,7.47587E-2,1.3537906E-1,1.0899501E-1,-6.5903105E-2,7.631095E-2,-7.3686563E-3,1.01417534E-1,-1.1229352E-1,1.2162181E-1,-6.877051E-2,1.2196056E-1,5.4043777E-2,1.2573065E-1],"categories":[],"categories_nodes":[],"categories_segments":[],"categories_sizes":[],"default_left":[0,0,0,0,0,0,0,0,0,0,0,0,0,0,0,0,0,0,0,0,0,0,0,0,0,0,0,0,0,0,0,0,0,0,0,0,0,0,0,0,0,0,0,0,0,0,0,0,0,0,0,0,0,0,0,0,0,0,0,0,0,0,0,0,0,0,0,0,0,0,0,0,0,0,0,0,0,0,0,0,0,0,0,0,0,0,0,0,0,0,0,0,0,0,0,0,0,0,0,0,0,0,0,0,0,0,0,0,0,0,0,0,0,0,0,0,0,0,0,0,0,0,0,0,0,0,0,0,0,0,0,0,0,0,0,0,0,0,0,0,0,0,0,0,0,0,0,0,0,0,0,0,0,0,0,0,0,0,0,0,0,0,0,0,0,0,0,0,0,0,0,0,0,0,0,0,0,0,0,0,0,0,0,0,0,0,0],"id":3,"left_children":[1,3,5,7,-1,9,11,-1,13,15,17,19,21,-1,-1,23,25,27,29,31,33,35,37,-1,-1,39,41,43,45,47,49,-1,51,53,55,57,59,61,63,65,67,-1,-1,69,71,73,75,77,79,81,83,-1,-1,85,87,89,91,93,95,97,99,101,103,105,107,109,111,113,115,117,119,121,123,125,127,129,131,133,135,137,139,141,143,145,-1,147,149,-1,-1,151,153,155,157,159,161,163,165,-1,167,169,171,173,175,177,179,181,183,185,-1,-1,-1,-1,-1,-1,-1,-1,-1,-1,-1,-1,-1,-1,-1,-1,-1,-1,-1,-1,-1,-1,-1,-1,-1,-1,-1,-1,-1,-1,-1,-1,-1,-1,-1,-1,-1,-1,-1,-1,-1,-1,-1,-1,-1,-1,-1,-1,-1,-1,-1,-1,-1,-1,-1,-1,-1,-1,-1,-1,-1,-1,-1,-1,-1,-1,-1,-1,-1,-1,-1,-1,-1,-1,-1,-1,-1,-1,-1],"loss_changes":[4.2134727E4,2.0965039E2,2.434082E3,2.237626E2,0E0,1.4591387E3,2.600793E3,0E0,1.0817444E1,4.776997E2,7.173047E2,5.3707764E1,6.303982E2,0E0,0E0,1.2359146E1,8.035388E1,3.9508008E2,7.8173816E2,1.7099762E1,3.9946777E1,4.950489E2,4.1096582E2,0E0,0E0,4.193017E1,9.618713E0,1.6788799E2,8.047461E1,1.20542175E2,6.862128E1,0E0,1.3518095E-1,9.94873E0,6.316559E1,2.120575E1,3.3617078E2,1.0557739E1,2.3691391E2,4.0167755E1,7.9279313E0,0E0,0E0,7.9728394E0,5.4614628E1,1.56953125E1,9.452783E1,1.6398132E1,1.3495857E1,1.9658539E1,2.3395027E1,0E0,0E0,3.4591675E1,1.8878174E-1,1.3049255E1,2.8644577E1,4.3035126E0,2.266135E1,1.3546204E1,2.684046E2,9.191711E0,8.162144E0,7.32305E1,4.90654E-1,5.290235E0,5.1704254E0,9.028551E0,1.1258221E-1,9.37258E0,1.3238525E0,1.8689442E1,1.8019146E1,3.0263672E0,5.826944E1,1.2729584E1,2.397992E1,6.691284E-1,6.318634E0,1.401886E0,1.514982E1,8.63229E1,3.2557373E0,1.3420594E1,0E0,1.1924316E1,4.1301308E1,0E0,0E0,2.9652939E1,2.2039795E-1,1.1141907E1,2.8818928E1,5.301242E0,2.4257965E0,1.1540867E1,6.006675E0,0E0,2.543274E0,1.4738843E2,1.1776306E1,8.621582E0,3.8897705E0,5.252057E0,3.9957075E0,6.86091E1,2.1618977E1,5.293808E-1,0E0,0E0,0E0,0E0,0E0,0E0,0E0,0E0,0E0,0E0,0E0,0E0,0E0,0E0,0E0,0E0,0E0,0E0,0E0,0E0,0E0,0E0,0E0,0E0,0E0,0E0,0E0,0E0,0E0,0E0,0E0,0E0,0E0,0E0,0E0,0E0,0E0,0E0,0E0,0E0,0E0,0E0,0E0,0E0,0E0,0E0,0E0,0E0,0E0,0E0,0E0,0E0,0E0,0E0,0E0,0E0,0E0,0E0,0E0,0E0,0E0,0E0,0E0,0E0,0E0,0E0,0E0,0E0,0E0,0E0,0E0,0E0,0E0,0E0,0E0,0E0,0E0,0E0,0E0],"parents":[2147483647,0,0,1,1,2,2,3,3,5,5,6,6,8,8,9,9,10,10,11,11,12,12,15,15,16,16,17,17,18,18,19,19,20,20,21,21,22,22,25,25,26,26,27,27,28,28,29,29,30,30,32,32,33,33,34,34,35,35,36,36,37,37,38,38,39,39,40,40,43,43,44,44,45,45,46,46,47,47,48,48,49,49,50,50,53,53,54,54,55,55,56,56,57,57,58,58,59,59,60,60,61,61,62,62,63,63,64,64,65,65,66,66,67,67,68,68,69,69,70,70,71,71,72,72,73,73,74,74,75,75,76,76,77,77,78,78,79,79,80,80,81,81,82,82,83,83,85,85,86,86,89,89,90,90,91,91,92,92,93,93,94,94,95,95,96,96,98,98,99,99,100,100,101,101,102,102,103,103,104,104,105,105,106,106,107,107],"right_children":[2,4,6,8,-1,10,12,-1,14,16,18,20,22,-1,-1,24,26,28,30,32,34,36,38,-1,-1,40,42,44,46,48,50,-1,52,54,56,58,60,62,64,66,68,-1,-1,70,72,74,76,78,80,82,84,-1,-1,86,88,90,92,94,96,98,100,102,104,106,108,110,112,114,116,118,120,122,124,126,128,130,132,134,136,138,140,142,144,146,-1,148,150,-1,-1,152,154,156,158,160,162,164,166,-1,168,170,172,174,176,178,180,182,184,186,-1,-1,-1,-1,-1,-1,-1,-1,-1,-1,-1,-1,-1,-1,-1,-1,-1,-1,-1,-1,-1,-1,-1,-1,-1,-1,-1,-1,-1,-1,-1,-1,-1,-1,-1,-1,-1,-1,-1,-1,-1,-1,-1,-1,-1,-1,-1,-1,-1,-1,-1,-1,-1,-1,-1,-1,-1,-1,-1,-1,-1,-1,-1,-1,-1,-1,-1,-1,-1,-1,-1,-1,-1,-1,-1,-1,-1,-1,-1],"split_conditions":[6.2E1,1E-3,3.8084E-2,4.7E1,-1.9732337E-1,4.6E1,2E0,-1.9437255E-1,1.62E-4,3E0,2.52E2,8E0,6.7E1,1.3001055E-1,-1.0933974E-1,6E0,1E0,5.3E1,1.3E1,4.4E1,1E0,2E0,1E0,1.22875296E-1,-1.2997763E-1,3E0,4.2859604E1,2E0,1.9692E-2,3E0,5.7E2,-1.8765141E-1,6E0,1.77E2,5.8E1,2.52E2,8E0,1.44143E-1,1.77E2,6E0,4E0,-1.9811155E-1,4.1562002E-2,3.962E-3,6E0,1.03E2,3E0,1.4259524E3,2E0,3.3E1,4.5E1,1.9898593E-2,9.359303E-2,1.17E2,7.698663E2,5.4E1,8.20149E-1,5.4E1,2.8448553E2,6E0,1E0,8.6E1,1.3377848E9,3E0,2.2E1,2E0,1.7E1,3E0,1E1,1E-5,4E0,2E0,5.1E1,1E0,4E0,2E0,6.3E1,4.2290657E9,2E0,5.2431E-2,2E0,3E1,1.0809476E1,8E0,-1.9183682E-1,7.1E1,8.4E1,1.3045686E-1,4.655141E-2,5.3E1,1.0134423E4,6.2E1,6.7E1,5.3E1,6.353327E0,1.886164E4,3.6091802E9,8.742625E-2,2E1,1.413181E0,4.5478893E1,7.8E1,1.4456805E2,2.95779E-1,1.6418015E2,8.8E1,1.35E2,1.2169521E8,2.6410347E-2,-3.9249524E-2,7.289687E-2,-1.6265123E-1,1.7496368E-2,1.1201453E-1,-4.843947E-2,1.21566355E-1,3.603748E-2,8.6238556E-2,-9.7375534E-2,1.272911E-1,3.3557173E-2,4.528177E-4,6.0660627E-2,-1.5092985E-1,-3.2347288E-2,9.41525E-2,1.3006999E-1,1.257347E-1,2.1959927E-2,1.223127E-1,6.975261E-2,-1.101596E-1,2.7267084E-2,1.3011312E-1,2.4894593E-2,1.0820545E-1,6.561915E-2,1.0341169E-1,2.0981023E-2,2.1906352E-2,9.877435E-2,-1.3299055E-1,1.3318987E-1,-1.6483085E-1,-1.3853175E-2,-6.1985184E-2,3.8133837E-2,9.867815E-2,1.2595657E-1,1.08783655E-1,6.687049E-3,1.2455837E-1,9.2422925E-3,1.2903824E-1,4.4712048E-2,1.3867867E-2,1.1067724E-1,1.8419113E-2,8.580961E-2,1.21327795E-1,-5.0515746E-4,1.2871441E-1,-1.8888408E-3,-1.452974E-1,9.8223045E-2,-1.3485359E-1,5.065308E-2,-1.987596E-1,-8.408485E-2,-7.1738504E-2,1.1409553E-2,4.8024293E-2,1.0526382E-1,1.3168168E-1,7.47587E-2,1.3537906E-1,1.0899501E-1,-6.5903105E-2,7.631095E-2,-7.3686563E-3,1.01417534E-1,-1.1229352E-1,1.2162181E-1,-6.877051E-2,1.2196056E-1,5.4043777E-2,1.2573065E-1],"split_indices":[6,12,21,23,0,23,37,0,0,27,23,1,24,0,0,28,152,23,27,24,172,32,177,0,0,30,15,37,21,27,23,0,1,24,23,23,1,21,24,32,30,0,0,0,37,23,37,5,32,32,27,0,0,24,12,23,0,23,15,1,25,23,18,31,36,31,27,29,29,0,32,36,23,28,32,37,6,18,27,22,31,27,0,29,0,23,23,0,0,23,15,23,24,23,0,8,18,0,27,0,12,23,15,20,15,23,26,18,0,0,0,0,0,0,0,0,0,0,0,0,0,0,0,0,0,0,0,0,0,0,0,0,0,0,0,0,0,0,0,0,0,0,0,0,0,0,0,0,0,0,0,0,0,0,0,0,0,0,0,0,0,0,0,0,0,0,0,0,0,0,0,0,0,0,0,0,0,0,0,0,0,0,0,0,0,0,0],"split_type":[0,0,0,0,0,0,0,0,0,0,0,0,0,0,0,0,0,0,0,0,0,0,0,0,0,0,0,0,0,0,0,0,0,0,0,0,0,0,0,0,0,0,0,0,0,0,0,0,0,0,0,0,0,0,0,0,0,0,0,0,0,0,0,0,0,0,0,0,0,0,0,0,0,0,0,0,0,0,0,0,0,0,0,0,0,0,0,0,0,0,0,0,0,0,0,0,0,0,0,0,0,0,0,0,0,0,0,0,0,0,0,0,0,0,0,0,0,0,0,0,0,0,0,0,0,0,0,0,0,0,0,0,0,0,0,0,0,0,0,0,0,0,0,0,0,0,0,0,0,0,0,0,0,0,0,0,0,0,0,0,0,0,0,0,0,0,0,0,0,0,0,0,0,0,0,0,0,0,0,0,0,0,0,0,0,0,0],"sum_hessian":[2.5931506E4,7.666422E3,1.8265082E4,8.830721E1,7.5781147E3,1.2382593E4,5.8824897E3,4.544583E1,4.2861385E1,3.715483E2,1.2011045E4,2.4966174E3,3.3858726E3,4.1611706E1,1.2496766E0,8.7063675E1,2.8448462E2,1.091836E4,1.0926846E3,1.0025189E1,2.4865923E3,2.5524612E3,8.334113E2,8.586096E1,1.2027127E0,1.25226456E2,1.5925816E2,5.684054E2,1.0349955E4,8.0983734E2,2.8284723E2,7.294303E0,2.7308867E0,1.676866E3,8.0972626E2,1.8535966E2,2.3671016E3,4.99588E2,3.338233E2,1.0170176E2,2.3524693E1,1.5788553E2,1.372643E0,2.0161406E2,3.6679132E2,9.878597E3,4.7135846E2,5.0570218E2,3.0413513E2,2.1821255E2,6.463469E1,1.0077126E0,1.7231741E0,1.158586E3,5.182799E2,4.0759872E2,4.021275E2,1.5158105E2,3.3778606E1,1.798437E2,2.1872578E3,4.6759302E2,3.199498E1,2.613121E2,7.251121E1,3.3313053E1,6.838871E1,1.6440844E1,7.083851E0,4.860936E1,1.530047E2,2.0896596E2,1.5782536E2,9.487658E3,3.9093854E2,3.4595883E2,1.2539962E2,3.4959827E2,1.561039E2,3.3140438E1,2.7099472E2,1.0993131E2,1.08281235E2,5.895891E1,5.6757746E0,9.916537E2,1.6693239E2,5.1659186E2,1.6880484E0,9.820416E1,3.0939456E2,1.3014404E2,2.7198346E2,1.326947E1,1.3831158E2,2.503425E1,8.744354E0,1.1695997E0,1.786741E2,2.0383082E3,1.4894958E2,1.5615288E2,3.1144012E2,1.0217401E1,2.1777578E1,2.3342683E2,2.7885254E1,7.1358894E1,1.1523094E0,2.936919E1,3.943864E0,6.694616E1,1.4425445E0,3.714289E0,1.2726554E1,5.8224144E0,1.2614361E0,4.6464493E1,2.144869E0,1.5062727E2,2.377422E0,9.104259E1,1.1792337E2,1.3209117E1,1.4461626E2,3.569154E1,9.451967E3,3.255119E2,6.5426636E1,2.8532785E2,6.0630997E1,1.3312515E1,1.12087105E2,3.4846234E2,1.1359371E0,8.505388E1,7.1050026E1,3.0308912E1,2.8315241E0,2.4315497E2,2.7839735E1,9.683051E1,1.3100799E1,1.0663899E2,1.6422445E0,1.8865837E1,4.0093075E1,2.3407338E2,7.575803E2,1.0251472E2,6.441768E1,6.400133E1,3.4202835E1,3.0773895E2,1.6555977E0,1.3570155E1,1.1657389E2,1.7158221E2,1.0040126E2,6.1549463E0,7.1145244E0,1.3690363E2,1.4079591E0,1.2381033E0,2.3796146E1,7.088651E0,1.6557033E0,1.7467667E2,3.9974473E0,1.7967268E3,2.4158142E2,7.5381676E1,7.356791E1,3.733651E1,1.18816376E2,1.3310637E2,1.7833377E2,7.407394E0,2.8100066E0,3.956409E0,1.782117E1,2.2093513E2,1.2491694E1,7.4798336E0,2.040542E1,3.1881254E0,6.817077E1],"tree_param":{"num_deleted":"0","num_feature":"194","num_nodes":"187","size_leaf_vector":"1"}},{"base_weights":[1.2857559E-2,-1.7494785E0,7.2675014E-1,-1.7995288E0,1.0255594E0,-3.422011E-1,9.002269E-1,-2.7118605E-1,-1.800137E-1,-1.354415E0,1.3193683E-1,-1.7329375E0,6.6306055E-2,1.1539272E0,3.3129737E-1,-1.3018994E-1,8.669662E-2,-7.1918773E-3,-1.4923801E0,-1.7771437E0,1.3001028E-1,7.8949213E-1,-6.4697194E-1,1.2271725E0,1.5623878E-1,1.0174346E0,-1.4800484E-1,-6.4206827E-3,-1.6190867E-1,-1.7905465E0,9.037887E-2,-2.218123E-1,1.07654504E-1,1.0193098E0,-8.725117E-3,7.3406094E-1,-7.470903E-1,1.2460456E0,8.2586455E-1,7.108675E-1,-7.721822E-1,-1.7768031E-1,1.0287032E0,-1.8103562E-1,-3.7164427E-2,-1.7937665E-1,-3.138983E-2,4.615494E-1,-1.3309469E0,5.840085E-1,1.1434228E0,-7.414175E-1,1.2705992E-1,-6.150309E-1,1.069405E0,-2.6621702E-1,-1.1083225E0,1.260726E0,9.587023E-1,1.099824E0,1.6555691E-2,1.0913608E0,4.0307578E-1,-1.0589683E0,-2.1505372E-1,1.1290252E0,8.7974006E-1,-1.373046E-1,6.340446E-1,-8.731962E-2,8.820106E-2,-1.7873603E-1,-9.074045E-3,4.4982502E-1,1.2498049E-1,1.2218263E0,6.514812E-1,-1.8469857E-1,-9.562102E-1,2.6110092E-1,-1.5768718E0,4.1116467E-1,1.1644948E0,-8.476364E-1,-1.1947765E-2,-1.2994299E0,-4.9889517E-1,1.2611492E0,-2.6270688E-1,1.2195541E0,4.8702067E-1,1.1952133E0,6.2797934E-1,2.0578921E-1,-9.292433E-1,6.822051E-1,1.2202008E-1,4.5712364E-1,-6.2540114E-1,-4.293283E-1,-1.247751E0,3.0744396E-2,-1.0521619E0,1.1582661E0,2.9488286E-1,1.2622628E0,5.893908E-1,7.440633E-2,-3.912078E-1,3.9486372E-1,9.0324974E-1,4.8503067E-2,-1.965631E-1,1.0480441E-1,1.2573604E-1,-2.9328471E-2,1.2590736E-1,1.121494E-2,-1.6379492E-1,-1.1700074E-1,1.1749174E-3,-1.0928644E-1,7.443512E-2,-3.592276E-2,-2.0101662E-1,8.833288E-2,-7.533178E-2,-3.9223484E-3,1.2046716E-1,-3.0367909E-2,-1.22738995E-1,1.0991838E-1,-7.1722823E-3,-1.5115109E-1,-5.1770784E-2,-5.8448195E-2,1.0680391E-1,1.262637E-1,1.0903188E-1,-1.1234119E-1,7.226776E-2,1.22256234E-1,4.470162E-2,1.2798145E-1,2.0589824E-3,-2.8375527E-2,1.20206825E-1,6.972453E-2,-1.3569628E-1,-1.3422976E-1,3.022915E-2,6.59524E-2,-1.1890042E-1,-2.0132348E-2,1.0472565E-1,1.1395122E-1,3.845134E-2,-1.8846778E-2,-1.759545E-1,-6.144758E-2,9.850166E-2,-9.956732E-2,-1.429771E-1,-6.1586708E-2,5.2385043E-2,1.126204E-2,-1.2953518E-1,1.1783353E-1,4.615943E-2,4.1626167E-2,-1.9378026E-1,1.0636383E-1,1.2849174E-1,3.1667564E-2,9.82558E-2,-1.3439566E-2,3.273886E-2,-2.6811523E-2,-8.308104E-2,2.7955046E-2,1.13363616E-1,3.0386195E-2,1.03259265E-1],"categories":[],"categories_nodes":[],"categories_segments":[],"categories_sizes":[],"default_left":[0,0,0,0,0,0,0,0,0,0,0,0,0,0,0,0,0,0,0,0,0,0,0,0,0,0,0,0,0,0,0,0,0,0,0,0,0,0,0,0,0,0,0,0,0,0,0,0,0,0,0,0,0,0,0,0,0,0,0,0,0,0,0,0,0,0,0,0,0,0,0,0,0,0,0,0,0,0,0,0,0,0,0,0,0,0,0,0,0,0,0,0,0,0,0,0,0,0,0,0,0,0,0,0,0,0,0,0,0,0,0,0,0,0,0,0,0,0,0,0,0,0,0,0,0,0,0,0,0,0,0,0,0,0,0,0,0,0,0,0,0,0,0,0,0,0,0,0,0,0,0,0,0,0,0,0,0,0,0,0,0,0,0,0,0,0,0,0,0,0,0,0,0,0,0,0,0,0,0,0,0,0,0],"id":4,"left_children":[1,3,5,7,9,11,13,15,-1,17,-1,19,21,23,25,-1,-1,-1,27,29,31,33,35,37,39,41,43,-1,-1,45,-1,47,-1,49,51,53,55,57,59,61,63,-1,65,-1,67,-1,-1,69,71,73,75,77,-1,79,81,83,85,87,89,91,93,95,97,99,101,103,105,107,109,-1,-1,-1,-1,111,-1,113,115,117,119,121,123,125,127,129,131,133,135,137,139,141,143,145,147,149,151,153,-1,155,157,159,161,163,165,167,169,171,173,175,177,179,181,-1,-1,-1,-1,-1,-1,-1,-1,-1,-1,-1,-1,-1,-1,-1,-1,-1,-1,-1,-1,-1,-1,-1,-1,-1,-1,-1,-1,-1,-1,-1,-1,-1,-1,-1,-1,-1,-1,-1,-1,-1,-1,-1,-1,-1,-1,-1,-1,-1,-1,-1,-1,-1,-1,-1,-1,-1,-1,-1,-1,-1,-1,-1,-1,-1,-1,-1,-1,-1,-1,-1,-1],"loss_changes":[3.1339398E4,9.9928906E2,3.2878086E3,6.0703125E0,9.119829E1,1.4068375E3,2.2012285E3,5.8015065E0,0E0,2.4660835E0,0E0,4.6531494E1,9.882588E2,7.7066504E2,1.5476401E3,0E0,0E0,0E0,2.2631264E0,2.1353882E1,4.8888083E0,1.7451532E2,1.3391824E2,7.340137E1,3.726427E2,6.2766113E1,5.105393E2,0E0,0E0,2.0372314E0,0E0,8.9583845E0,0E0,3.9237732E1,2.01207E2,3.0383476E1,1.5602011E2,3.8374023E1,9.850552E1,5.259941E1,4.3027115E1,0E0,2.7822021E1,0E0,1.7477756E2,0E0,0E0,5.009783E0,2.3592486E0,1.42607E1,2.133191E1,1.6143425E1,0E0,1.1969978E1,2.837925E0,5.725174E1,5.9162598E1,6.0859375E0,5.6039154E1,1.419104E1,2.0486433E1,9.813004E0,1.4291027E1,2.0677841E1,1.9220125E1,2.7676147E1,8.59433E1,1.21641884E2,2.138031E1,0E0,0E0,0E0,0E0,1.2828894E1,0E0,1.730957E0,4.6870655E1,1.7109816E1,2.0344872E1,6.0712123E0,2.8023224E0,5.192956E0,2.260044E0,2.3968674E1,1.8044538E1,6.392932E1,1.7283222E1,8.9160156E-1,3.6158628E0,1.4074707E-1,6.119887E1,3.129425E0,8.911295E0,1.4644343E1,8.661259E0,1.6540453E1,0E0,1.1450897E1,6.1112328E0,1.1784444E1,4.852173E0,2.3617126E1,6.149664E0,1.49678955E1,1.1713024E1,1.4489746E-1,4.746608E1,6.5256386E1,5.545021E1,1.5063364E1,1.1939285E1,0E0,0E0,0E0,0E0,0E0,0E0,0E0,0E0,0E0,0E0,0E0,0E0,0E0,0E0,0E0,0E0,0E0,0E0,0E0,0E0,0E0,0E0,0E0,0E0,0E0,0E0,0E0,0E0,0E0,0E0,0E0,0E0,0E0,0E0,0E0,0E0,0E0,0E0,0E0,0E0,0E0,0E0,0E0,0E0,0E0,0E0,0E0,0E0,0E0,0E0,0E0,0E0,0E0,0E0,0E0,0E0,0E0,0E0,0E0,0E0,0E0,0E0,0E0,0E0,0E0,0E0,0E0,0E0,0E0,0E0,0E0,0E0],"parents":[2147483647,0,0,1,1,2,2,3,3,4,4,5,5,6,6,7,7,9,9,11,11,12,12,13,13,14,14,18,18,19,19,20,20,21,21,22,22,23,23,24,24,25,25,26,26,29,29,31,31,33,33,34,34,35,35,36,36,37,37,38,38,39,39,40,40,42,42,44,44,47,47,48,48,49,49,50,50,51,51,53,53,54,54,55,55,56,56,57,57,58,58,59,59,60,60,61,61,62,62,63,63,64,64,65,65,66,66,67,67,68,68,73,73,75,75,76,76,77,77,78,78,79,79,80,80,81,81,82,82,83,83,84,84,85,85,86,86,87,87,88,88,89,89,90,90,91,91,92,92,93,93,94,94,95,95,97,97,98,98,99,99,100,100,101,101,102,102,103,103,104,104,105,105,106,106,107,107,108,108,109,109,110,110],"right_children":[2,4,6,8,10,12,14,16,-1,18,-1,20,22,24,26,-1,-1,-1,28,30,32,34,36,38,40,42,44,-1,-1,46,-1,48,-1,50,52,54,56,58,60,62,64,-1,66,-1,68,-1,-1,70,72,74,76,78,-1,80,82,84,86,88,90,92,94,96,98,100,102,104,106,108,110,-1,-1,-1,-1,112,-1,114,116,118,120,122,124,126,128,130,132,134,136,138,140,142,144,146,148,150,152,154,-1,156,158,160,162,164,166,168,170,172,174,176,178,180,182,-1,-1,-1,-1,-1,-1,-1,-1,-1,-1,-1,-1,-1,-1,-1,-1,-1,-1,-1,-1,-1,-1,-1,-1,-1,-1,-1,-1,-1,-1,-1,-1,-1,-1,-1,-1,-1,-1,-1,-1,-1,-1,-1,-1,-1,-1,-1,-1,-1,-1,-1,-1,-1,-1,-1,-1,-1,-1,-1,-1,-1,-1,-1,-1,-1,-1,-1,-1,-1,-1,-1,-1],"split_conditions":[1E0,6E1,5.4E1,2E0,1E0,9.27633E-1,3.8084E-2,2E0,-1.800137E-1,2.126299E8,1.3193683E-1,4.7E1,3E0,4.5E2,2E0,-1.3018994E-1,8.669662E-2,-7.1918773E-3,4E0,1.6E1,4E0,5.3E1,1E0,1.9692E-2,7E0,8E0,8E0,-6.4206827E-3,-1.6190867E-1,1.0695051E4,9.037887E-2,1.30496E-1,1.07654504E-1,6E0,1.8E1,1.1855406E2,4.2E1,1.14E2,3E0,2E0,5.7E2,-1.7768031E-1,1E0,-1.8103562E-1,1.621525E0,-1.7937665E-1,-3.138983E-2,8.350187E3,1.52278E-1,1E0,1E0,6.9732E-2,1.2705992E-1,5.2E1,1.5550603E2,4.5E1,4.1543027E3,1.5239207E4,3E0,2E0,1.6E1,5.7E2,5E0,2.2E1,3.7E1,1E0,5.8E1,4E0,2.432555E0,-8.731962E-2,8.820106E-2,-1.7873603E-1,-9.074045E-3,1E0,1.2498049E-1,3.5545117E3,1.8E1,1.2E1,8.765982E3,2E0,2.043541E9,5.395207E3,1.463492E3,7E0,4.7E1,2.044112E2,1.2885548E2,1.5217E-2,7.7E1,8.1244E-2,3.2871387E4,9.300731E0,2.6E1,4.614993E1,1E0,8E-6,1.2202008E-1,1E0,5E0,1E1,3.3E1,1.4E1,6E-6,1.9E1,3.8E1,5.6E1,3.739542E3,1.2E1,1.4E1,6.1936626E3,9.27633E-1,4.8503067E-2,-1.965631E-1,1.0480441E-1,1.2573604E-1,-2.9328471E-2,1.2590736E-1,1.121494E-2,-1.6379492E-1,-1.1700074E-1,1.1749174E-3,-1.0928644E-1,7.443512E-2,-3.592276E-2,-2.0101662E-1,8.833288E-2,-7.533178E-2,-3.9223484E-3,1.2046716E-1,-3.0367909E-2,-1.22738995E-1,1.0991838E-1,-7.1722823E-3,-1.5115109E-1,-5.1770784E-2,-5.8448195E-2,1.0680391E-1,1.262637E-1,1.0903188E-1,-1.1234119E-1,7.226776E-2,1.22256234E-1,4.470162E-2,1.2798145E-1,2.0589824E-3,-2.8375527E-2,1.20206825E-1,6.972453E-2,-1.3569628E-1,-1.3422976E-1,3.022915E-2,6.59524E-2,-1.1890042E-1,-2.0132348E-2,1.0472565E-1,1.1395122E-1,3.845134E-2,-1.8846778E-2,-1.759545E-1,-6.144758E-2,9.850166E-2,-9.956732E-2,-1.429771E-1,-6.1586708E-2,5.2385043E-2,1.126204E-2,-1.2953518E-1,1.1783353E-1,4.615943E-2,4.1626167E-2,-1.9378026E-1,1.0636383E-1,1.2849174E-1,3.1667564E-2,9.82558E-2,-1.3439566E-2,3.273886E-2,-2.6811523E-2,-8.308104E-2,2.7955046E-2,1.13363616E-1,3.0386195E-2,1.03259265E-1],"split_indices":[28,7,23,1,185,5,21,32,0,17,0,23,32,23,32,0,0,0,29,1,36,23,172,21,32,1,1,0,0,14,0,20,0,1,1,15,16,23,32,32,23,0,172,0,0,0,0,14,20,136,175,21,0,23,15,23,9,14,32,32,1,23,29,32,32,175,23,32,0,0,0,0,0,81,0,9,1,1,14,36,18,14,14,32,23,15,15,21,23,20,8,5,36,15,172,0,0,172,36,29,32,32,0,36,1,23,9,1,1,9,5,0,0,0,0,0,0,0,0,0,0,0,0,0,0,0,0,0,0,0,0,0,0,0,0,0,0,0,0,0,0,0,0,0,0,0,0,0,0,0,0,0,0,0,0,0,0,0,0,0,0,0,0,0,0,0,0,0,0,0,0,0,0,0,0,0,0,0,0,0,0,0,0],"split_type":[0,0,0,0,0,0,0,0,0,0,0,0,0,0,0,0,0,0,0,0,0,0,0,0,0,0,0,0,0,0,0,0,0,0,0,0,0,0,0,0,0,0,0,0,0,0,0,0,0,0,0,0,0,0,0,0,0,0,0,0,0,0,0,0,0,0,0,0,0,0,0,0,0,0,0,0,0,0,0,0,0,0,0,0,0,0,0,0,0,0,0,0,0,0,0,0,0,0,0,0,0,0,0,0,0,0,0,0,0,0,0,0,0,0,0,0,0,0,0,0,0,0,0,0,0,0,0,0,0,0,0,0,0,0,0,0,0,0,0,0,0,0,0,0,0,0,0,0,0,0,0,0,0,0,0,0,0,0,0,0,0,0,0,0,0,0,0,0,0,0,0,0,0,0,0,0,0,0,0,0,0,0,0],"sum_hessian":[2.4907723E4,7.1804365E3,1.7727285E4,7.0535703E3,1.2686608E2,2.4750757E3,1.525221E4,2.983266E0,7.050587E3,1.3544017E1,1.1332206E2,5.6121454E2,1.9138611E3,1.0547694E4,4.704516E3,1.490025E0,1.4932411E0,1.4632468E0,1.208077E1,5.4825104E2,1.2963501E1,9.50277E2,9.6358405E2,9.826082E3,7.216119E2,1.934332E3,2.770184E3,1.1072407E0,1.0973529E1,5.458543E2,2.396773E0,1.0008899E1,2.9546027E0,7.3762714E2,2.1264987E2,6.470538E1,8.9887866E2,9.382717E3,4.4336554E2,4.518912E2,2.6972064E2,7.1401453E0,1.9271919E3,1.7220294E2,2.5979812E3,5.4445233E2,1.401934E0,6.5544353E0,3.4544632E0,1.649176E2,5.7270953E2,1.3547902E2,7.717085E1,1.2715754E1,5.1989628E1,3.8633093E2,5.125477E2,8.923431E3,4.592859E2,3.3096985E2,1.1239567E2,2.009412E2,2.5095003E2,1.7746727E2,9.2253365E1,1.1476838E3,7.79508E2,2.261391E3,3.365899E2,1.312182E0,5.2422533E0,2.20267E0,1.251793E0,1.3864993E2,2.6267664E1,4.9270123E2,8.000828E1,3.8235836E1,9.724319E1,7.035617E0,5.6801367E0,7.2344637E0,4.4755165E1,1.1683624E2,2.694947E2,3.8932803E2,1.2321971E2,8.921124E3,2.3061128E0,2.9471542E2,1.6457048E2,2.7403677E2,5.6933098E1,9.4308945E1,1.8086721E1,4.962924E1,1.5131197E2,2.3894849E2,1.2001534E1,4.1691013E1,1.3577626E2,7.205833E1,2.0195044E1,1.108439E3,3.9244884E1,3.34919E2,4.44589E2,1.2335406E3,1.0278505E3,1.7954033E2,1.5704958E2,1.3744585E2,1.2040968E0,8.88191E1,4.0388214E2,3.1517677E1,4.84906E1,3.2516655E1,5.7191806E0,7.947949E1,1.7763693E1,1.5187927E0,5.5168242E0,1.9708145E0,3.7093225E0,5.3191447E0,1.915319E0,1.4463239E0,4.330884E1,4.877328E1,6.806296E1,1.287007E1,2.5662463E2,3.0550974E2,8.3818275E1,1.1743247E2,5.7872353E0,8.837768E3,8.335647E1,1.156163E0,1.1499497E0,2.9299197E2,1.7234536E0,6.03128E1,1.0425768E2,1.0779002E0,2.7295886E2,5.5640224E1,1.2928725E0,4.7764106E0,8.953254E1,2.3253417E0,1.576138E1,1.4641395E1,3.4987846E1,2.1567188E1,2.173813E2,9.50563E0,2.4959047E0,3.7365192E1,4.3258214E0,5.9644817E1,7.613144E1,3.106878E1,4.0989544E1,3.5808954E0,1.661415E1,1.0767299E3,3.1709087E1,3.7992977E1,1.2519085E0,3.919828E1,2.957207E2,2.6357153E2,1.8101744E2,6.760354E2,5.575053E2,8.042604E2,2.2359012E2,1.5649223E2,2.3048105E1,2.8469316E1,1.2858026E2],"tree_param":{"num_deleted":"0","num_feature":"194","num_nodes":"183","size_leaf_vector":"1"}},{"base_weights":[1.3884494E-2,-1.6535497E0,7.560828E-1,-1.6589891E0,5.5692863E-1,1.0086175E0,2.661266E-1,-1.661412E0,1.0921147E-1,-1.3052207E-1,1.01625085E-1,-7.629002E-2,1.1067696E0,9.697425E-1,-1.5378931E-1,-1.567486E0,-1.6675805E-1,9.874974E-1,-6.035821E-1,1.1984321E0,3.181277E-1,8.25566E-1,1.2236464E0,-4.566147E-1,6.0905296E-1,-1.6633183E-1,1.1383194E-1,1.1531007E0,4.059972E-1,-1.551771E0,-1.9703555E-1,1.2208532E0,8.406662E-1,7.7489847E-1,-8.6993325E-1,9.6403617E-1,3.8852388E-1,-1.6157159E-1,1.2310952E-1,-5.5708873E-1,7.6940113E-1,1.0766186E0,-3.0959874E-1,1.1791115E0,4.8600528E-1,1.1291649E0,1.7910667E-1,-1.6259934E0,5.106343E-1,-6.975551E-1,-6.598822E-4,1.2303044E0,9.818968E-1,1.0396422E0,-1.1533563E-2,1.0881084E0,3.0550665E-1,-1.0643901E0,-2.240367E-1,-1.655106E-1,9.839894E-1,4.9867126E-1,-2.1535368E-1,-1.4734253E-1,8.9507595E-2,-1.6417325E0,-4.665047E-1,9.0847707E-1,5.6273837E-2,9.078661E-1,1.1631361E0,-7.0201266E-1,1.183909E0,9.305578E-1,1.2148706E-1,-1.435395E-1,1.10190086E-1,-1.3227485E-2,1.2473438E-1,-5.618987E-1,2.9119018E-1,-1.653234E0,2.6309285E-1,8.4014356E-1,-7.384785E-2,-8.9256763E-1,7.642901E-1,-1.5597998E-1,2.4499832E-1,1.2307652E0,-3.8123506E-1,1.1784768E0,1.5238646E-1,1.1545634E0,7.227724E-1,2.4804112E-1,-9.057901E-1,1.2164594E0,7.7226293E-1,9.5112973E-1,2.339527E-1,-1.7078471E-1,-9.453715E-1,1.5781046E-1,-1.0678793E0,1.0353948E0,5.3622776E-1,5.537327E-1,-5.4549795E-1,-5.648769E-1,1.1559111E-1,-1.6661154E0,-2.4898201E-1,-5.682717E-1,6.36395E-2,1.0204736E0,6.0430175E-1,2.674874E-1,-8.8325894E-1,9.5663965E-1,1.4506637E-1,1.0868125E0,1.24600545E-1,-8.2932186E-1,1.211042E0,1.4587845E-2,1.1968925E0,9.763914E-2,-8.094107E-3,-7.971015E-2,1.2819049E-2,1.1442592E-2,7.043282E-2,-1.70006E-1,-8.667884E-2,8.771614E-2,-4.7148235E-2,1.1954597E-2,1.0746697E-1,-4.3721016E-2,-1.2074484E-1,1.0191705E-1,-8.184747E-3,-3.1473235E-5,-6.676475E-2,6.5348074E-2,7.90936E-3,9.130769E-2,1.2320819E-1,-1.256833E-1,6.684848E-2,1.21511355E-1,7.979417E-2,-1.5995735E-2,1.2122746E-1,1.1688613E-1,3.86187E-2,9.630455E-2,9.407178E-3,-6.6252835E-2,4.1885853E-2,-1.4901231E-1,1.59635E-2,3.6945667E-2,1.22233465E-1,5.8930058E-2,9.895193E-2,1.08380795E-1,6.064068E-2,1.14924185E-1,1.9072955E-2,-2.1541966E-3,-1.18318476E-1,-9.075644E-2,4.9247958E-2,-1.5194575E-1,-2.9061547E-2,4.6855975E-2,1.0851263E-1,-8.7982185E-2,7.855564E-2,6.793275E-2,2.4155468E-2,3.962705E-2,-1.9111165E-1,-3.300367E-2,-1.1760809E-1,-1.6795534E-1,-8.6540006E-2,9.01294E-2,-1.2110889E-1,-5.9597064E-2,8.264513E-2,-1.0839167E-2,5.9140284E-2,6.2603205E-2,1.2723766E-1,-5.8302414E-2,7.4034855E-2,-9.834462E-3,8.249868E-2,-2.0361367E-1,3.3021312E-2,8.305349E-2,1.1202023E-1,-2.1546327E-2,1.0074248E-1,9.088862E-2,1.2075496E-1,-1.22783735E-1,-1.2081777E-2,1.2637074E-1,2.5332196E-2,1.2101617E-1,1.5548731E-2],"categories":[],"categories_nodes":[],"categories_segments":[],"categories_sizes":[],"default_left":[0,0,0,0,0,0,0,0,0,0,0,0,0,0,0,0,0,0,0,0,0,0,0,0,0,0,0,0,0,0,0,0,0,0,0,0,0,0,0,0,0,0,0,0,0,0,0,0,0,0,0,0,0,0,0,0,0,0,0,0,0,0,0,0,0,0,0,0,0,0,0,0,0,0,0,0,0,0,0,0,0,0,0,0,0,0,0,0,0,0,0,0,0,0,0,0,0,0,0,0,0,0,0,0,0,0,0,0,0,0,0,0,0,0,0,0,0,0,0,0,0,0,0,0,0,0,0,0,0,0,0,0,0,0,0,0,0,0,0,0,0,0,0,0,0,0,0,0,0,0,0,0,0,0,0,0,0,0,0,0,0,0,0,0,0,0,0,0,0,0,0,0,0,0,0,0,0,0,0,0,0,0,0,0,0,0,0,0,0,0,0,0,0,0,0,0,0,0,0,0,0,0,0,0,0,0,0,0,0,0,0,0,0,0,0],"id":5,"left_children":[1,3,5,7,9,11,13,15,-1,-1,-1,17,19,21,23,25,-1,27,29,31,33,35,37,39,41,-1,-1,43,45,47,49,51,53,55,57,59,61,63,-1,65,67,69,71,73,75,77,79,81,83,85,87,89,91,93,95,97,99,101,103,-1,105,107,109,-1,-1,111,113,115,117,119,121,123,125,127,-1,-1,-1,-1,-1,129,131,133,135,137,-1,139,141,143,145,147,149,151,153,155,157,159,161,163,165,167,169,-1,171,173,175,177,179,181,183,185,-1,187,189,191,193,195,197,199,201,203,205,207,-1,209,211,-1,213,-1,-1,-1,-1,-1,-1,-1,-1,-1,-1,-1,-1,-1,-1,-1,-1,-1,-1,-1,-1,-1,-1,-1,-1,-1,-1,-1,-1,-1,-1,-1,-1,-1,-1,-1,-1,-1,-1,-1,-1,-1,-1,-1,-1,-1,-1,-1,-1,-1,-1,-1,-1,-1,-1,-1,-1,-1,-1,-1,-1,-1,-1,-1,-1,-1,-1,-1,-1,-1,-1,-1,-1,-1,-1,-1,-1,-1,-1,-1,-1,-1,-1,-1,-1,-1,-1,-1,-1],"loss_changes":[2.953805E4,8.931836E1,2.0432998E3,5.069922E1,1.740176E1,1.1606094E3,1.6602852E3,1.6308594E0,0E0,0E0,0E0,5.0829996E2,7.220947E2,7.587012E1,8.133511E2,1.233103E2,0E0,2.8454071E1,2.3321086E2,7.0791016E1,5.661518E2,8.087567E1,8.025879E0,3.108587E2,4.3011948E2,0E0,0E0,3.4737244E0,1.0974374E1,2.8635712E1,4.178579E1,1.7816406E1,9.0089294E1,1.1039923E2,3.6165436E1,5.487616E1,2.1705517E1,8.168142E0,0E0,2.2813794E2,1.8921928E1,8.628601E0,1.990844E2,8.5839844E-1,1.3952183E1,2.5619717E0,4.568655E0,9.46994E0,3.5307984E0,3.4833324E1,1.1726707E1,6.484375E0,5.2885803E1,1.4848541E1,2.379544E1,1.7358154E1,1.3767126E1,1.5425751E1,2.2187603E1,0E0,2.2733948E1,1.61081E1,2.4995407E1,0E0,0E0,5.669922E0,1.1611752E2,4.8345184E0,6.6430864E0,8.394943E0,1.3968506E0,6.640106E1,7.790375E-1,1.5819244E0,0E0,0E0,0E0,0E0,0E0,1.2886322E0,3.3318717E0,4.9051514E0,1.9285085E0,8.9613867E-1,0E0,1.4693245E1,3.2404547E0,1.4996677E1,8.016203E0,2.2607422E0,3.67021E0,2.6960754E0,2.121352E1,3.0024414E0,1.762843E1,1.2640537E1,1.4593452E1,1.1368713E0,4.7098846E0,7.0973206E-1,1.0618301E1,0E0,4.172043E1,1.7532001E1,7.075989E0,2.5046509E1,3.821199E1,1.009446E1,1.911595E1,5.517514E0,0E0,4.393921E-1,5.804466E0,7.0231384E1,3.160575E1,1.0679832E1,7.783617E0,5.6137795E0,9.287737E0,3.5126648E0,4.869308E0,3.9345703E0,0E0,7.110396E1,5.454292E-1,0E0,7.7563477E-1,0E0,0E0,0E0,0E0,0E0,0E0,0E0,0E0,0E0,0E0,0E0,0E0,0E0,0E0,0E0,0E0,0E0,0E0,0E0,0E0,0E0,0E0,0E0,0E0,0E0,0E0,0E0,0E0,0E0,0E0,0E0,0E0,0E0,0E0,0E0,0E0,0E0,0E0,0E0,0E0,0E0,0E0,0E0,0E0,0E0,0E0,0E0,0E0,0E0,0E0,0E0,0E0,0E0,0E0,0E0,0E0,0E0,0E0,0E0,0E0,0E0,0E0,0E0,0E0,0E0,0E0,0E0,0E0,0E0,0E0,0E0,0E0,0E0,0E0,0E0,0E0,0E0,0E0,0E0,0E0,0E0,0E0,0E0,0E0,0E0,0E0,0E0,0E0],"parents":[2147483647,0,0,1,1,2,2,3,3,4,4,5,5,6,6,7,7,11,11,12,12,13,13,14,14,15,15,17,17,18,18,19,19,20,20,21,21,22,22,23,23,24,24,27,27,28,28,29,29,30,30,31,31,32,32,33,33,34,34,35,35,36,36,37,37,39,39,40,40,41,41,42,42,43,43,44,44,45,45,46,46,47,47,48,48,49,49,50,50,51,51,52,52,53,53,54,54,55,55,56,56,57,57,58,58,60,60,61,61,62,62,65,65,66,66,67,67,68,68,69,69,70,70,71,71,72,72,73,73,79,79,80,80,81,81,82,82,83,83,85,85,86,86,87,87,88,88,89,89,90,90,91,91,92,92,93,93,94,94,95,95,96,96,97,97,98,98,99,99,100,100,102,102,103,103,104,104,105,105,106,106,107,107,108,108,109,109,111,111,112,112,113,113,114,114,115,115,116,116,117,117,118,118,119,119,120,120,121,121,123,123,124,124,126,126],"right_children":[2,4,6,8,10,12,14,16,-1,-1,-1,18,20,22,24,26,-1,28,30,32,34,36,38,40,42,-1,-1,44,46,48,50,52,54,56,58,60,62,64,-1,66,68,70,72,74,76,78,80,82,84,86,88,90,92,94,96,98,100,102,104,-1,106,108,110,-1,-1,112,114,116,118,120,122,124,126,128,-1,-1,-1,-1,-1,130,132,134,136,138,-1,140,142,144,146,148,150,152,154,156,158,160,162,164,166,168,170,-1,172,174,176,178,180,182,184,186,-1,188,190,192,194,196,198,200,202,204,206,208,-1,210,212,-1,214,-1,-1,-1,-1,-1,-1,-1,-1,-1,-1,-1,-1,-1,-1,-1,-1,-1,-1,-1,-1,-1,-1,-1,-1,-1,-1,-1,-1,-1,-1,-1,-1,-1,-1,-1,-1,-1,-1,-1,-1,-1,-1,-1,-1,-1,-1,-1,-1,-1,-1,-1,-1,-1,-1,-1,-1,-1,-1,-1,-1,-1,-1,-1,-1,-1,-1,-1,-1,-1,-1,-1,-1,-1,-1,-1,-1,-1,-1,-1,-1,-1,-1,-1,-1,-1,-1,-1,-1],"split_conditions":[6.2E1,3E0,3.8084E-2,1E0,4.7E1,5.3E1,2E0,1.62E-4,1.0921147E-1,-1.3052207E-1,1.01625085E-1,3E0,2.49E2,1.534E3,6.7E1,4.7E1,-1.6675805E-1,1E0,1E0,1.5217E-2,1.3E1,1E1,1.5693992E3,1E0,1E0,-1.6633183E-1,1.1383194E-1,1E0,5.2E1,8E0,4.5E1,1.03E2,5E0,3E0,5.7E2,4.4E1,1E0,5E0,1.2310952E-1,6E0,5.4074075E5,2E0,1.77E2,4.5E1,7.86E2,1.8012133E1,1.1111111E5,6.0044334E1,3.599E-2,2E0,3E0,4.55678E2,4E0,2E0,3E0,1E0,2E0,2.52E2,3.7E1,-1.655106E-1,2.52E2,9E0,5.9E1,-1.4734253E-1,8.9507595E-2,4.4E1,1.257773E0,1.1760597E5,5E0,1.52924E-1,1.106E3,8.8E1,5.1687188E3,2E0,1.2148706E-1,-1.435395E-1,1.10190086E-1,-1.3227485E-2,1.2473438E-1,1.5E-5,2E0,7.2193584E3,6E0,2.9657E-2,-7.384785E-2,7E0,9E0,6E0,5E0,6.32278E-1,1E1,3E0,1.99425E-1,2.6E1,1.17E2,2E0,4.184059E1,2.53E2,5.7E2,5E0,1.2996793E1,-1.7078471E-1,5.32E2,1.5E1,1.1E1,5.4E1,2.53E2,9.6787E-2,1.144E3,2.01688E1,1.1559111E-1,2E1,2.3472E-1,1.2E1,2.603654E0,7.7E1,2.45889E5,2E0,3E0,9.3E1,8.44E2,8.7E1,1.24600545E-1,2E0,1.40117E-1,1.4587845E-2,1.1291307E2,9.763914E-2,-8.094107E-3,-7.971015E-2,1.2819049E-2,1.1442592E-2,7.043282E-2,-1.70006E-1,-8.667884E-2,8.771614E-2,-4.7148235E-2,1.1954597E-2,1.0746697E-1,-4.3721016E-2,-1.2074484E-1,1.0191705E-1,-8.184747E-3,-3.1473235E-5,-6.676475E-2,6.5348074E-2,7.90936E-3,9.130769E-2,1.2320819E-1,-1.256833E-1,6.684848E-2,1.21511355E-1,7.979417E-2,-1.5995735E-2,1.2122746E-1,1.1688613E-1,3.86187E-2,9.630455E-2,9.407178E-3,-6.6252835E-2,4.1885853E-2,-1.4901231E-1,1.59635E-2,3.6945667E-2,1.22233465E-1,5.8930058E-2,9.895193E-2,1.08380795E-1,6.064068E-2,1.14924185E-1,1.9072955E-2,-2.1541966E-3,-1.18318476E-1,-9.075644E-2,4.9247958E-2,-1.5194575E-1,-2.9061547E-2,4.6855975E-2,1.0851263E-1,-8.7982185E-2,7.855564E-2,6.793275E-2,2.4155468E-2,3.962705E-2,-1.9111165E-1,-3.300367E-2,-1.1760809E-1,-1.6795534E-1,-8.6540006E-2,9.01294E-2,-1.2110889E-1,-5.9597064E-2,8.264513E-2,-1.0839167E-2,5.9140284E-2,6.2603205E-2,1.2723766E-1,-5.8302414E-2,7.4034855E-2,-9.834462E-3,8.249868E-2,-2.0361367E-1,3.3021312E-2,8.305349E-2,1.1202023E-1,-2.1546327E-2,1.0074248E-1,9.088862E-2,1.2075496E-1,-1.22783735E-1,-1.2081777E-2,1.2637074E-1,2.5332196E-2,1.2101617E-1,1.5548731E-2],"split_indices":[6,31,21,149,23,23,32,0,0,0,0,27,23,4,24,23,0,158,158,21,27,2,9,25,177,0,0,175,23,2,23,23,27,27,23,24,175,11,0,2,8,36,24,23,4,5,5,13,21,31,36,13,32,32,11,158,32,6,27,0,23,36,24,0,0,24,0,8,32,21,4,23,9,27,0,0,0,0,0,0,36,9,27,22,0,32,32,32,32,5,2,27,0,36,24,36,5,23,23,27,5,0,23,27,36,23,23,22,4,5,0,27,0,36,0,23,8,36,27,23,4,23,0,35,21,0,5,0,0,0,0,0,0,0,0,0,0,0,0,0,0,0,0,0,0,0,0,0,0,0,0,0,0,0,0,0,0,0,0,0,0,0,0,0,0,0,0,0,0,0,0,0,0,0,0,0,0,0,0,0,0,0,0,0,0,0,0,0,0,0,0,0,0,0,0,0,0,0,0,0,0,0,0,0,0,0,0,0,0,0,0,0,0,0,0],"split_type":[0,0,0,0,0,0,0,0,0,0,0,0,0,0,0,0,0,0,0,0,0,0,0,0,0,0,0,0,0,0,0,0,0,0,0,0,0,0,0,0,0,0,0,0,0,0,0,0,0,0,0,0,0,0,0,0,0,0,0,0,0,0,0,0,0,0,0,0,0,0,0,0,0,0,0,0,0,0,0,0,0,0,0,0,0,0,0,0,0,0,0,0,0,0,0,0,0,0,0,0,0,0,0,0,0,0,0,0,0,0,0,0,0,0,0,0,0,0,0,0,0,0,0,0,0,0,0,0,0,0,0,0,0,0,0,0,0,0,0,0,0,0,0,0,0,0,0,0,0,0,0,0,0,0,0,0,0,0,0,0,0,0,0,0,0,0,0,0,0,0,0,0,0,0,0,0,0,0,0,0,0,0,0,0,0,0,0,0,0,0,0,0,0,0,0,0,0,0,0,0,0,0,0,0,0,0,0,0,0,0,0,0,0,0,0],"sum_hessian":[2.3865834E4,7.3506104E3,1.6515225E4,7.332816E3,1.7794373E1,1.0897396E4,5.6178276E3,7.3267593E3,6.0567245E0,3.1563823E0,1.4637991E1,9.041164E2,9.993279E3,2.0991533E3,3.5186746E3,4.6724252E2,6.859517E3,2.993397E2,6.0477673E2,8.952254E3,1.0410256E3,1.3415952E3,7.5755804E2,2.519078E3,9.9959656E2,4.516322E2,1.5610303E1,2.322228E2,6.711688E1,1.8064388E2,4.2413284E2,8.422036E3,5.3021826E2,7.521834E2,2.888423E2,1.01788727E3,3.2370795E2,3.9411914E0,7.536169E2,2.3287766E3,1.9030148E2,6.6232263E2,3.3727393E2,2.2276927E2,9.453531E0,1.507898E1,5.2037903E1,1.745729E2,6.0709686E0,1.1879575E2,3.053371E2,8.0976113E3,3.2442447E2,4.296754E2,1.0054284E2,4.5035678E2,3.018266E2,2.215065E2,6.733578E1,7.076303E0,1.010811E3,2.7391925E2,4.97887E1,1.582297E0,2.3588943E0,1.781772E2,2.1505994E3,1.5901587E2,3.1285622E1,2.2837341E2,4.3394922E2,2.675152E2,6.975873E1,3.1417318E1,1.9135194E2,1.9717401E0,7.4817905E0,1.2814561E0,1.3797524E1,6.3097486E0,4.5728153E1,1.7221442E2,2.3584826E0,5.062829E0,1.0081394E0,1.0515706E2,1.3638695E1,1.8728755E2,1.1804955E2,8.095532E3,2.0790305E0,2.619306E2,6.249386E1,3.1337732E2,1.162981E2,7.848402E1,2.2058825E1,3.181983E2,1.321585E2,2.88873E1,2.729393E2,3.249228E1,1.8901422E2,4.691793E1,2.0417843E1,9.0553827E2,1.0527272E2,2.6064456E2,1.3274693E1,4.014433E1,9.644372E0,1.7491862E2,3.2585773E0,1.8041927E3,3.4640656E2,1.1450176E2,4.4514103E1,2.6127316E1,5.1583066E0,2.144099E2,1.396352E1,2.3324382E2,2.0070541E2,2.5135464E2,1.616055E1,1.0129018E0,6.874583E1,3.008863E1,1.3286868E0,4.5902023E0,1.7195464E0,3.2920033E1,1.2808123E1,1.6144037E2,1.0774057E1,1.1788856E0,1.1795969E0,1.6138617E0,3.4489675E0,4.3965652E1,6.1191402E1,1.03242445E1,3.3144495E0,1.4436717E2,4.2920387E1,3.3248314E1,8.480124E1,3.6280827E1,8.0592515E3,1.0259537E0,1.0530769E0,2.3692691E2,2.5003695E1,4.8924988E1,1.3568872E1,3.0714087E2,6.236445E0,8.3756676E1,3.2541428E1,1.1942741E1,6.6541275E1,1.398831E1,8.070515E0,2.6320553E0,3.1556622E2,7.3756744E1,5.8401752E1,1.9310865E1,9.576436E0,1.1154032E1,2.6178528E2,3.8918537E1,1.5009569E2,1.0806152E1,3.611178E1,1.2310661E1,8.107181E0,7.388028E1,8.3165796E2,1.5382102E1,8.989062E1,1.8502827E2,7.561628E1,8.276685E0,4.998008E0,3.0113808E1,1.00305195E1,1.7095204E2,3.9665835E0,1.512942E0,1.7456353E0,1.7696211E3,3.4571644E1,2.6184836E2,8.455819E1,4.5983654E1,6.8518105E1,4.238429E0,4.0275673E1,1.6272724E1,9.854592E0,2.2975457E0,2.8607612E0,1.24499886E2,8.991002E1,1.037581E1,3.5877097E0,9.773819E1,1.3550563E2,1.6040048E2,9.095417E1,1.5015356E1,1.1451937E0,6.77209E1,1.0249212E0],"tree_param":{"num_deleted":"0","num_feature":"194","num_nodes":"215","size_leaf_vector":"1"}},{"base_weights":[1.5915014E-2,6.526384E-1,-8.354571E-1,-6.739894E-1,8.841377E-1,-1.564897E-1,6.575998E-1,-3.8653147E-1,-1.5621918E-1,1.1716608E0,2.0895997E-1,-2.5047612E-1,8.876089E-1,8.9919347E-1,-5.428496E-1,1.194251E0,-4.587948E-2,9.8081833E-1,-1.9147123E-1,2.0470583E-1,-7.6218826E-1,1.1139197E0,4.8271713E-1,1.0132289E0,4.8686025E-1,-4.1918197E-1,-1.4458205E0,1.1981865E0,-1.4576678E-1,8.3361346E-1,-8.807608E-1,1.054015E0,4.518828E-1,-8.453305E-2,-1.5066493E0,1.0749911E0,-3.0778755E-2,-2.6568806E-1,-9.45066E-1,9.5539546E-1,1.1936843E0,-2.513904E-1,9.9184287E-1,1.1333064E0,4.667174E-1,9.802513E-1,-9.985902E-2,-1.5472516E-1,-8.335857E-1,8.157376E-1,-1.5754054E-1,1.2025326E0,-4.2654678E-1,1.1434882E-1,4.7818196E-1,-2.924481E-1,-1.6074876E-1,-2.5647491E-2,1.0738469E0,1.0233196E0,-2.657982E-1,7.902119E-1,-1.935173E-1,-1.5766463E-1,1.0368861E-1,5.3788227E-1,1.193616E0,1.2258998E-1,-1.4984527E-1,6.2927115E-1,-4.5509973E-1,7.693962E-4,-1.0935E0,1.1577789E0,7.077442E-1,1.19450785E-1,4.4119924E-2,-5.548063E-1,1.0493158E0,1.0346426E0,4.5954558E-1,1.1411208E0,2.2951223E-2,1.1023462E-1,1.9403571E-1,1.1216567E0,-6.578688E-2,-1.2517804E0,1.8438686E-1,1.8164772E-1,-4.858663E-1,-9.5574623E-1,-5.1427316E-2,-5.6446385E-1,1.3211305E-1,1.2033225E0,-1.4467794E-1,8.2075334E-1,-1.5726062E0,6.8048257E-1,2.1749063E-1,-6.1244124E-1,5.250361E-1,6.8670905E-1,-9.2938536E-1,1.1789349E0,8.743649E-1,1.20817445E-1,6.6198385E-4,-6.471681E-1,6.4794266E-1,1.0341632E0,-3.3584434E-1,-1.611924E-2,-5.909143E-1,9.535946E-1,-5.9911495E-1,1.2249962E-1,4.4704354E-1,-4.9204943E-1,9.6032046E-2,1.5572925E-1,1.168288E-1,-7.379494E-1,3.288055E-1,-5.76606E-1,8.4000695E-1,-1.1510811E0,1.2973203E-1,1.1606488E0,2.2591395E-2,2.2386272E-1,1.1172034E0,-9.843047E-1,-1.0792763E-1,1.1575902E0,-2.578758E-1,6.795471E-1,1.103638E0,-1.9734004E-1,6.389096E-1,1.1496108E-1,2.34602E-2,-2.1820439E-2,5.1434577E-2,1.2163197E-1,4.3289717E-2,-3.8437475E-2,-1.6846637E-1,-4.2722773E-2,7.9220295E-2,2.7178738E-2,-2.6993623E-2,-8.9705385E-2,-2.0549329E-2,7.9786174E-2,-1.0151491E-1,-3.167826E-2,6.637618E-2,7.902284E-2,-1.6640504E-1,1.2051506E-1,6.0224384E-2,1.0568495E-1,-7.1487926E-2,6.646113E-4,-1.7611326E-1,1.0072005E-1,3.6947977E-2,3.3950936E-2,-2.6438102E-2,-3.2352207E-3,-1.0763039E-1,1.00299574E-1,-2.7928272E-2,8.125054E-2,-1.39847165E-2,4.6233032E-2,-1.7717092E-1,1.18141495E-1,-3.4828428E-3,-9.951515E-2,9.3015075E-2,9.264641E-2,-9.635496E-2,-1.1474516E-1,-5.1667076E-3,8.866384E-2,8.017805E-3,4.6939157E-2,1.1543485E-1,-1.7936943E-2,-1.4208107E-1,4.1823324E-2,-2.5679206E-2,-7.692676E-2,-2.6746714E-2,1.5070627E-2,1.0165953E-1,7.645921E-2,-1.3603733E-1,-2.7720947E-2,8.139275E-2,-8.5799724E-2,-7.759217E-3,1.5646451E-3,1.2712245E-1,5.9735823E-2,-8.91601E-2,3.3128507E-2,-9.03544E-2,5.5800408E-2,-6.497715E-2,-1.0892208E-2,-1.8600301E-1,-4.4886105E-2,1.20489456E-1,-1.2337991E-1,-9.183402E-3,1.16650276E-1,4.7635905E-2,-1.8293003E-2,1.1939786E-1,1.13757424E-1,-1.306692E-2,1.1811053E-1,-1.0908902E-1,2.2995574E-3,-1.445356E-1,1.18423246E-1,4.3133896E-2,-1.6157539E-1,1.0111441E-1,1.2509423E-1,5.7822466E-2,1.2007612E-1,9.3558244E-2,5.9505712E-2,-6.9702975E-2,-1.9713823E-2,8.1831954E-2],"categories":[],"categories_nodes":[],"categories_segments":[],"categories_sizes":[],"default_left":[0,0,0,0,0,0,0,0,0,0,0,0,0,0,0,0,0,0,0,0,0,0,0,0,0,0,0,0,0,0,0,0,0,0,0,0,0,0,0,0,0,0,0,0,0,0,0,0,0,0,0,0,0,0,0,0,0,0,0,0,0,0,0,0,0,0,0,0,0,0,0,0,0,0,0,0,0,0,0,0,0,0,0,0,0,0,0,0,0,0,0,0,0,0,0,0,0,0,0,0,0,0,0,0,0,0,0,0,0,0,0,0,0,0,0,0,0,0,0,0,0,0,0,0,0,0,0,0,0,0,0,0,0,0,0,0,0,0,0,0,0,0,0,0,0,0,0,0,0,0,0,0,0,0,0,0,0,0,0,0,0,0,0,0,0,0,0,0,0,0,0,0,0,0,0,0,0,0,0,0,0,0,0,0,0,0,0,0,0,0,0,0,0,0,0,0,0,0,0,0,0,0,0,0,0,0,0,0,0,0,0,0,0,0,0,0,0,0,0,0,0,0,0,0,0,0,0,0,0,0,0,0,0,0,0,0,0,0,0,0,0],"id":6,"left_children":[1,3,5,7,9,-1,11,13,-1,15,17,19,21,23,25,27,29,31,33,35,37,39,41,43,45,47,49,51,-1,53,55,57,59,61,63,65,67,69,71,73,75,77,79,81,83,85,87,89,91,93,-1,95,97,-1,99,101,-1,103,105,107,109,111,113,-1,-1,115,117,-1,119,121,123,125,127,129,131,-1,-1,133,135,137,139,141,-1,-1,143,145,-1,147,149,151,153,155,157,159,-1,161,-1,163,165,167,169,171,173,175,177,179,181,-1,183,185,187,189,191,193,195,197,199,-1,201,203,205,207,-1,209,211,213,215,217,-1,219,-1,221,223,225,227,229,231,233,235,237,239,-1,-1,-1,-1,-1,-1,-1,-1,-1,-1,-1,-1,-1,-1,-1,-1,-1,-1,-1,-1,-1,-1,-1,-1,-1,-1,-1,-1,-1,-1,-1,-1,-1,-1,-1,-1,-1,-1,-1,-1,-1,-1,-1,-1,-1,-1,-1,-1,-1,-1,-1,-1,-1,-1,-1,-1,-1,-1,-1,-1,-1,-1,-1,-1,-1,-1,-1,-1,-1,-1,-1,-1,-1,-1,-1,-1,-1,-1,-1,-1,-1,-1,-1,-1,-1,-1,-1,-1,-1,-1,-1,-1,-1,-1,-1,-1,-1,-1,-1,-1],"loss_changes":[1.2323513E4,3.9949941E3,1.0594798E4,4.929256E2,2.1495967E3,0E0,6.671764E2,2.942594E2,0E0,2.1366992E2,1.02282684E3,1.5065526E2,2.3294678E2,6.974655E0,1.4499326E2,8.13291E1,1.05322975E2,4.328662E1,3.0638193E2,7.0274704E1,2.7387253E1,1.9517578E1,3.4236517E2,7.574936E0,1.0615712E1,1.2570476E2,4.7194336E1,5.428125E1,0E0,7.1497154E0,3.0979431E1,2.1271973E1,5.7342224E1,1.9239531E2,3.0801208E1,4.010315E0,4.069194E1,1.4411839E1,3.117717E1,2.6841217E1,1.4404297E-1,1.4883456E2,1.18428955E1,4.4822693E-1,3.9364042E0,5.3310223E0,5.9622803E0,7.829713E1,4.266748E1,7.127168E0,0E0,1.763086E1,3.138477E1,0E0,1.6591296E0,1.127509E1,0E0,1.27883835E1,1.9394043E1,1.4683868E1,2.219182E1,6.177127E1,1.2645765E2,0E0,0E0,7.6752806E0,8.3434296E-1,0E0,2.092971E1,3.6403875E0,1.5620163E1,1.556438E1,2.7917084E1,5.4577637E-1,4.9432503E1,0E0,0E0,5.8481804E1,1.0404037E1,1.1491821E1,5.0792E0,4.9552917E-1,0E0,0E0,2.4851205E0,6.8766785E-1,0E0,7.015276E-1,5.8818254E0,1.4281455E1,4.0637497E1,4.1083557E1,1.1872027E1,6.0112233E0,0E0,7.6171875E0,0E0,4.648664E0,3.380354E0,1.5405769E0,1.0565097E0,8.186956E0,5.0155783E0,1.2708054E0,1.1069437E1,1.9534302E0,3.6390015E1,0E0,1.2401168E1,1.3222445E1,2.490027E0,1.1949646E1,6.6328187E0,1.2986867E2,3.1731857E1,4.2300606E-1,5.855084E0,0E0,1.2762928E0,1.5696493E1,1.3702246E1,4.753416E0,0E0,9.377619E0,4.642171E0,1.1219949E1,6.69757E0,1.635527E1,0E0,6.4990234E-1,0E0,4.606902E1,3.594925E0,3.71848E1,2.6424717E1,7.685547E-1,1.2454294E1,4.1336517E0,5.679138E0,4.2875175E0,5.149907E0,0E0,0E0,0E0,0E0,0E0,0E0,0E0,0E0,0E0,0E0,0E0,0E0,0E0,0E0,0E0,0E0,0E0,0E0,0E0,0E0,0E0,0E0,0E0,0E0,0E0,0E0,0E0,0E0,0E0,0E0,0E0,0E0,0E0,0E0,0E0,0E0,0E0,0E0,0E0,0E0,0E0,0E0,0E0,0E0,0E0,0E0,0E0,0E0,0E0,0E0,0E0,0E0,0E0,0E0,0E0,0E0,0E0,0E0,0E0,0E0,0E0,0E0,0E0,0E0,0E0,0E0,0E0,0E0,0E0,0E0,0E0,0E0,0E0,0E0,0E0,0E0,0E0,0E0,0E0,0E0,0E0,0E0,0E0,0E0,0E0,0E0,0E0,0E0,0E0,0E0,0E0,0E0,0E0,0E0,0E0,0E0,0E0,0E0,0E0,0E0],"parents":[2147483647,0,0,1,1,2,2,3,3,4,4,6,6,7,7,9,9,10,10,11,11,12,12,13,13,14,14,15,15,16,16,17,17,18,18,19,19,20,20,21,21,22,22,23,23,24,24,25,25,26,26,27,27,29,29,30,30,31,31,32,32,33,33,34,34,35,35,36,36,37,37,38,38,39,39,40,40,41,41,42,42,43,43,44,44,45,45,46,46,47,47,48,48,49,49,51,51,52,52,54,54,55,55,57,57,58,58,59,59,60,60,61,61,62,62,65,65,66,66,68,68,69,69,70,70,71,71,72,72,73,73,74,74,77,77,78,78,79,79,80,80,81,81,84,84,85,85,87,87,88,88,89,89,90,90,91,91,92,92,93,93,95,95,97,97,98,98,99,99,100,100,101,101,102,102,103,103,104,104,105,105,106,106,108,108,109,109,110,110,111,111,112,112,113,113,114,114,115,115,116,116,118,118,119,119,120,120,121,121,123,123,124,124,125,125,126,126,127,127,129,129,131,131,132,132,133,133,134,134,135,135,136,136,137,137,138,138,139,139,140,140],"right_children":[2,4,6,8,10,-1,12,14,-1,16,18,20,22,24,26,28,30,32,34,36,38,40,42,44,46,48,50,52,-1,54,56,58,60,62,64,66,68,70,72,74,76,78,80,82,84,86,88,90,92,94,-1,96,98,-1,100,102,-1,104,106,108,110,112,114,-1,-1,116,118,-1,120,122,124,126,128,130,132,-1,-1,134,136,138,140,142,-1,-1,144,146,-1,148,150,152,154,156,158,160,-1,162,-1,164,166,168,170,172,174,176,178,180,182,-1,184,186,188,190,192,194,196,198,200,-1,202,204,206,208,-1,210,212,214,216,218,-1,220,-1,222,224,226,228,230,232,234,236,238,240,-1,-1,-1,-1,-1,-1,-1,-1,-1,-1,-1,-1,-1,-1,-1,-1,-1,-1,-1,-1,-1,-1,-1,-1,-1,-1,-1,-1,-1,-1,-1,-1,-1,-1,-1,-1,-1,-1,-1,-1,-1,-1,-1,-1,-1,-1,-1,-1,-1,-1,-1,-1,-1,-1,-1,-1,-1,-1,-1,-1,-1,-1,-1,-1,-1,-1,-1,-1,-1,-1,-1,-1,-1,-1,-1,-1,-1,-1,-1,-1,-1,-1,-1,-1,-1,-1,-1,-1,-1,-1,-1,-1,-1,-1,-1,-1,-1,-1,-1,-1],"split_conditions":[5.3E1,5.6E1,3.1E1,1E0,5.66E2,-1.564897E-1,6.7E1,2E0,-1.5621918E-1,1.07E2,2E0,3E0,2E0,1.20613E-1,1E0,1E0,5E0,1.93675E-1,1E0,4.39834E1,4E0,3E0,9.86E2,1E0,5.34E2,6.7108E-2,1E0,4.5E1,-1.4576678E-1,2E0,3.3E-2,5.96E2,1E0,1E0,1.66E2,5.6E1,3E0,5.278064E1,4.8127224E1,8.36E2,7.4579865E2,1.77E2,1.3624E-1,2.3775941E2,1.04E2,1.844948E0,1.38807E-1,6E0,2E0,4E-6,-1.5754054E-1,1E0,6E0,1.1434882E-1,8E-3,9E0,-1.6074876E-1,1.15484314E2,2.52E2,6.8023E4,4.5E1,6.8023E4,7E0,-1.5766463E-1,1.0368861E-1,2E0,3.972322E1,1.2258998E-1,7.58E2,2.1694904E9,1.04853E2,7E0,1.1E1,7.4579865E2,8.8E1,1.19450785E-1,4.4119924E-2,2E0,5E0,1.008E3,9.804981E8,6.3012E-2,2.2951223E-2,1.1023462E-1,8E-6,3.5415206E9,-6.578688E-2,2.925039E9,1.112715E0,5.4584E-2,5.1E1,1E0,1.112715E0,3E0,1.3211305E-1,3.813332E0,-1.4467794E-1,9.021E1,5.219336E8,3E0,5E0,4E0,3.4E1,5E0,5.88E2,1E0,2.53E2,1.20817445E-1,2.4876888E1,2.542E3,2.516E3,7.2E2,3E0,1.1782E-1,1.082E3,1.0377105E8,5.74333E-1,1.2249962E-1,1.1916243E9,1.1041356E2,6E0,1.557112E9,1.168288E-1,6.95951E-1,1.765053E0,6E0,4E0,1.8117E-1,1.2973203E-1,1.59072E-1,2.2591395E-2,2.7E2,4.1946496E9,7.84E2,1.9E1,4.094191E9,2E0,4.3836E-2,1.14292076E2,1.3235446E2,8.262815E8,1.1496108E-1,2.34602E-2,-2.1820439E-2,5.1434577E-2,1.2163197E-1,4.3289717E-2,-3.8437475E-2,-1.6846637E-1,-4.2722773E-2,7.9220295E-2,2.7178738E-2,-2.6993623E-2,-8.9705385E-2,-2.0549329E-2,7.9786174E-2,-1.0151491E-1,-3.167826E-2,6.637618E-2,7.902284E-2,-1.6640504E-1,1.2051506E-1,6.0224384E-2,1.0568495E-1,-7.1487926E-2,6.646113E-4,-1.7611326E-1,1.0072005E-1,3.6947977E-2,3.3950936E-2,-2.6438102E-2,-3.2352207E-3,-1.0763039E-1,1.00299574E-1,-2.7928272E-2,8.125054E-2,-1.39847165E-2,4.6233032E-2,-1.7717092E-1,1.18141495E-1,-3.4828428E-3,-9.951515E-2,9.3015075E-2,9.264641E-2,-9.635496E-2,-1.1474516E-1,-5.1667076E-3,8.866384E-2,8.017805E-3,4.6939157E-2,1.1543485E-1,-1.7936943E-2,-1.4208107E-1,4.1823324E-2,-2.5679206E-2,-7.692676E-2,-2.6746714E-2,1.5070627E-2,1.0165953E-1,7.645921E-2,-1.3603733E-1,-2.7720947E-2,8.139275E-2,-8.5799724E-2,-7.759217E-3,1.5646451E-3,1.2712245E-1,5.9735823E-2,-8.91601E-2,3.3128507E-2,-9.03544E-2,5.5800408E-2,-6.497715E-2,-1.0892208E-2,-1.8600301E-1,-4.4886105E-2,1.20489456E-1,-1.2337991E-1,-9.183402E-3,1.16650276E-1,4.7635905E-2,-1.8293003E-2,1.1939786E-1,1.13757424E-1,-1.306692E-2,1.1811053E-1,-1.0908902E-1,2.2995574E-3,-1.445356E-1,1.18423246E-1,4.3133896E-2,-1.6157539E-1,1.0111441E-1,1.2509423E-1,5.7822466E-2,1.2007612E-1,9.3558244E-2,5.9505712E-2,-6.9702975E-2,-1.9713823E-2,8.1831954E-2],"split_indices":[24,23,7,45,3,0,24,27,0,23,37,32,37,20,190,190,32,20,185,12,27,11,3,158,3,21,10,24,0,37,12,3,172,172,23,24,11,12,13,3,13,24,21,13,3,0,20,37,31,0,0,186,27,0,12,29,0,13,23,3,24,3,37,0,0,32,12,0,3,17,13,27,27,13,23,0,0,29,27,3,18,21,0,0,0,17,0,18,0,21,23,172,0,36,0,0,0,12,18,32,27,36,27,36,3,185,23,0,12,3,3,3,11,20,3,18,0,0,18,12,27,17,0,0,0,32,11,20,0,21,0,26,17,3,36,17,29,21,13,13,17,0,0,0,0,0,0,0,0,0,0,0,0,0,0,0,0,0,0,0,0,0,0,0,0,0,0,0,0,0,0,0,0,0,0,0,0,0,0,0,0,0,0,0,0,0,0,0,0,0,0,0,0,0,0,0,0,0,0,0,0,0,0,0,0,0,0,0,0,0,0,0,0,0,0,0,0,0,0,0,0,0,0,0,0,0,0,0,0,0,0,0,0,0,0,0,0,0,0,0,0],"split_type":[0,0,0,0,0,0,0,0,0,0,0,0,0,0,0,0,0,0,0,0,0,0,0,0,0,0,0,0,0,0,0,0,0,0,0,0,0,0,0,0,0,0,0,0,0,0,0,0,0,0,0,0,0,0,0,0,0,0,0,0,0,0,0,0,0,0,0,0,0,0,0,0,0,0,0,0,0,0,0,0,0,0,0,0,0,0,0,0,0,0,0,0,0,0,0,0,0,0,0,0,0,0,0,0,0,0,0,0,0,0,0,0,0,0,0,0,0,0,0,0,0,0,0,0,0,0,0,0,0,0,0,0,0,0,0,0,0,0,0,0,0,0,0,0,0,0,0,0,0,0,0,0,0,0,0,0,0,0,0,0,0,0,0,0,0,0,0,0,0,0,0,0,0,0,0,0,0,0,0,0,0,0,0,0,0,0,0,0,0,0,0,0,0,0,0,0,0,0,0,0,0,0,0,0,0,0,0,0,0,0,0,0,0,0,0,0,0,0,0,0,0,0,0,0,0,0,0,0,0,0,0,0,0,0,0,0,0,0,0,0,0],"sum_hessian":[2.2731389E4,1.3005261E4,9.726129E3,1.9319775E3,1.1073283E4,6.533909E3,3.1922195E3,1.4606787E3,4.7129895E2,7.765588E3,3.3076956E3,6.451354E2,2.547084E3,1.5782307E2,1.3028556E3,7.6241494E3,1.4143866E2,1.129349E3,2.1783464E3,3.417444E2,3.0339102E2,1.6327313E3,9.1435266E2,1.2248982E2,3.5333256E1,1.147203E3,1.5565256E2,7.613399E3,1.0750515E1,6.887981E1,7.255885E1,9.911905E2,1.3815855E2,2.0155266E3,1.6281982E2,7.201862E1,2.6972574E2,8.23283E1,2.2106273E2,5.508832E2,1.0818481E3,3.746507E2,5.3970197E2,9.954455E1,2.2945274E1,1.8828789E1,1.6504467E1,7.0113715E2,4.460659E2,8.148437E0,1.4750412E2,7.593346E3,2.0052443E1,3.5613667E1,3.3266136E1,4.0873024E1,3.1685833E1,1.787306E1,9.7331744E2,7.66789E1,6.1479656E1,2.2260133E2,1.7929253E3,1.5882906E2,3.9907656E0,1.4029642E1,5.7988983E1,2.2539402E1,2.4718634E2,1.39749975E1,6.83533E1,3.0121386E1,1.9094135E2,3.011252E2,2.4975797E2,1.0800787E3,1.7693416E0,3.042514E2,7.039931E1,4.9866284E2,4.1039116E1,9.843089E1,1.1136498E0,5.9749303E0,1.6970345E1,1.7622833E1,1.2059549E0,2.592868E0,1.3911598E1,3.480449E2,3.5309225E2,3.856168E2,6.0449085E1,2.1526852E0,5.995751E0,7.591629E3,1.7173082E0,9.738025E0,1.0314417E1,1.7824074E1,1.5442064E1,2.9554956E1,1.1318068E1,1.0129105E1,7.7439547E0,6.342706E2,3.390468E2,6.47867E1,1.1892205E1,4.358164E1,1.789802E1,1.8303075E2,3.9570583E1,1.2402971E3,5.526282E2,1.0391555E1,3.638087E0,5.503491E1,2.9540765E0,1.029302E2,1.4425615E2,8.12546E0,5.849538E0,5.027253E1,1.808077E1,1.803007E1,1.2091316E1,1.8695717E2,3.9841733E0,2.9995593E2,1.1692832E0,1.15184525E2,1.3457344E2,1.545294E2,1.4972198E2,6.511989E1,5.279419E0,8.289264E1,4.157702E2,8.780828E0,3.225829E1,9.725193E1,1.1789676E0,7.5597243E0,9.410619E0,1.4820016E1,2.8028178E0,1.4917201E0,1.1011479E0,7.0822244E0,6.829374E0,2.9046414E2,5.758075E1,1.422592E2,2.1083304E2,1.2227325E1,3.7338947E2,4.4496643E1,1.5952442E1,1.0905125E0,1.0621727E0,7.5676084E3,2.4020714E1,8.710595E0,1.0274298E0,1.202877E0,9.11154E0,7.6007237E0,1.0223351E1,1.2557669E1,2.884395E0,1.3607577E1,1.5947379E1,6.944402E0,4.373665E0,8.805904E0,1.3232E0,3.0898786E0,4.654076E0,6.330039E2,1.2667063E0,9.336019E0,3.297108E2,6.086913E0,5.805292E0,2.3180616E1,2.0401022E1,1.2205174E1,5.6928463E0,3.2976044E1,1.500547E2,3.5601433E1,3.9691508E0,4.4195123E2,7.983459E2,3.5532095E2,1.973072E2,1.0028787E0,9.388676E0,1.3017579E0,2.336329E0,1.0754633E0,1.8786132E0,5.4095787E1,4.883441E1,1.359689E2,8.28724E0,6.017634E0,2.1078255E0,6.6075296E0,4.3665E1,1.4997819E1,3.0829515E0,1.4009743E1,4.020327E0,2.617072E0,9.474244E0,1.7326212E2,1.369506E1,2.9671292E2,3.2430246E0,8.1726204E1,3.3458317E1,1.3249887E2,2.0745797E0,6.776452E0,1.4775296E2,1.3726744E2,1.2454543E1,6.2207222E1,2.9126642E0,2.4184241E0,2.8609948E0,1.0776087E1,7.2116554E1,2.5959787E2,1.5617233E2,3.3220072E0,5.4588213E0,5.6818995E0,2.657639E1],"tree_param":{"num_deleted":"0","num_feature":"194","num_nodes":"241","size_leaf_vector":"1"}},{"base_weights":[1.4946412E-2,-1.4435561E0,6.3071865E-1,-1.4841673E0,9.3430084E-1,-2.8314415E-1,7.932708E-1,-5.0797904E-1,-1.4844346E-1,-1.1046325E0,1.2230915E-1,-6.332318E-1,1.1721214E0,1.0678089E0,2.959842E-1,-9.563233E-2,2.362465E-2,-3.0441924E-3,-1.2256874E0,-1.4326451E0,-3.4698048E-1,-3.7406136E-3,1.1758994E-1,1.1519077E0,1.4415793E-1,9.0739715E-1,-9.564296E-2,-2.7467418E-1,-1.4218345E0,-1.4752783E0,2.4008772E-1,7.2028875E-1,-4.963147E-1,1.1544616E0,-6.7377E-1,6.3946635E-1,-5.136244E-1,7.916935E-1,1.1568485E0,-1.4965823E-1,-1.4131571E-2,4.654519E-2,-8.906635E-2,-1.5222232E-1,-2.9955119E-2,-2.5241062E-2,-1.4784348E-1,6.9508266E-1,-5.7479614E-1,8.574706E-1,-2.8012604E-1,-1.4358044E-1,-7.2629553E-1,1.1715087E0,9.00789E-1,4.856266E-1,-1.3891839E0,3.9436084E-1,1.1285181E0,-6.979548E-1,-1.5059645E-1,9.802759E-1,3.825981E-1,7.9388005E-1,1.1668423E0,-1.8501453E-1,3.885332E-1,-4.7134053E-2,9.401808E-2,-1.1758369E0,7.641235E-2,9.805967E-1,1.4557531E-1,-7.556887E-1,2.353736E-2,1.0045319E-1,-4.7090873E-1,-1.4962415E-1,-5.846274E-1,1.18002415E-1,8.9477813E-1,1.1603637E-1,3.3124486E-1,-2.009899E-2,9.3739256E-2,1.2889084E-3,-1.7032586E0,8.9899457E-1,2.845088E-1,1.176267E0,1.5788944E-1,1.6759829E-1,-8.385305E-1,-4.2775616E-2,-1.5232669E-1,-1.4637923E-1,1.0012786E0,4.5527917E-1,-6.9274825E-1,1.0317172E0,-1.115042E-1,3.1221364E-2,1.1684739E-1,-2.7199718E-1,6.401018E-1,9.278133E-1,-2.9340032E-1,1.6817285E-3,-1.8594578E-1,1.00663245E-1,-6.434442E-2,-2.5767474E-2,5.9860975E-2,4.4810575E-2,-1.109068E-1,3.27453E-2,-8.840817E-2,-1.2698513E-2,2.551561E-2,-6.881701E-2,2.7704632E-2,-2.8124753E-2,-8.609786E-2,1.0669601E-1,-7.804929E-5,1.17737465E-1,1.6023578E-2,-2.0541807E-1,-1.1682869E-2,5.4007065E-2,1.13883846E-1,2.3186974E-2,8.925537E-2,1.18400715E-1,4.1583605E-2,8.0235176E-2,-5.7108738E-2,-2.1423744E-2,7.857564E-2,-7.6110624E-3,-9.498612E-2,-4.2472668E-2,3.807844E-2,1.0703355E-1,5.9052814E-2,9.58731E-3,6.525184E-2,5.0382417E-2,-1.3455221E-1,-2.9306924E-2,1.1441227E-1,4.234026E-2,-3.4622893E-2,8.037966E-2,-9.32446E-3,6.404533E-2,1.0417094E-1,-6.6661626E-2,9.795392E-2],"categories":[],"categories_nodes":[],"categories_segments":[],"categories_sizes":[],"default_left":[0,0,0,0,0,0,0,0,0,0,0,0,0,0,0,0,0,0,0,0,0,0,0,0,0,0,0,0,0,0,0,0,0,0,0,0,0,0,0,0,0,0,0,0,0,0,0,0,0,0,0,0,0,0,0,0,0,0,0,0,0,0,0,0,0,0,0,0,0,0,0,0,0,0,0,0,0,0,0,0,0,0,0,0,0,0,0,0,0,0,0,0,0,0,0,0,0,0,0,0,0,0,0,0,0,0,0,0,0,0,0,0,0,0,0,0,0,0,0,0,0,0,0,0,0,0,0,0,0,0,0,0,0,0,0,0,0,0,0,0,0,0,0,0,0,0,0,0,0,0,0,0,0,0,0,0,0,0,0],"id":7,"left_children":[1,3,5,7,9,11,13,15,-1,17,-1,19,21,23,25,-1,-1,-1,27,29,31,-1,-1,33,35,37,39,41,43,45,47,49,51,53,55,57,59,61,63,-1,65,-1,-1,-1,-1,-1,-1,67,69,71,73,75,77,79,81,83,85,87,89,91,93,95,97,99,101,103,105,-1,-1,107,-1,109,111,113,115,117,119,-1,121,-1,123,-1,125,-1,-1,-1,127,129,131,133,135,137,139,141,-1,-1,143,145,147,149,-1,-1,-1,151,153,155,157,-1,-1,-1,-1,-1,-1,-1,-1,-1,-1,-1,-1,-1,-1,-1,-1,-1,-1,-1,-1,-1,-1,-1,-1,-1,-1,-1,-1,-1,-1,-1,-1,-1,-1,-1,-1,-1,-1,-1,-1,-1,-1,-1,-1,-1,-1,-1,-1,-1,-1,-1,-1],"loss_changes":[1.9367348E4,6.1958594E2,2.2526846E3,8.886719E-1,6.501027E1,1.1677002E3,1.7572134E3,1.3079885E0,0E0,1.7751904E0,0E0,4.221596E2,2.0751953E0,6.4408984E2,1.0968577E3,0E0,0E0,0E0,1.941431E0,3.5060608E1,2.1732716E2,0E0,0E0,3.6222656E1,2.2620586E2,5.0704224E1,3.1891455E2,1.9541554E0,6.846714E-1,1.4592285E0,5.2030563E0,2.3228752E1,9.6822845E1,3.177246E1,1.0006563E1,4.7015244E1,1.9860016E1,9.412793E1,1.1213989E0,0E0,1.8175435E2,0E0,0E0,0E0,0E0,0E0,0E0,2.9493208E0,5.074573E0,1.2790817E1,3.0436845E0,3.781504E1,7.798978E1,1.5699219E1,7.092621E1,1.7499604E0,3.1998186E0,1.44502945E1,5.9157715E0,2.4184334E1,1.49941845E1,4.4472046E1,3.065168E1,9.438727E0,3.9831543E-1,1.3326584E2,2.8969608E2,0E0,0E0,3.2725482E0,0E0,5.959442E0,4.343538E0,3.9834023E0,4.0844054E0,9.592042E0,3.3035107E1,0E0,5.1092697E1,0E0,3.3368607E1,0E0,2.1864588E1,0E0,0E0,0E0,3.0465012E0,3.4277153E0,6.8128777E0,2.4526978E-1,3.9007533E0,6.8818192E0,1.4371246E1,1.5590488E1,0E0,0E0,2.29469E1,2.5753372E1,2.0181576E1,2.8299885E0,0E0,0E0,0E0,8.677946E1,2.1340164E1,1.3724121E1,1.661221E2,0E0,0E0,0E0,0E0,0E0,0E0,0E0,0E0,0E0,0E0,0E0,0E0,0E0,0E0,0E0,0E0,0E0,0E0,0E0,0E0,0E0,0E0,0E0,0E0,0E0,0E0,0E0,0E0,0E0,0E0,0E0,0E0,0E0,0E0,0E0,0E0,0E0,0E0,0E0,0E0,0E0,0E0,0E0,0E0,0E0,0E0,0E0,0E0,0E0,0E0,0E0,0E0],"parents":[2147483647,0,0,1,1,2,2,3,3,4,4,5,5,6,6,7,7,9,9,11,11,12,12,13,13,14,14,18,18,19,19,20,20,23,23,24,24,25,25,26,26,27,27,28,28,29,29,30,30,31,31,32,32,33,33,34,34,35,35,36,36,37,37,38,38,40,40,47,47,48,48,49,49,50,50,51,51,52,52,53,53,54,54,55,55,56,56,57,57,58,58,59,59,60,60,61,61,62,62,63,63,64,64,65,65,66,66,69,69,71,71,72,72,73,73,74,74,75,75,76,76,78,78,80,80,82,82,86,86,87,87,88,88,89,89,90,90,91,91,92,92,93,93,96,96,97,97,98,98,99,99,103,103,104,104,105,105,106,106],"right_children":[2,4,6,8,10,12,14,16,-1,18,-1,20,22,24,26,-1,-1,-1,28,30,32,-1,-1,34,36,38,40,42,44,46,48,50,52,54,56,58,60,62,64,-1,66,-1,-1,-1,-1,-1,-1,68,70,72,74,76,78,80,82,84,86,88,90,92,94,96,98,100,102,104,106,-1,-1,108,-1,110,112,114,116,118,120,-1,122,-1,124,-1,126,-1,-1,-1,128,130,132,134,136,138,140,142,-1,-1,144,146,148,150,-1,-1,-1,152,154,156,158,-1,-1,-1,-1,-1,-1,-1,-1,-1,-1,-1,-1,-1,-1,-1,-1,-1,-1,-1,-1,-1,-1,-1,-1,-1,-1,-1,-1,-1,-1,-1,-1,-1,-1,-1,-1,-1,-1,-1,-1,-1,-1,-1,-1,-1,-1,-1,-1,-1,-1,-1,-1],"split_conditions":[1E0,6E1,5.4E1,2E0,1E0,5.9E1,7.2116E-2,4.7E1,-1.4844346E-1,2.126299E8,1.2230915E-1,1.8342651E2,5.59E-4,3.73E2,2E0,-9.563233E-2,2.362465E-2,-3.0441924E-3,6E-3,4.7E1,2E0,-3.7406136E-3,1.1758994E-1,3.7085043E2,7E0,1.534E3,6E0,2.3E1,6.354E-2,4.5E1,6.4079E-2,5.7E1,4.2E1,1.03E2,6E0,4E0,5.7E2,5.56E2,4.8E1,-1.4965823E-1,6.7E1,4.654519E-2,-8.906635E-2,-1.5222232E-1,-2.9955119E-2,-2.5241062E-2,-1.4784348E-1,4E0,8.8484E-2,5.3E1,1.2231235E9,6E0,5.59E-4,1.4207E-2,3E0,3E0,4.147E-2,2E0,4E0,1.3E1,4.5E1,8E0,1E1,1.6647072E2,9.5027734E2,1E0,1.14E2,-4.7134053E-2,9.401808E-2,1.40734E-1,7.641235E-2,3E0,7.3826E-2,5.5781E-2,4.4992183E3,2E0,5E0,-1.4962415E-1,7.7453E-2,1.18002415E-1,5E0,1.1603637E-1,3.2871387E4,-2.009899E-2,9.3739256E-2,1.2889084E-3,2.838E-2,5.7E2,1.26E3,5.4448E-2,1.8342311E5,9E0,5.32E2,8E0,-1.5232669E-1,-1.4637923E-1,2.52E2,6.7E1,8.3E1,4E1,-1.115042E-1,3.1221364E-2,1.1684739E-1,3.8646777E3,5.4074075E5,8.5E1,1.534E3,1.6817285E-3,-1.8594578E-1,1.00663245E-1,-6.434442E-2,-2.5767474E-2,5.9860975E-2,4.4810575E-2,-1.109068E-1,3.27453E-2,-8.840817E-2,-1.2698513E-2,2.551561E-2,-6.881701E-2,2.7704632E-2,-2.8124753E-2,-8.609786E-2,1.0669601E-1,-7.804929E-5,1.17737465E-1,1.6023578E-2,-2.0541807E-1,-1.1682869E-2,5.4007065E-2,1.13883846E-1,2.3186974E-2,8.925537E-2,1.18400715E-1,4.1583605E-2,8.0235176E-2,-5.7108738E-2,-2.1423744E-2,7.857564E-2,-7.6110624E-3,-9.498612E-2,-4.2472668E-2,3.807844E-2,1.0703355E-1,5.9052814E-2,9.58731E-3,6.525184E-2,5.0382417E-2,-1.3455221E-1,-2.9306924E-2,1.1441227E-1,4.234026E-2,-3.4622893E-2,8.037966E-2,-9.32446E-3,6.404533E-2,1.0417094E-1,-6.6661626E-2,9.795392E-2],"split_indices":[28,7,23,1,185,24,20,23,0,17,0,8,20,23,32,0,0,0,13,23,27,0,0,13,27,4,2,27,21,23,21,24,16,23,27,1,23,4,24,0,24,0,0,0,0,0,0,1,22,23,18,32,20,21,27,36,20,27,27,27,27,1,36,13,8,25,24,0,0,20,0,28,22,21,8,36,36,0,21,0,27,0,8,0,0,0,22,23,23,22,8,27,23,36,0,0,23,24,23,2,0,0,0,8,8,23,4,0,0,0,0,0,0,0,0,0,0,0,0,0,0,0,0,0,0,0,0,0,0,0,0,0,0,0,0,0,0,0,0,0,0,0,0,0,0,0,0,0,0,0,0,0,0,0,0,0,0,0,0],"split_type":[0,0,0,0,0,0,0,0,0,0,0,0,0,0,0,0,0,0,0,0,0,0,0,0,0,0,0,0,0,0,0,0,0,0,0,0,0,0,0,0,0,0,0,0,0,0,0,0,0,0,0,0,0,0,0,0,0,0,0,0,0,0,0,0,0,0,0,0,0,0,0,0,0,0,0,0,0,0,0,0,0,0,0,0,0,0,0,0,0,0,0,0,0,0,0,0,0,0,0,0,0,0,0,0,0,0,0,0,0,0,0,0,0,0,0,0,0,0,0,0,0,0,0,0,0,0,0,0,0,0,0,0,0,0,0,0,0,0,0,0,0,0,0,0,0,0,0,0,0,0,0,0,0,0,0,0,0,0,0],"sum_hessian":[2.1562656E4,6.4007227E3,1.5161934E4,6.2936104E3,1.0711228E2,2.2895308E3,1.2872403E4,2.2429137E0,6.291367E3,1.2938467E1,9.417381E1,1.8460084E3,4.435223E2,8.29295E3,4.5794536E3,1.2218454E0,1.0210683E0,1.4371629E0,1.1501305E1,4.856711E2,1.3603373E3,1.3533169E0,4.42169E2,7.60066E3,6.922899E2,1.7874885E3,2.7919648E3,2.376972E0,9.124332E0,4.737155E2,1.1955608E1,1.6650778E2,1.1938295E3,7.590409E3,1.0250775E1,3.9493372E2,2.973562E2,1.2239531E3,5.635354E2,1.5255945E2,2.6394055E3,1.1907002E0,1.1862718E0,8.048066E0,1.0762659E0,1.4280857E0,4.722874E2,7.7662787E0,4.189329E0,1.465544E2,1.9953377E1,4.7181116E2,7.220184E2,7.1090566E3,4.8135254E2,4.034186E0,6.2165895E0,2.6428458E2,1.3064914E2,1.9660558E2,1.00750626E2,8.368093E2,3.8714383E2,1.7255703E1,5.462797E2,1.8533998E3,7.860057E2,1.1882626E0,6.5780163E0,2.9754512E0,1.2138778E0,1.2462277E2,2.1931631E1,7.195709E0,1.2757667E1,2.706936E2,2.0111755E2,1.10718376E2,6.113E2,6.8936626E3,2.1539426E2,3.2994153E2,1.5141104E2,1.8212543E0,2.2129316E0,1.3132085E0,4.9033813E0,4.5962097E1,2.1832246E2,1.24321434E2,6.3277016E0,2.7442753E1,1.6916283E2,9.4369255E1,6.3813763E0,6.544415E0,8.302649E2,3.6317404E2,2.3969774E1,1.5752582E1,1.5031224E0,1.4074138E0,5.448723E2,1.6772561E3,1.7614369E2,4.387093E2,3.4729642E2,1.4394925E0,1.5359586E0,1.2303058E2,1.592193E0,1.1831516E1,1.0100114E1,1.5721358E0,5.6235733E0,1.0036252E1,2.7214148E0,1.09657906E2,1.6103569E2,1.5590977E2,4.5207783E1,2.923616E2,3.1893842E2,1.8049963E2,3.489462E1,2.4466965E1,1.2694407E2,3.7737694E0,1.1296117E0,1.9713223E1,2.6248877E1,2.0219922E2,1.6123253E1,1.2251735E2,1.804084E0,3.3051138E0,3.0225875E0,1.7367989E1,1.0074764E1,2.1768747E1,1.4739407E2,4.9620514E1,4.4748737E1,7.0939325E2,1.2087165E2,1.2921207E2,2.3396199E2,8.541284E0,1.5428492E1,1.1063336E0,1.4646248E1,1.6131943E2,1.5159366E3,1.4392192E2,3.2221775E1,1.2640714E2,3.1230215E2,2.6892578E2,7.837063E1],"tree_param":{"num_deleted":"0","num_feature":"194","num_nodes":"159","size_leaf_vector":"1"}},{"base_weights":[1.4484823E-2,-1.4051534E0,6.566139E-1,-3.0638346E-1,-1.4166574E-1,8.994057E-1,1.9007687E-1,-1.3904147E-1,1.0495614E0,-4.4217512E-2,9.98867E-1,8.723651E-1,-1.7984535E-1,1.1408931E-1,-7.515297E-2,8.865556E-1,-4.9357176E-1,1.1053288E0,3.183597E-1,6.906501E-1,1.151139E0,-3.3038604E-1,3.5508403E-1,5.2452743E-1,1.1038214E0,-1.920935E-1,-1.2510365E0,1.145569E0,6.5098614E-1,9.1750866E-1,-2.9754433E-1,8.926003E-1,3.4132195E-1,1.1539193E0,4.6762636E-1,-1.3711653E0,-2.608565E-1,8.4063655E-1,-2.3919559E-1,5.705479E-1,-2.0187466E-1,1.1088398E0,1.4938571E-2,-2.8223988E-1,5.6852084E-1,-1.3524054E0,5.6476796E-1,1.1462467E0,-5.2041584E-1,1.0360453E0,2.5942618E-1,5.6931657E-1,1.112792E0,4.2636104E-2,-7.393771E-1,9.194496E-1,-1.3002974E-1,-2.0006756E-1,5.993835E-1,1.15525775E-1,3.1436868E-2,8.381541E-2,-3.921449E-2,8.001386E-2,-1.3924434E0,-3.276863E-1,6.759779E-1,8.946196E-1,3.3898917E-1,-4.8208183E-1,1.0456109E0,1.0494888E0,3.8460132E-1,1.1376297E-1,8.1731766E-1,-3.4533087E-2,-7.564387E-1,7.722303E-1,-1.8076271E-1,-1.3834745E0,2.420915E-1,7.969029E-1,-1.8159018E-1,1.1526127E0,9.3550557E-1,7.2665974E-2,-1.6778974E-1,1.0500232E0,1.3390046E-1,4.1811493E-1,-4.3050408E-1,9.4969386E-1,3.6004582E-1,1.1186743E0,-4.38557E-2,-6.297622E-2,7.112759E-1,-8.406456E-1,7.8779176E-2,1.1429391E0,7.4691594E-1,-4.13897E-1,2.4536717E-1,4.424191E-1,1.0499982E0,-1.4122212E0,-5.387954E-1,-4.324855E-1,1.171928E-1,8.9319843E-1,3.1374848E-1,6.830152E-1,1.0020589E0,-1.274605E-1,4.9451476E-1,-6.0031664E-1,1.0784084E0,1.0791425E0,3.6822292E-1,1.1724102E-1,-9.215071E-2,2.480605E-2,1.1101359E-1,1.1686064E-1,-1.0380914E-2,-7.564817E-4,-8.847279E-2,-9.0934746E-2,-1.0845929E-2,1.30839E-1,5.971035E-2,-1.4216623E-1,-4.301269E-2,8.629764E-2,-3.9119847E-2,9.409337E-2,1.9781623E-2,3.8695272E-2,-6.837162E-2,5.9700754E-2,1.1549004E-1,1.1146809E-1,-9.042908E-3,1.1362042E-1,9.5145874E-2,-7.781195E-2,5.1943745E-2,6.866326E-2,-4.490174E-2,-1.0527346E-1,6.631E-2,9.584027E-2,2.0401943E-2,2.7234772E-2,9.8995775E-2,1.1622613E-1,9.824536E-2,1.7262725E-2,-6.8558626E-2,-1.1885291E-1,8.5205875E-2,-7.450402E-2,-1.3785134E-1,6.047497E-2,-7.726916E-2,-2.330135E-2,1.15338266E-1,9.614083E-2,4.5103285E-2,-5.063633E-2,7.7446006E-2,6.1439198E-2,-3.7883278E-2,1.13944225E-1,2.3576055E-2,1.0734197E-1,3.6684163E-2,-3.925727E-2,-1.4175417E-1,4.0602293E-2,-9.4216436E-2,-7.3538415E-2,-3.2301098E-2,2.8738622E-2,-4.502491E-2,1.08156376E-1,3.558152E-2,-1.0568893E-1,4.8249613E-2,5.291176E-2,1.15291655E-1,1.1446629E-1,8.30965E-2,-5.455899E-2,7.0591025E-2,7.342119E-2,2.4079667E-2,-8.402907E-2,-6.5813237E-3,1.3322188E-1,-1.8933145E-2,1.1160131E-1,5.4257315E-2,7.604919E-2,-3.224674E-2],"categories":[],"categories_nodes":[],"categories_segments":[],"categories_sizes":[],"default_left":[0,0,0,0,0,0,0,0,0,0,0,0,0,0,0,0,0,0,0,0,0,0,0,0,0,0,0,0,0,0,0,0,0,0,0,0,0,0,0,0,0,0,0,0,0,0,0,0,0,0,0,0,0,0,0,0,0,0,0,0,0,0,0,0,0,0,0,0,0,0,0,0,0,0,0,0,0,0,0,0,0,0,0,0,0,0,0,0,0,0,0,0,0,0,0,0,0,0,0,0,0,0,0,0,0,0,0,0,0,0,0,0,0,0,0,0,0,0,0,0,0,0,0,0,0,0,0,0,0,0,0,0,0,0,0,0,0,0,0,0,0,0,0,0,0,0,0,0,0,0,0,0,0,0,0,0,0,0,0,0,0,0,0,0,0,0,0,0,0,0,0,0,0,0,0,0,0,0,0,0,0,0,0,0,0,0,0,0,0,0,0,0,0,0,0,0,0,0,0,0,0,0,0,0,0],"id":8,"left_children":[1,3,5,7,-1,9,11,-1,13,15,17,19,21,-1,-1,23,25,27,29,31,33,35,37,39,41,43,45,47,49,51,53,55,57,59,61,63,65,67,69,71,-1,73,-1,75,77,79,81,83,85,87,89,91,93,95,97,99,-1,101,103,-1,-1,-1,-1,-1,105,107,109,111,113,115,117,119,121,-1,123,125,127,129,-1,131,133,135,137,139,141,-1,-1,143,145,147,149,151,153,155,-1,157,159,161,163,165,167,169,171,173,175,177,179,181,183,185,187,189,191,193,195,197,199,201,203,-1,-1,-1,-1,-1,-1,-1,-1,-1,-1,-1,-1,-1,-1,-1,-1,-1,-1,-1,-1,-1,-1,-1,-1,-1,-1,-1,-1,-1,-1,-1,-1,-1,-1,-1,-1,-1,-1,-1,-1,-1,-1,-1,-1,-1,-1,-1,-1,-1,-1,-1,-1,-1,-1,-1,-1,-1,-1,-1,-1,-1,-1,-1,-1,-1,-1,-1,-1,-1,-1,-1,-1,-1,-1,-1,-1,-1,-1,-1,-1,-1,-1,-1,-1,-1,-1],"loss_changes":[1.8636152E4,8.004883E1,1.59429E3,1.00306816E2,0E0,8.689492E2,1.2165469E3,0E0,5.865841E0,3.7005954E2,6.0642285E2,8.504492E1,2.5184178E2,0E0,0E0,2.2081436E1,1.3600955E2,1.3165723E2,4.188961E2,7.2241394E1,7.282715E-1,1.7620673E2,1.9843237E2,1.4021332E1,6.9236755E-1,2.9504553E1,3.1996552E1,8.105469E0,8.891861E1,3.8483185E1,8.422298E1,3.952545E1,5.2977245E1,3.826294E-1,1.7253567E0,8.162476E0,1.4349219E2,9.941254E0,9.714451E1,9.284142E0,0E0,5.645294E-1,0E0,4.4995514E1,2.3506432E1,8.311005E0,1.821346E0,7.841797E0,6.11564E0,3.6160278E0,3.2436646E1,1.627562E1,3.8443604E0,2.2460215E1,2.0259369E1,2.3967712E1,0E0,1.1804983E1,1.7674751E1,0E0,0E0,0E0,0E0,0E0,1.795929E0,9.96682E1,1.1734657E1,7.066559E0,2.8461552E0,4.882731E1,7.281494E-1,8.310917E0,7.643612E0,0E0,6.448797E0,5.7899723E0,1.2927521E1,3.23493E0,0E0,5.143524E0,1.88221E0,4.6680212E-1,1.1524711E0,7.508789E0,3.6914597E1,0E0,0E0,1.4096375E0,2.4054224E0,5.619873E1,3.85231E1,2.8163147E-1,7.258726E0,1.0337219E0,0E0,4.046438E1,1.2615049E1,1.0129822E1,1.2898923E1,4.271576E0,2.280452E1,9.555606E0,9.557496E0,2.7378197E1,6.546707E-1,2.4310303E-1,2.3056643E0,5.7112427E1,3.9546726E1,9.222839E0,1.410626E1,7.9198494E0,4.5137024E0,4.004933E0,1.5853987E0,3.1162598E1,6.285162E0,3.1830597E-1,1.2897316E0,0E0,0E0,0E0,0E0,0E0,0E0,0E0,0E0,0E0,0E0,0E0,0E0,0E0,0E0,0E0,0E0,0E0,0E0,0E0,0E0,0E0,0E0,0E0,0E0,0E0,0E0,0E0,0E0,0E0,0E0,0E0,0E0,0E0,0E0,0E0,0E0,0E0,0E0,0E0,0E0,0E0,0E0,0E0,0E0,0E0,0E0,0E0,0E0,0E0,0E0,0E0,0E0,0E0,0E0,0E0,0E0,0E0,0E0,0E0,0E0,0E0,0E0,0E0,0E0,0E0,0E0,0E0,0E0,0E0,0E0,0E0,0E0,0E0,0E0,0E0,0E0,0E0,0E0,0E0,0E0,0E0,0E0,0E0,0E0,0E0,0E0],"parents":[2147483647,0,0,1,1,2,2,3,3,5,5,6,6,8,8,9,9,10,10,11,11,12,12,15,15,16,16,17,17,18,18,19,19,20,20,21,21,22,22,23,23,24,24,25,25,26,26,27,27,28,28,29,29,30,30,31,31,32,32,33,33,34,34,35,35,36,36,37,37,38,38,39,39,41,41,43,43,44,44,45,45,46,46,47,47,48,48,49,49,50,50,51,51,52,52,53,53,54,54,55,55,57,57,58,58,64,64,65,65,66,66,67,67,68,68,69,69,70,70,71,71,72,72,74,74,75,75,76,76,77,77,79,79,80,80,81,81,82,82,83,83,84,84,87,87,88,88,89,89,90,90,91,91,92,92,93,93,95,95,96,96,97,97,98,98,99,99,100,100,101,101,102,102,103,103,104,104,105,105,106,106,107,107,108,108,109,109,110,110,111,111,112,112,113,113,114,114,115,115,116,116,117,117,118,118],"right_children":[2,4,6,8,-1,10,12,-1,14,16,18,20,22,-1,-1,24,26,28,30,32,34,36,38,40,42,44,46,48,50,52,54,56,58,60,62,64,66,68,70,72,-1,74,-1,76,78,80,82,84,86,88,90,92,94,96,98,100,-1,102,104,-1,-1,-1,-1,-1,106,108,110,112,114,116,118,120,122,-1,124,126,128,130,-1,132,134,136,138,140,142,-1,-1,144,146,148,150,152,154,156,-1,158,160,162,164,166,168,170,172,174,176,178,180,182,184,186,188,190,192,194,196,198,200,202,204,-1,-1,-1,-1,-1,-1,-1,-1,-1,-1,-1,-1,-1,-1,-1,-1,-1,-1,-1,-1,-1,-1,-1,-1,-1,-1,-1,-1,-1,-1,-1,-1,-1,-1,-1,-1,-1,-1,-1,-1,-1,-1,-1,-1,-1,-1,-1,-1,-1,-1,-1,-1,-1,-1,-1,-1,-1,-1,-1,-1,-1,-1,-1,-1,-1,-1,-1,-1,-1,-1,-1,-1,-1,-1,-1,-1,-1,-1,-1,-1,-1,-1,-1,-1,-1,-1],"split_conditions":[6.2E1,1E-3,4.7087E-2,4.7E1,-1.4166574E-1,5.3E1,2E0,-1.3904147E-1,1.62E-4,3E0,1.61E2,1.534E3,6.7E1,1.1408931E-1,-7.515297E-2,8E0,4.2E1,1.9692E-2,4E0,5.56E2,8E0,2.68E2,1E0,1E0,1.5239207E4,4E0,3.04E2,1.5239207E4,2E0,7.10939E-1,2E1,2E0,5.9E1,3E0,1.41E2,6E0,1E0,1.3624E-1,1.77E2,4.5E1,-2.0187466E-1,2E0,1.4938571E-2,8E0,1.2E1,6.2834187E1,3.042356E9,1.03E2,5.5971E-2,1.984443E2,1.106E3,2E0,1.72551E-1,8E0,7.89E2,1E0,-1.3002974E-1,2E0,1.045055E4,1.15525775E-1,3.1436868E-2,8.381541E-2,-3.921449E-2,8.001386E-2,2E1,6.9728022E3,1.1760597E5,8.6E1,9.804981E8,5E0,6.353327E0,4.2E1,1E0,1.1376297E-1,3E0,1.3E1,3E0,4.7E1,-1.8076271E-1,5E1,8E0,9.126E-2,1.1586157E2,1E0,5E0,7.2665974E-2,-1.6778974E-1,5.5506668E1,2.5194069E2,3E0,1.534E3,1.62E-4,5E0,7.2116E-2,-4.38557E-2,3E0,2.52E2,1.8E1,3.7E1,9.5027734E2,5.9E1,3E0,5.3E1,5.8E1,3.6031686E2,1.1708702E3,9.804981E8,5.5E1,7.724746E3,4E0,2.7227594E5,3.329758E2,1.6809026E2,8.24E2,9.2E1,3E0,8.6E1,5.1808E4,1.2722529E9,1.1724102E-1,-9.215071E-2,2.480605E-2,1.1101359E-1,1.1686064E-1,-1.0380914E-2,-7.564817E-4,-8.847279E-2,-9.0934746E-2,-1.0845929E-2,1.30839E-1,5.971035E-2,-1.4216623E-1,-4.301269E-2,8.629764E-2,-3.9119847E-2,9.409337E-2,1.9781623E-2,3.8695272E-2,-6.837162E-2,5.9700754E-2,1.1549004E-1,1.1146809E-1,-9.042908E-3,1.1362042E-1,9.5145874E-2,-7.781195E-2,5.1943745E-2,6.866326E-2,-4.490174E-2,-1.0527346E-1,6.631E-2,9.584027E-2,2.0401943E-2,2.7234772E-2,9.8995775E-2,1.1622613E-1,9.824536E-2,1.7262725E-2,-6.8558626E-2,-1.1885291E-1,8.5205875E-2,-7.450402E-2,-1.3785134E-1,6.047497E-2,-7.726916E-2,-2.330135E-2,1.15338266E-1,9.614083E-2,4.5103285E-2,-5.063633E-2,7.7446006E-2,6.1439198E-2,-3.7883278E-2,1.13944225E-1,2.3576055E-2,1.0734197E-1,3.6684163E-2,-3.925727E-2,-1.4175417E-1,4.0602293E-2,-9.4216436E-2,-7.3538415E-2,-3.2301098E-2,2.8738622E-2,-4.502491E-2,1.08156376E-1,3.558152E-2,-1.0568893E-1,4.8249613E-2,5.291176E-2,1.15291655E-1,1.1446629E-1,8.30965E-2,-5.455899E-2,7.0591025E-2,7.342119E-2,2.4079667E-2,-8.402907E-2,-6.5813237E-3,1.3322188E-1,-1.8933145E-2,1.1160131E-1,5.4257315E-2,7.604919E-2,-3.224674E-2],"split_indices":[6,12,21,23,0,23,37,0,0,27,23,4,24,0,0,1,16,21,27,4,27,4,177,81,14,30,4,14,37,12,37,28,24,30,23,1,25,21,24,23,0,37,0,37,30,13,18,23,20,12,4,27,20,29,23,172,0,27,8,0,0,0,0,0,27,14,8,23,18,29,0,16,136,0,10,27,30,23,0,23,27,20,15,28,27,0,0,12,13,11,4,0,37,20,0,30,6,29,27,8,23,29,24,23,15,14,18,23,8,37,8,15,15,4,23,35,23,4,18,0,0,0,0,0,0,0,0,0,0,0,0,0,0,0,0,0,0,0,0,0,0,0,0,0,0,0,0,0,0,0,0,0,0,0,0,0,0,0,0,0,0,0,0,0,0,0,0,0,0,0,0,0,0,0,0,0,0,0,0,0,0,0,0,0,0,0,0,0,0,0,0,0,0,0,0,0,0,0,0,0,0,0,0,0,0],"split_type":[0,0,0,0,0,0,0,0,0,0,0,0,0,0,0,0,0,0,0,0,0,0,0,0,0,0,0,0,0,0,0,0,0,0,0,0,0,0,0,0,0,0,0,0,0,0,0,0,0,0,0,0,0,0,0,0,0,0,0,0,0,0,0,0,0,0,0,0,0,0,0,0,0,0,0,0,0,0,0,0,0,0,0,0,0,0,0,0,0,0,0,0,0,0,0,0,0,0,0,0,0,0,0,0,0,0,0,0,0,0,0,0,0,0,0,0,0,0,0,0,0,0,0,0,0,0,0,0,0,0,0,0,0,0,0,0,0,0,0,0,0,0,0,