{"learner":{"attributes":{"scikit_learn":"{\"_estimator_type\": \"classifier\"}"},"feature_names":["dur","spkts","dpkts","sbytes","dbytes","rate","sttl","dttl","sload","dload","sloss","dloss","sinpkt","dinpkt","sjit","djit","swin","stcpb","dtcpb","dwin","tcprtt","synack","ackdat","smean","dmean","trans_depth","response_body_len","ct_srv_src","ct_state_ttl","ct_dst_ltm","ct_src_dport_ltm","ct_dst_sport_ltm","ct_dst_src_ltm","is_ftp_login","ct_ftp_cmd","ct_flw_http_mthd","ct_src_ltm","ct_srv_dst","is_sm_ips_ports","proto_3pc","proto_a/n","proto_aes-sp3-d","proto_any","proto_argus","proto_aris","proto_arp","proto_ax.25","proto_bbn-rcc","proto_bna","proto_br-sat-mon","proto_cbt","proto_cftp","proto_chaos","proto_compaq-peer","proto_cphb","proto_cpnx","proto_crtp","proto_crudp","proto_dcn","proto_ddp","proto_ddx","proto_dgp","proto_egp","proto_eigrp","proto_emcon","proto_encap","proto_etherip","proto_fc","proto_fire","proto_ggp","proto_gmtp","proto_gre","proto_hmp","proto_i-nlsp","proto_iatp","proto_ib","proto_icmp","proto_idpr","proto_idpr-cmtp","proto_idrp","proto_ifmp","proto_igmp","proto_igp","proto_il","proto_ip","proto_ipcomp","proto_ipcv","proto_ipip","proto_iplt","proto_ipnip","proto_ippc","proto_ipv6","proto_ipv6-frag","proto_ipv6-no","proto_ipv6-opts","proto_ipv6-route","proto_ipx-n-ip","proto_irtp","proto_isis","proto_iso-ip","proto_iso-tp4","proto_kryptolan","proto_l2tp","proto_larp","proto_leaf-1","proto_leaf-2","proto_merit-inp","proto_mfe-nsp","proto_mhrp","proto_micp","proto_mobile","proto_mtp","proto_mux","proto_narp","proto_netblt","proto_nsfnet-igp","proto_nvp","proto_ospf","proto_pgm","proto_pim","proto_pipe","proto_pnni","proto_pri-enc","proto_prm","proto_ptp","proto_pup","proto_pvp","proto_qnx","proto_rdp","proto_rsvp","proto_rtp","proto_rvd","proto_sat-expak","proto_sat-mon","proto_sccopmce","proto_scps","proto_sctp","proto_sdrp","proto_secure-vmtp","proto_sep","proto_skip","proto_sm","proto_smp","proto_snp","proto_sprite-rpc","proto_sps","proto_srp","proto_st2","proto_stp","proto_sun-nd","proto_swipe","proto_tcf","proto_tcp","proto_tlsp","proto_tp++","proto_trunk-1","proto_trunk-2","proto_ttp","proto_udp","proto_unas","proto_uti","proto_vines","proto_visa","proto_vmtp","proto_vrrp","proto_wb-expak","proto_wb-mon","proto_wsn","proto_xnet","proto_xns-idp","proto_xtp","proto_zero","service_-","service_dhcp","service_dns","service_ftp","service_ftp-data","service_http","service_irc","service_pop3","service_radius","service_smtp","service_snmp","service_ssh","service_ssl","state_CON","state_ECO","state_FIN","state_INT","state_PAR","state_REQ","state_RST","state_URN","state_no"],"feature_types":["float","int","int","int","int","float","int","int","float","float","int","int","float","float","float","float","int","int","int","int","float","float","float","int","int","int","int","int","int","int","int","int","int","int","int","int","int","int","int","i","i","i","i","i","i","i","i","i","i","i","i","i","i","i","i","i","i","i","i","i","i","i","i","i","i","i","i","i","i","i","i","i","i","i","i","i","i","i","i","i","i","i","i","i","i","i","i","i","i","i","i","i","i","i","i","i","i","i","i","i","i","i","i","i","i","i","i","i","i","i","i","i","i","i","i","i","i","i","i","i","i","i","i","i","i","i","i","i","i","i","i","i","i","i","i","i","i","i","i","i","i","i","i","i","i","i","i","i","i","i","i","i","i","i","i","i","i","i","i","i","i","i","i","i","i","i","i","i","i","i","i","i","i","i","i","i","i","i","i","i","i","i","i","i","i","i","i","i","i","i","i","i","i","i"],"gradient_booster":{"model":{"cats":{"enc":[],"feature_segments":[],"sorted_idx":[]},"gbtree_model_param":{"num_parallel_tree":"1","num_trees":"200"},"iteration_indptr":[0,1,2,3,4,5,6,7,8,9,10,11,12,13,14,15,16,17,18,19,20,21,22,23,24,25,26,27,28,29,30,31,32,33,34,35,36,37,38,39,40,41,42,43,44,45,46,47,48,49,50,51,52,53,54,55,56,57,58,59,60,61,62,63,64,65,66,67,68,69,70,71,72,73,74,75,76,77,78,79,80,81,82,83,84,85,86,87,88,89,90,91,92,93,94,95,96,97,98,99,100,101,102,103,104,105,106,107,108,109,110,111,112,113,114,115,116,117,118,119,120,121,122,123,124,125,126,127,128,129,130,131,132,133,134,135,136,137,138,139,140,141,142,143,144,145,146,147,148,149,150,151,152,153,154,155,156,157,158,159,160,161,162,163,164,165,166,167,168,169,170,171,172,173,174,175,176,177,178,179,180,181,182,183,184,185,186,187,188,189,190,191,192,193,194,195,196,197,198,199,200],"tree_info":[0,0,0,0,0,0,0,0,0,0,0,0,0,0,0,0,0,0,0,0,0,0,0,0,0,0,0,0,0,0,0,0,0,0,0,0,0,0,0,0,0,0,0,0,0,0,0,0,0,0,0,0,0,0,0,0,0,0,0,0,0,0,0,0,0,0,0,0,0,0,0,0,0,0,0,0,0,0,0,0,0,0,0,0,0,0,0,0,0,0,0,0,0,0,0,0,0,0,0,0,0,0,0,0,0,0,0,0,0,0,0,0,0,0,0,0,0,0,0,0,0,0,0,0,0,0,0,0,0,0,0,0,0,0,0,0,0,0,0,0,0,0,0,0,0,0,0,0,0,0,0,0,0,0,0,0,0,0,0,0,0,0,0,0,0,0,0,0,0,0,0,0,0,0,0,0,0,0,0,0,0,0,0,0,0,0,0,0,0,0,0,0,0,0,0,0,0,0,0,0],"trees":[{"base_weights":[-1.6621879E-4,-3.0987504E0,9.996241E-1,-6.68579E-1,-3.130662E-1,1.3509182E0,5.703428E-1,-3.06137E-1,1.3485597E0,-3.3790365E-1,1.4491377E0,1.1326535E0,-5.498332E-1,1.4412676E-1,-1.6307192E-1,1.01904115E-2,-3.0910334E-1,1.458313E0,-3.0054E-1,1.3218316E0,4.8611936E-1,-4.4175375E-1,-2.801937E0,5.841316E-1,-8.579394E-1,1.4593161E0,-2.2633927E-1,1.2385076E0,1.4512613E0,1.1302346E0,2.7115107E-1,-2.9001963E-1,-1.6317358E0,-3.096458E0,1.3382559E-1,1.2092193E-1,3.6051426E-2,-1.2254717E-1,5.7762653E-2,1.4605628E-1,3.806855E-2,1.3304614E-1,7.518852E-2,2.8601974E-2,1.451732E-1,1.2805176E-1,7.764281E-2,1.1481502E-1,5.8582206E-3,-4.7868695E-2,4.5670215E-2,-2.1351735E-1,-7.433966E-3,-6.723497E-2,-3.1098005E-1],"categories":[],"categories_nodes":[],"categories_segments":[],"categories_sizes":[],"default_left":[0,0,0,0,0,0,0,0,0,0,0,0,0,0,0,0,0,0,0,0,0,0,0,0,0,0,0,0,0,0,0,0,0,0,0,0,0,0,0,0,0,0,0,0,0,0,0,0,0,0,0,0,0,0,0],"id":0,"left_children":[1,3,5,7,-1,9,11,-1,13,15,17,19,21,-1,-1,23,-1,25,-1,27,29,31,33,35,37,39,-1,41,43,45,47,49,51,53,-1,-1,-1,-1,-1,-1,-1,-1,-1,-1,-1,-1,-1,-1,-1,-1,-1,-1,-1,-1,-1],"loss_changes":[9.4297125E4,5.7375E2,3.4697207E3,4.7479227E2,0E0,2.0997246E3,6.5254507E3,0E0,1.7156105E1,6.674104E2,4.9321875E2,8.429326E2,8.416063E2,0E0,0E0,3.09029E2,0E0,4.7867188E1,0E0,5.5740234E1,2.1609167E2,5.9633936E2,1.9726794E2,5.1753082E1,1.3095105E2,1.54921875E1,0E0,1.4453857E2,7.2802734E-1,1.9782593E1,2.1862317E2,4.1338947E2,2.9274878E2,2.701294E0,0E0,0E0,0E0,0E0,0E0,0E0,0E0,0E0,0E0,0E0,0E0,0E0,0E0,0E0,0E0,0E0,0E0,0E0,0E0,0E0,0E0],"parents":[2147483647,0,0,1,1,2,2,3,3,5,5,6,6,8,8,9,9,10,10,11,11,12,12,15,15,17,17,19,19,20,20,21,21,22,22,23,23,24,24,25,25,27,27,28,28,29,29,30,30,31,31,32,32,33,33],"right_children":[2,4,6,8,-1,10,12,-1,14,16,18,20,22,-1,-1,24,-1,26,-1,28,30,32,34,36,38,40,-1,42,44,46,48,50,52,54,-1,-1,-1,-1,-1,-1,-1,-1,-1,-1,-1,-1,-1,-1,-1,-1,-1,-1,-1,-1,-1],"split_conditions":[6.2E1,1E-3,2.58E2,6E1,-3.130662E-1,1.14E2,3E0,-3.06137E-1,2E0,1E0,2E0,2E0,1E0,1.4412676E-1,-1.6307192E-1,6E0,-3.0910334E-1,1E0,-3.0054E-1,1.558E3,8.1196E-2,1.4E1,1.78E2,2E0,4E0,4E0,-2.2633927E-1,1E1,1.835737E0,5.4074075E5,2E0,6.8E1,1.08E3,9.789228E2,1.3382559E-1,1.2092193E-1,3.6051426E-2,-1.2254717E-1,5.7762653E-2,1.4605628E-1,3.806855E-2,1.3304614E-1,7.518852E-2,2.8601974E-2,1.451732E-1,1.2805176E-1,7.764281E-2,1.1481502E-1,5.8582206E-3,-4.7868695E-2,4.5670215E-2,-2.1351735E-1,-7.433966E-3,-6.723497E-2,-3.1098005E-1],"split_indices":[6,12,3,3,0,3,37,0,1,10,10,37,185,0,0,37,0,76,0,4,20,27,4,27,30,1,0,2,5,8,32,24,3,14,0,0,0,0,0,0,0,0,0,0,0,0,0,0,0,0,0,0,0,0,0],"split_type":[0,0,0,0,0,0,0,0,0,0,0,0,0,0,0,0,0,0,0,0,0,0,0,0,0,0,0,0,0,0,0,0,0,0,0,0,0,0,0,0,0,0,0,0,0,0,0,0,0,0,0,0,0,0,0],"sum_hessian":[3.043671E4,7.424463E3,2.3012248E4,9.6514755E1,7.327948E3,1.265452E4,1.0357729E4,4.3909866E1,5.260489E1,6.9538446E2,1.1959135E4,6.896023E3,3.461706E3,5.1518013E1,1.0868778E0,6.182161E2,7.716833E1,1.1935224E4,2.3911314E1,5.334179E3,1.5618435E3,3.3043262E3,1.5737991E2,3.7236435E2,2.4585178E2,1.1932615E4,2.608507E0,3.251504E3,2.0826753E3,3.897544E2,1.1720891E3,2.9317444E3,3.7258173E2,1.4716327E2,1.0216652E1,9.694951E1,2.7541486E2,1.958554E2,4.9996384E1,1.1918485E4,1.4129413E1,2.7332805E3,5.182234E2,1.0868778E0,2.0815886E3,2.7171948E2,1.18034935E2,2.278096E2,9.442795E2,2.3407002E3,5.910442E2,2.81284E2,9.1297745E1,1.0868778E0,1.4607639E2],"tree_param":{"num_deleted":"0","num_feature":"194","num_nodes":"55","size_leaf_vector":"1"}},{"base_weights":[7.3913424E-3,-2.5348773E0,9.4079274E-1,-5.750038E-1,-2.5579387E-1,1.1931728E0,3.6951223E-1,-2.516266E-1,1.299916E0,-9.864351E-1,1.2521498E0,1.1985996E0,-3.1871346E-1,9.158369E-1,1.3709515E-1,1.2659887E0,-1.8518001E0,1.3269401E0,4.428217E-1,-2.06073E0,1.2071608E0,-2.577977E0,-1.9536029E-1,2.5698094E-2,1.2099387E-1,1.335108E0,-2.0878302E-1,-9.4906014E-1,-2.580808E0,1.5824874E-1,1.3658211E0,9.717781E-1,-1.294136E0,5.8855355E-2,-2.911824E-1,1.072311E0,1.387335E0,7.5097844E-2,-2.6005253E-1,1.1269928E0,-3.3463246E-1,1.3684008E-1,-6.139939E-2,-1.2584154E-1,2.7697397E-2,-2.6006728E-1,2.4256056E-2,4.637227E-2,-4.1982234E-2,1.3883592E-1,9.506076E-2,1.280217E-1,4.0945813E-2,-1.658846E-1,-3.651754E-2,1.213096E-1,6.253477E-2,3.8380735E-2,1.3880283E-1,1.20962635E-1,6.6952296E-2,-5.885602E-2,3.9443288E-2],"categories":[],"categories_nodes":[],"categories_segments":[],"categories_sizes":[],"default_left":[0,0,0,0,0,0,0,0,0,0,0,0,0,0,0,0,0,0,0,0,0,0,0,0,0,0,0,0,0,0,0,0,0,0,0,0,0,0,0,0,0,0,0,0,0,0,0,0,0,0,0,0,0,0,0,0,0,0,0,0,0,0,0],"id":1,"left_children":[1,3,5,7,-1,9,11,-1,13,15,17,19,21,23,-1,25,27,29,31,33,35,37,39,-1,-1,41,-1,43,45,47,49,51,53,-1,-1,55,57,-1,-1,59,61,-1,-1,-1,-1,-1,-1,-1,-1,-1,-1,-1,-1,-1,-1,-1,-1,-1,-1,-1,-1,-1,-1],"loss_changes":[7.208332E4,3.6723438E2,3.2031133E3,3.5328278E2,0E0,1.9822012E3,3.8859822E3,0E0,9.706879E-2,7.947946E2,9.076582E2,8.868213E1,1.0366937E3,1.7722054E0,0E0,2.908371E1,1.9111298E2,6.239082E2,1.1688486E3,2.0793606E1,7.338135E1,1.640979E1,6.505094E2,0E0,0E0,8.092163E0,0E0,5.0786957E1,9.724365E0,7.84874E1,1.2307422E2,1.6853345E2,1.00048065E2,0E0,0E0,1.1042029E2,3.8305664E-1,0E0,0E0,1.1914429E1,5.9163434E2,0E0,0E0,0E0,0E0,0E0,0E0,0E0,0E0,0E0,0E0,0E0,0E0,0E0,0E0,0E0,0E0,0E0,0E0,0E0,0E0,0E0,0E0],"parents":[2147483647,0,0,1,1,2,2,3,3,5,5,6,6,8,8,9,9,10,10,11,11,12,12,13,13,15,15,16,16,17,17,18,18,19,19,20,20,21,21,22,22,25,25,27,27,28,28,29,29,30,30,31,31,32,32,35,35,36,36,39,39,40,40],"right_children":[2,4,6,8,-1,10,12,-1,14,16,18,20,22,24,-1,26,28,30,32,34,36,38,40,-1,-1,42,-1,44,46,48,50,52,54,-1,-1,56,58,-1,-1,60,62,-1,-1,-1,-1,-1,-1,-1,-1,-1,-1,-1,-1,-1,-1,-1,-1,-1,-1,-1,-1,-1,-1],"split_conditions":[6.2E1,1E-3,3.8094E-2,4.7E1,-2.5579387E-1,4.6E1,2E0,-2.516266E-1,2E0,3E0,2.51E2,3E0,6E0,4E0,1.3709515E-1,1E0,1.4E1,1.14E2,1.3E1,8.42E2,1.558E3,6E0,2E0,2.5698094E-2,1.2099387E-1,3E0,-2.0878302E-1,3E0,1.78E2,6E0,1.8749E-2,3E0,1.08E3,5.8855355E-2,-2.911824E-1,1E1,1.835737E0,7.5097844E-2,-2.6005253E-1,2.52E2,6.8E1,1.3684008E-1,-6.139939E-2,-1.2584154E-1,2.7697397E-2,-2.6006728E-1,2.4256056E-2,4.637227E-2,-4.1982234E-2,1.3883592E-1,9.506076E-2,1.280217E-1,4.0945813E-2,-1.658846E-1,-3.651754E-2,1.213096E-1,6.253477E-2,3.8380735E-2,1.3880283E-1,1.20962635E-1,6.6952296E-2,-5.885602E-2,3.9443288E-2],"split_indices":[6,12,21,23,0,23,37,0,31,27,23,2,2,37,0,81,16,3,27,3,4,1,32,0,0,28,0,30,4,37,21,27,3,0,0,2,5,0,0,23,24,0,0,0,0,0,0,0,0,0,0,0,0,0,0,0,0,0,0,0,0,0,0],"split_type":[0,0,0,0,0,0,0,0,0,0,0,0,0,0,0,0,0,0,0,0,0,0,0,0,0,0,0,0,0,0,0,0,0,0,0,0,0,0,0,0,0,0,0,0,0,0,0,0,0,0,0,0,0,0,0,0,0,0,0,0,0,0,0],"sum_hessian":[3.0374994E4,8.1568335E3,2.2218162E4,9.516474E1,8.061669E3,1.5409479E4,6.808683E3,4.6587116E1,4.857762E1,4.0555807E2,1.500392E4,3.0879587E3,3.720724E3,9.7505245E0,3.88271E1,1.1243709E2,2.93121E2,1.3734107E4,1.2698129E3,7.461919E0,3.0804968E3,1.9159962E2,3.5291245E3,3.5874934E0,6.1630316E0,1.1075642E2,1.6806778E0,1.319846E2,1.611364E2,4.4236966E2,1.3291737E4,9.737247E2,2.960882E2,1.8893204E0,5.5725985E0,1.7658285E3,1.3146685E3,1.0716972E0,1.9052794E2,3.355998E2,3.193525E3,1.0918928E2,1.5671332E0,1.0537083E2,2.6613771E1,1.600889E2,1.0474863E0,2.8955566E2,1.52814E2,1.2605175E4,6.865626E2,6.279889E2,3.457358E2,2.1205122E2,8.403698E1,1.3415514E3,4.2427707E2,1.2906181E0,1.3133778E3,2.828618E2,5.2737995E1,2.3687131E3,8.248116E2],"tree_param":{"num_deleted":"0","num_feature":"194","num_nodes":"63","size_leaf_vector":"1"}},{"base_weights":[1.2317646E-2,-2.18707E0,8.856044E-1,-5.199243E-1,-2.2062957E-1,1.2315472E0,4.869414E-1,-2.1798603E-1,1.2494733E-1,-4.0199402E-1,1.3444122E0,1.0174278E0,-4.4415775E-1,-4.674248E-2,-2.1529224E0,1.3452252E0,-1.9735204E-1,1.2032744E0,4.2049313E-1,-6.6178185E-1,1.4952525E-1,4.4231406E-1,-6.8875825E-1,-2.1953876E-1,8.432264E-2,1.348385E-1,6.802175E-1,1.253521E0,1.0077652E0,1.1182302E0,2.517176E-1,-5.255143E-1,-2.1432483E0,6.618641E-1,-6.670644E-1,1.0848566E-1,2.3354303E-2,-9.4253294E-2,5.1154178E-2,9.734638E-2,-5.768567E-3,1.2801516E-1,1.115479E-1,-2.426704E-1,1.0318758E-1,1.2251487E-1,7.394989E-2,-1.4894699E-2,6.537503E-2,1.1042068E-1,-5.9220243E-2,9.294633E-2,-2.2291882E-1,9.847718E-2,-7.4393027E-3,-1.1901679E-1,5.7795774E-2],"categories":[],"categories_nodes":[],"categories_segments":[],"categories_sizes":[],"default_left":[0,0,0,0,0,0,0,0,0,0,0,0,0,0,0,0,0,0,0,0,0,0,0,0,0,0,0,0,0,0,0,0,0,0,0,0,0,0,0,0,0,0,0,0,0,0,0,0,0,0,0,0,0,0,0,0,0],"id":2,"left_children":[1,3,5,7,-1,9,11,-1,-1,13,15,17,19,21,23,25,-1,27,29,31,33,35,37,-1,-1,-1,39,41,43,45,47,49,51,53,55,-1,-1,-1,-1,-1,-1,-1,-1,-1,-1,-1,-1,-1,-1,-1,-1,-1,-1,-1,-1,-1,-1],"loss_changes":[5.7096992E4,2.6965234E2,2.9340098E3,2.89472E2,0E0,2.1008496E3,4.8842812E3,0E0,0E0,4.5832196E2,3.140039E1,6.983125E2,4.6385132E2,1.9299648E2,1.7664429E1,2.1470703E1,0E0,4.5921387E1,1.7601538E2,5.291576E2,4.035994E2,4.6557274E1,8.142986E1,0E0,0E0,0E0,1.1395155E1,1.2603516E1,8.424536E1,1.0889832E1,1.944844E2,2.6223724E2,6.0414734E1,1.4096716E2,2.4296712E2,0E0,0E0,0E0,0E0,0E0,0E0,0E0,0E0,0E0,0E0,0E0,0E0,0E0,0E0,0E0,0E0,0E0,0E0,0E0,0E0,0E0,0E0],"parents":[2147483647,0,0,1,1,2,2,3,3,5,5,6,6,9,9,10,10,11,11,12,12,13,13,14,14,15,15,17,17,18,18,19,19,20,20,21,21,22,22,26,26,27,27,28,28,29,29,30,30,31,31,32,32,33,33,34,34],"right_children":[2,4,6,8,-1,10,12,-1,-1,14,16,18,20,22,24,26,-1,28,30,32,34,36,38,-1,-1,-1,40,42,44,46,48,50,52,54,56,-1,-1,-1,-1,-1,-1,-1,-1,-1,-1,-1,-1,-1,-1,-1,-1,-1,-1,-1,-1,-1,-1],"split_conditions":[6.2E1,1E-3,2.58E2,4.7E1,-2.2062957E-1,5.5E1,3E0,-2.1798603E-1,1.2494733E-1,1E0,1E0,2E0,1.2E1,6E0,1.04774E-1,1.03E2,-1.9735204E-1,8.7019E-2,2E0,3E0,3E0,2E0,4E0,-2.1953876E-1,8.432264E-2,1.348385E-1,6E0,1.2385043E2,3E0,9.7488E-2,9.94E2,2E0,6E0,3.2E2,1.659007E2,1.0848566E-1,2.3354303E-2,-9.4253294E-2,5.1154178E-2,9.734638E-2,-5.768567E-3,1.2801516E-1,1.115479E-1,-2.426704E-1,1.0318758E-1,1.2251487E-1,7.394989E-2,-1.4894699E-2,6.537503E-2,1.1042068E-1,-5.9220243E-2,9.294633E-2,-2.2291882E-1,9.847718E-2,-7.4393027E-3,-1.1901679E-1,5.7795774E-2],"split_indices":[6,12,3,23,0,23,37,0,0,10,76,37,1,37,20,23,0,21,32,28,11,27,30,0,0,0,27,13,2,21,3,32,1,23,15,0,0,0,0,0,0,0,0,0,0,0,0,0,0,0,0,0,0,0,0,0,0],"split_type":[0,0,0,0,0,0,0,0,0,0,0,0,0,0,0,0,0,0,0,0,0,0,0,0,0,0,0,0,0,0,0,0,0,0,0,0,0,0,0,0,0,0,0,0,0,0,0,0,0,0,0,0,0,0,0,0,0],"sum_hessian":[2.9725236E4,8.447801E3,2.1277436E4,9.663017E1,8.351171E3,1.1390848E4,9.886587E3,4.973757E1,4.68926E1,7.3599005E2,1.0654858E4,6.2981646E3,3.588422E3,6.1270337E2,1.2328668E2,1.0652842E4,2.0158167E0,4.802091E3,1.496074E3,2.625784E3,9.626382E2,3.4795734E2,2.64746E2,1.21827255E2,1.4594275E0,1.060144E4,5.1401394E1,3.8159624E3,9.8612836E2,2.90303E2,1.205771E3,2.4058455E3,2.1993855E2,5.9163086E2,3.7100732E2,8.4301865E1,2.636555E2,2.1871808E2,4.602793E1,3.6555023E1,1.4846371E1,3.1919148E3,6.240476E2,6.1798763E0,9.799485E2,2.2464835E2,6.565466E1,6.0422833E2,6.015426E2,9.396542E1,2.3118801E3,5.7169814E0,2.1422157E2,4.110257E2,1.8060515E2,2.612751E2,1.0973222E2],"tree_param":{"num_deleted":"0","num_feature":"194","num_nodes":"57","size_leaf_vector":"1"}},{"base_weights":[1.075148E-2,-1.9513152E0,8.3716196E-1,-4.7358873E-1,-1.9674444E-1,1.1832365E0,4.5292965E-1,-1.9442604E-1,1.1780981E0,-3.376016E-1,1.2978829E0,9.419853E-1,-3.6777332E-1,1.2856226E-1,-1.6204642E-1,-1.2000794E-2,-1.921582E0,1.2989088E0,-1.8803282E-1,1.1247385E0,5.125043E-1,-5.4221535E-1,4.5223325E-1,4.1080245E-1,-5.372695E-1,-1.958437E-1,8.0858186E-2,1.3031054E0,4.797308E-1,1.1883835E0,8.7629837E-1,2.849204E-1,1.2864624E0,-1.8863358E0,-4.4097108E-1,-5.741811E-1,1.1089996E0,6.7607455E-2,6.5607936E-3,-7.506799E-2,4.4731136E-2,1.3032064E-1,1.9906802E-2,1.1849101E-1,-1.0872117E-2,1.1945987E-1,-1.4004032E-1,7.760361E-2,1.2727794E-1,1.02587305E-1,9.895246E-3,1.2886894E-1,4.7590267E-2,-2.0002691E-1,1.21848844E-1,-5.279696E-2,9.245158E-2,-9.490112E-2,1.12751506E-1,7.006287E-2,1.20363E-1],"categories":[],"categories_nodes":[],"categories_segments":[],"categories_sizes":[],"default_left":[0,0,0,0,0,0,0,0,0,0,0,0,0,0,0,0,0,0,0,0,0,0,0,0,0,0,0,0,0,0,0,0,0,0,0,0,0,0,0,0,0,0,0,0,0,0,0,0,0,0,0,0,0,0,0,0,0,0,0,0,0],"id":3,"left_children":[1,3,5,7,-1,9,11,-1,13,15,17,19,21,-1,-1,23,25,27,-1,29,31,33,35,37,39,-1,-1,41,43,45,47,49,51,53,55,57,59,-1,-1,-1,-1,-1,-1,-1,-1,-1,-1,-1,-1,-1,-1,-1,-1,-1,-1,-1,-1,-1,-1,-1,-1],"loss_changes":[4.6620137E4,2.0216211E2,2.6895986E3,2.2897052E2,0E0,1.8561777E3,3.8488545E3,0E0,1.5497173E1,3.8517578E2,3.4714844E1,4.7102148E2,5.12482E2,0E0,0E0,1.380324E2,1.4396851E1,3.3390625E1,0E0,6.55918E1,3.1587137E2,4.0106348E2,4.2445685E2,3.1489494E1,5.857421E1,0E0,0E0,8.378906E-1,2.1712349E1,5.5604492E1,3.3326477E1,1.9125082E2,1.22558594E-1,7.5507996E1,3.2690356E2,1.5796515E2,1.3985657E1,0E0,0E0,0E0,0E0,0E0,0E0,0E0,0E0,0E0,0E0,0E0,0E0,0E0,0E0,0E0,0E0,0E0,0E0,0E0,0E0,0E0,0E0,0E0,0E0],"parents":[2147483647,0,0,1,1,2,2,3,3,5,5,6,6,8,8,9,9,10,10,11,11,12,12,15,15,16,16,17,17,19,19,20,20,21,21,22,22,23,23,24,24,27,27,28,28,29,29,30,30,31,31,32,32,33,33,34,34,35,35,36,36],"right_children":[2,4,6,8,-1,10,12,-1,14,16,18,20,22,-1,-1,24,26,28,-1,30,32,34,36,38,40,-1,-1,42,44,46,48,50,52,54,56,58,60,-1,-1,-1,-1,-1,-1,-1,-1,-1,-1,-1,-1,-1,-1,-1,-1,-1,-1,-1,-1,-1,-1,-1,-1],"split_conditions":[6.2E1,1E-3,2.58E2,4.7E1,-1.9674444E-1,5.5E1,3E0,-1.9442604E-1,1.08E-4,1E0,1E0,2E0,6.8E1,1.2856226E-1,-1.6204642E-1,5E0,1.04774E-1,1.03E2,-1.8803282E-1,1.3581477E2,1.558E3,2.52E2,9.86E2,3E0,4E0,-1.958437E-1,8.0858186E-2,7.3888E4,3E0,4.54869E-1,1.558E3,2E0,1.5202769E6,2.54E2,1.5720055E1,1.77E2,1.022E3,6.7607455E-2,6.5607936E-3,-7.506799E-2,4.4731136E-2,1.3032064E-1,1.9906802E-2,1.1849101E-1,-1.0872117E-2,1.1945987E-1,-1.4004032E-1,7.760361E-2,1.2727794E-1,1.02587305E-1,9.895246E-3,1.2886894E-1,4.7590267E-2,-2.0002691E-1,1.21848844E-1,-5.279696E-2,9.245158E-2,-9.490112E-2,1.12751506E-1,7.006287E-2,1.20363E-1],"split_indices":[6,12,3,23,0,23,32,0,0,10,76,32,24,0,0,32,20,23,0,13,4,6,3,32,30,0,0,9,32,20,4,10,9,23,0,24,3,0,0,0,0,0,0,0,0,0,0,0,0,0,0,0,0,0,0,0,0,0,0,0,0],"split_type":[0,0,0,0,0,0,0,0,0,0,0,0,0,0,0,0,0,0,0,0,0,0,0,0,0,0,0,0,0,0,0,0,0,0,0,0,0,0,0,0,0,0,0,0,0,0,0,0,0,0,0,0,0,0,0,0,0,0,0,0,0],"sum_hessian":[2.8749723E4,8.520044E3,2.022968E4,9.231893E1,8.427725E3,1.0642236E4,9.587442E3,4.8741802E1,4.3577126E1,7.458781E2,9.896358E3,6.007459E3,3.5799836E3,4.2485394E1,1.0917311E0,6.195349E2,1.2634317E2,9.893756E3,2.6024823E0,4.213085E3,1.7943743E3,2.9522773E3,6.277064E2,3.4336716E2,2.761678E2,1.24939255E2,1.4039117E0,9.842742E3,5.101298E1,3.3508787E3,8.622061E2,1.3876897E3,4.0668463E2,2.0556476E2,2.7467126E3,2.449761E2,3.827303E2,1.9361844E2,1.4974872E2,2.2716644E2,4.900133E1,9.841662E3,1.080894E0,2.274391E1,2.826907E1,3.3433904E3,7.4883437E0,6.905395E2,1.7166666E2,2.7750583E2,1.1101838E3,4.0498212E2,1.7025377E0,1.9863162E2,6.9331408E0,2.5827712E3,1.6394136E2,2.0111838E2,4.385773E1,7.358462E1,3.091457E2],"tree_param":{"num_deleted":"0","num_feature":"194","num_nodes":"61","size_leaf_vector":"1"}},{"base_weights":[1.187564E-2,-1.7797999E0,7.9254556E-1,-4.295256E-1,-1.7946354E-1,1.0459385E0,2.7720568E-1,-1.7732775E-1,1.161397E0,-8.153233E-1,1.1068935E0,1.0356816E0,-2.5391603E-1,8.1398946E-1,1.23680785E-1,1.1447328E0,-1.3921778E0,1.1868677E0,3.409201E-1,8.697312E-1,1.2572968E0,-1.8512844E0,-1.6047809E-1,2.8729398E-2,1.0864611E-1,1.2255025E0,-2.0153551E-1,-1.8512515E0,-8.034966E-1,4.3826205E-1,1.2301767E0,8.3107275E-1,-1.0132385E0,1.0573967E0,5.1785463E-1,4.1510973E-2,1.2580723E0,8.3766066E-2,-1.8740606E0,9.7932106E-1,-2.6468635E-1,1.2603685E-1,-7.863911E-2,-1.8680279E-1,-8.148174E-3,-9.9807374E-2,9.7389586E-2,1.13532364E-1,5.726751E-3,1.251985E-1,8.129538E-2,1.12454094E-1,3.722306E-2,-1.2529705E-1,-2.4212204E-2,1.0787137E-1,-1.945919E-1,-6.723278E-3,7.753035E-2,7.393617E-2,1.2597804E-1,-2.4513283E-1,-1.7903775E-1,1.085298E-1,4.639882E-2,-4.459371E-2,3.0568257E-2],"categories":[],"categories_nodes":[],"categories_segments":[],"categories_sizes":[],"default_left":[0,0,0,0,0,0,0,0,0,0,0,0,0,0,0,0,0,0,0,0,0,0,0,0,0,0,0,0,0,0,0,0,0,0,0,0,0,0,0,0,0,0,0,0,0,0,0,0,0,0,0,0,0,0,0,0,0,0,0,0,0,0,0,0,0,0,0],"id":4,"left_children":[1,3,5,7,-1,9,11,-1,13,15,17,19,21,23,-1,25,27,29,31,33,35,37,39,-1,-1,41,-1,43,45,47,49,51,53,55,57,-1,59,-1,61,63,65,-1,-1,-1,-1,-1,-1,-1,-1,-1,-1,-1,-1,-1,-1,-1,-1,-1,-1,-1,-1,-1,-1,-1,-1,-1,-1],"loss_changes":[3.8784734E4,1.6780273E2,2.52175E3,2.0037979E2,0E0,1.4697861E3,2.5654055E3,0E0,1.2191391E-1,4.664526E2,7.6758203E2,9.536182E1,5.587967E2,1.2103434E0,0E0,2.6471268E1,8.4479004E1,3.6748438E2,7.884518E2,9.8698975E1,2.0959473E-1,1.4242004E1,4.2072675E2,0E0,0E0,7.4665985E0,0E0,5.1314087E0,4.9784935E1,1.6521451E2,9.6612305E1,1.1697485E2,5.807782E1,6.479028E1,7.9090256E1,0E0,6.0302734E-2,0E0,5.5376587E0,1.5703064E1,3.3552496E2,0E0,0E0,0E0,0E0,0E0,0E0,0E0,0E0,0E0,0E0,0E0,0E0,0E0,0E0,0E0,0E0,0E0,0E0,0E0,0E0,0E0,0E0,0E0,0E0,0E0,0E0],"parents":[2147483647,0,0,1,1,2,2,3,3,5,5,6,6,8,8,9,9,10,10,11,11,12,12,13,13,15,15,16,16,17,17,18,18,19,19,20,20,21,21,22,22,25,25,27,27,28,28,29,29,30,30,31,31,32,32,33,33,34,34,36,36,38,38,39,39,40,40],"right_children":[2,4,6,8,-1,10,12,-1,14,16,18,20,22,24,-1,26,28,30,32,34,36,38,40,-1,-1,42,-1,44,46,48,50,52,54,56,58,-1,60,-1,62,64,66,-1,-1,-1,-1,-1,-1,-1,-1,-1,-1,-1,-1,-1,-1,-1,-1,-1,-1,-1,-1,-1,-1,-1,-1,-1,-1],"split_conditions":[6.2E1,1E-3,3.8094E-2,4.7E1,-1.7946354E-1,4.6E1,2E0,-1.7732775E-1,2E0,3E0,2.51E2,1.432E3,2.68E2,4E0,1.23680785E-1,1E0,1E0,5.3E1,1.3E1,5.56E2,1.835737E0,6E0,2E0,2.8729398E-2,1.0864611E-1,3E0,-2.0153551E-1,4.1922E-2,2E0,2E0,1.8749E-2,3E0,5.76E2,2E0,5.9E1,4.1510973E-2,9.010307E0,8.3766066E-2,3E0,2.52E2,6.8E1,1.2603685E-1,-7.863911E-2,-1.8680279E-1,-8.148174E-3,-9.9807374E-2,9.7389586E-2,1.13532364E-1,5.726751E-3,1.251985E-1,8.129538E-2,1.12454094E-1,3.722306E-2,-1.2529705E-1,-2.4212204E-2,1.0787137E-1,-1.945919E-1,-6.723278E-3,7.753035E-2,7.393617E-2,1.2597804E-1,-2.4513283E-1,-1.7903775E-1,1.085298E-1,4.639882E-2,-4.459371E-2,3.0568257E-2],"split_indices":[6,12,21,23,0,23,37,0,31,27,23,4,4,37,0,81,158,23,27,4,5,1,32,0,0,28,0,22,31,37,21,27,23,28,24,0,12,0,37,23,24,0,0,0,0,0,0,0,0,0,0,0,0,0,0,0,0,0,0,0,0,0,0,0,0,0,0],"split_type":[0,0,0,0,0,0,0,0,0,0,0,0,0,0,0,0,0,0,0,0,0,0,0,0,0,0,0,0,0,0,0,0,0,0,0,0,0,0,0,0,0,0,0,0,0,0,0,0,0,0,0,0,0,0,0,0,0,0,0,0,0,0,0,0,0,0,0],"sum_hessian":[2.7726979E4,8.414351E3,1.9312627E4,9.176819E1,8.322583E3,1.2946028E4,6.3665986E3,4.968651E1,4.208168E1,4.101368E2,1.2535892E4,2.621697E3,3.7449019E3,9.608894E0,3.2472786E1,9.303497E1,3.1710184E2,1.1350275E4,1.1856158E3,1.501937E3,1.1197599E3,2.0591243E2,3.5389895E3,3.9765358E0,5.632359E0,9.131326E1,1.7217131E0,1.769587E2,1.4014313E2,6.2134204E2,1.0728934E4,8.7080475E2,3.148111E2,9.7822015E2,5.2371686E2,1.5234481E0,1.1182365E3,1.4289982E0,2.0448343E2,2.9575134E2,3.243238E3,9.012495E1,1.1883174E0,1.75242E2,1.7167011E0,1.26710205E2,1.3432928E1,2.1888803E2,4.02454E2,1.0194086E4,5.34847E2,5.302283E2,3.4057648E2,2.3967412E2,7.513699E1,9.7196216E2,6.2579594E0,1.602548E2,3.6346204E2,5.094377E0,1.1131421E3,2.2307505E1,1.8217592E2,2.4438763E2,5.136369E1,2.461307E3,7.819312E2],"tree_param":{"num_deleted":"0","num_feature":"194","num_nodes":"67","size_leaf_vector":"1"}},{"base_weights":[1.3830128E-2,-1.6503546E0,7.57124E-1,-1.6552521E0,1.1591454E-1,1.1120845E0,3.938028E-1,-1.659795E0,1.1639297E-1,-2.5528637E-1,1.2277304E0,1.0689925E0,-1.4320531E-1,-1.6643134E-1,1.154796E-1,7.824162E-3,-1.6116953E0,1.2316107E0,2.671907E-1,9.737974E-1,1.2246648E0,3.5702118E-1,-3.4218693E-1,3.641905E-1,-4.359871E-1,-1.650976E-1,8.219922E-2,1.2325581E0,-1.7120549E-1,1.0166183E0,-4.0854606E-1,1.0881426E0,4.2517537E-1,1.2278059E0,7.397685E-1,2.50358E-1,1.2107897E0,-1.1293223E0,-2.3190771E-1,1.0880166E-1,2.0310916E-2,-7.25247E-2,1.3803989E-2,1.2326741E-1,2.483592E-2,1.1073821E-1,3.5659164E-2,1.9150556E-3,-9.67211E-2,1.1007824E-1,-6.1374128E-2,6.3091475E-3,6.357645E-2,3.2292288E-2,1.2283786E-1,-7.42029E-2,1.0355741E-1,-1.03608444E-1,4.096299E-2,1.2223091E-1,-3.0545399E-2,-1.3764428E-1,9.0221114E-2,-3.709632E-2,1.00443915E-1],"categories":[],"categories_nodes":[],"categories_segments":[],"categories_sizes":[],"default_left":[0,0,0,0,0,0,0,0,0,0,0,0,0,0,0,0,0,0,0,0,0,0,0,0,0,0,0,0,0,0,0,0,0,0,0,0,0,0,0,0,0,0,0,0,0,0,0,0,0,0,0,0,0,0,0,0,0,0,0,0,0,0,0,0,0],"id":5,"left_children":[1,3,5,7,-1,9,11,13,-1,15,17,19,21,-1,-1,23,25,27,29,31,33,35,37,39,41,-1,-1,43,-1,45,47,49,51,53,55,57,59,61,63,-1,-1,-1,-1,-1,-1,-1,-1,-1,-1,-1,-1,-1,-1,-1,-1,-1,-1,-1,-1,-1,-1,-1,-1,-1,-1],"loss_changes":[3.2807066E4,1.1458789E2,2.3639307E3,1.06625E2,0E0,1.4666367E3,3.2857202E3,1.057207E2,0E0,2.5837177E2,3.154004E1,5.829785E1,5.025936E2,0E0,0E0,9.6210846E1,1.2600769E1,2.5859375E1,1.8482988E1,1.5611572E2,1.4060059E0,1.3056711E2,3.132806E2,3.911636E1,4.5085636E1,0E0,0E0,6.6503906E-1,0E0,6.356907E-1,4.6717362E0,4.509326E1,3.291059E1,3.8476562E-1,6.157668E0,2.624343E2,3.156433E0,2.2394879E2,5.45265E2,0E0,0E0,0E0,0E0,0E0,0E0,0E0,0E0,0E0,0E0,0E0,0E0,0E0,0E0,0E0,0E0,0E0,0E0,0E0,0E0,0E0,0E0,0E0,0E0,0E0,0E0],"parents":[2147483647,0,0,1,1,2,2,3,3,5,5,6,6,7,7,9,9,10,10,11,11,12,12,15,15,16,16,17,17,18,18,19,19,20,20,21,21,22,22,23,23,24,24,27,27,29,29,30,30,31,31,32,32,33,33,34,34,35,35,36,36,37,37,38,38],"right_children":[2,4,6,8,-1,10,12,14,-1,16,18,20,22,-1,-1,24,26,28,30,32,34,36,38,40,42,-1,-1,44,-1,46,48,50,52,54,56,58,60,62,64,-1,-1,-1,-1,-1,-1,-1,-1,-1,-1,-1,-1,-1,-1,-1,-1,-1,-1,-1,-1,-1,-1,-1,-1,-1,-1],"split_conditions":[6.2E1,1E0,2.58E2,1E0,1.1591454E-1,5.5E1,2E0,1E0,1.1639297E-1,1E0,1.08E2,1.558E3,3E0,-1.6643134E-1,1.154796E-1,6E0,3.9629E-2,1E0,4E0,1E1,6E0,1.558E3,2.52E2,1E0,3E0,-1.650976E-1,8.219922E-2,9.66E2,-1.7120549E-1,3E0,7E0,1.97011E-1,8.92E2,1.835737E0,1.8023401E3,6.4E1,9E0,1.558E3,6.8E1,1.0880166E-1,2.0310916E-2,-7.25247E-2,1.3803989E-2,1.2326741E-1,2.483592E-2,1.1073821E-1,3.5659164E-2,1.9150556E-3,-9.67211E-2,1.1007824E-1,-6.1374128E-2,6.3091475E-3,6.357645E-2,3.2292288E-2,1.2283786E-1,-7.42029E-2,1.0355741E-1,-1.03608444E-1,4.096299E-2,1.2223091E-1,-3.0545399E-2,-1.3764428E-1,9.0221114E-2,-3.709632E-2,1.00443915E-1],"split_indices":[6,110,3,149,0,23,37,150,0,10,23,4,37,0,0,37,22,76,27,2,27,4,6,158,30,0,0,4,0,37,27,21,3,5,14,6,27,4,24,0,0,0,0,0,0,0,0,0,0,0,0,0,0,0,0,0,0,0,0,0,0,0,0,0,0],"split_type":[0,0,0,0,0,0,0,0,0,0,0,0,0,0,0,0,0,0,0,0,0,0,0,0,0,0,0,0,0,0,0,0,0,0,0,0,0,0,0,0,0,0,0,0,0,0,0,0,0,0,0,0,0,0,0,0,0,0,0,0,0,0,0,0,0],"sum_hessian":[2.6519932E4,8.1874854E3,1.8332447E4,8.173648E3,1.383737E1,9.271874E3,9.060572E3,8.1609087E3,1.2739308E1,7.2292737E2,8.548947E3,4.013428E3,5.0471445E3,8.148237E3,1.2671996E1,6.063118E2,1.1661559E2,8.51427E3,3.4677513E1,2.4949788E3,1.5184492E3,1.4360973E3,3.611047E3,3.3638486E2,2.6992694E2,1.1507978E2,1.5358156E0,8.51211E3,2.1584916E0,1.6203035E1,1.8474476E1,2.0638438E3,4.3113513E2,1.507154E3,1.1295113E1,1.2777574E3,1.5833984E2,4.4260965E2,3.1684375E3,6.018526E1,2.761996E2,1.7930786E2,9.061908E1,8.510855E3,1.2556533E0,1.3648388E1,2.5546477E0,1.1010725E1,7.463751E0,2.0489792E3,1.4864377E1,1.5901927E2,2.7211588E2,1.3105608E0,1.5058435E3,1.6285604E0,9.666553E0,1.4016188E2,1.1375956E3,1.5733835E2,1.0015006E0,3.9489603E2,4.771361E1,2.8487324E3,3.197052E2],"tree_param":{"num_deleted":"0","num_feature":"194","num_nodes":"65","size_leaf_vector":"1"}},{"base_weights":[1.8193457E-2,-1.5497463E0,7.200102E-1,-3.8074937E-1,-1.5622242E-1,1.0821253E0,3.649594E-1,-1.5413149E-1,1.0921558E0,-2.2025634E-1,1.1987956E0,1.0307952E0,-1.326424E-1,7.00938E-1,1.17510475E-1,1.9876815E-2,-1.5023581E0,1.2036983E0,3.019975E-1,1.0898525E0,7.9575825E-1,1.581434E-1,-3.9875826E-1,1.1751674E-2,1.01142846E-1,2.7924073E-1,-5.5388457E-1,-1.5500785E-1,8.677036E-2,1.2045659E0,-1.5051287E-1,1.0091463E0,-1.9806768E-1,1.0943569E0,-1.354476E-1,1.010499E0,4.2496464E-1,-1.0694021E-1,4.7231355E-1,-1.1521815E0,-2.9989845E-1,1.0727359E-1,1.5378675E-2,-9.417134E-2,1.6206084E-2,1.2046883E-1,1.6021818E-2,1.1012695E-1,1.5674795E-3,-3.3310652E-3,-1.5628809E-1,1.16289735E-1,1.003255E-1,1.0999141E-1,-3.814954E-1,1.0946834E-1,5.266366E-2,9.59513E-2,4.9684728E-3,-2.7450237E-3,-1.6498113E-1,8.4403306E-2,1.5442698E-2,-1.4454317E-1,-1.7607602E-3,-9.285467E-2,-1.6483437E-2],"categories":[],"categories_nodes":[],"categories_segments":[],"categories_sizes":[],"default_left":[0,0,0,0,0,0,0,0,0,0,0,0,0,0,0,0,0,0,0,0,0,0,0,0,0,0,0,0,0,0,0,0,0,0,0,0,0,0,0,0,0,0,0,0,0,0,0,0,0,0,0,0,0,0,0,0,0,0,0,0,0,0,0,0,0,0,0],"id":6,"left_children":[1,3,5,7,-1,9,11,-1,13,15,17,19,21,23,-1,25,27,29,31,33,35,37,39,-1,-1,41,43,-1,-1,45,-1,47,49,51,53,55,57,59,61,63,65,-1,-1,-1,-1,-1,-1,-1,-1,-1,-1,-1,-1,-1,-1,-1,-1,-1,-1,-1,-1,-1,-1,-1,-1,-1,-1],"loss_changes":[2.7827633E4,1.1346289E2,2.2456055E3,1.4510869E2,0E0,1.3143281E3,2.9230986E3,0E0,3.9523697E-1,2.1919427E2,3.453418E1,5.150952E1,3.908304E2,1.5203571E0,0E0,8.95246E1,1.4047241E1,2.0364258E1,1.5932755E1,1.6776855E1,6.019925E1,2.0107233E2,1.960694E2,0E0,0E0,4.1073048E1,5.2157898E1,0E0,0E0,8.1640625E-1,0E0,1.684452E0,5.9961357E0,1.757837E1,5.8402107E1,1.9034973E1,5.6317593E1,1.6061327E2,1.3041747E2,1.01628204E2,1.9789488E2,0E0,0E0,0E0,0E0,0E0,0E0,0E0,0E0,0E0,0E0,0E0,0E0,0E0,0E0,0E0,0E0,0E0,0E0,0E0,0E0,0E0,0E0,0E0,0E0,0E0,0E0],"parents":[2147483647,0,0,1,1,2,2,3,3,5,5,6,6,8,8,9,9,10,10,11,11,12,12,13,13,15,15,16,16,17,17,18,18,19,19,20,20,21,21,22,22,25,25,26,26,29,29,31,31,32,32,33,33,34,34,35,35,36,36,37,37,38,38,39,39,40,40],"right_children":[2,4,6,8,-1,10,12,-1,14,16,18,20,22,24,-1,26,28,30,32,34,36,38,40,-1,-1,42,44,-1,-1,46,-1,48,50,52,54,56,58,60,62,64,66,-1,-1,-1,-1,-1,-1,-1,-1,-1,-1,-1,-1,-1,-1,-1,-1,-1,-1,-1,-1,-1,-1,-1,-1,-1,-1],"split_conditions":[6.2E1,1E-3,2.58E2,4.7E1,-1.5622242E-1,5.4E1,2E0,-1.5413149E-1,2E0,1E0,1.03E2,1.72758E-1,4E0,4E0,1.17510475E-1,8E0,1.04774E-1,1E0,3E0,1E0,1E0,9.94E2,2.52E2,1.1751674E-2,1.01142846E-1,1E0,3E0,-1.5500785E-1,8.677036E-2,6.619397E4,-1.5051287E-1,1.26E2,3.4E1,1.00647E-1,1.0467539E3,1E0,5.8E1,3E0,2.52E2,3E0,5.5E1,1.0727359E-1,1.5378675E-2,-9.417134E-2,1.6206084E-2,1.2046883E-1,1.6021818E-2,1.1012695E-1,1.5674795E-3,-3.3310652E-3,-1.5628809E-1,1.16289735E-1,1.003255E-1,1.0999141E-1,-3.814954E-1,1.0946834E-1,5.266366E-2,9.59513E-2,4.9684728E-3,-2.7450237E-3,-1.6498113E-1,8.4403306E-2,1.5442698E-2,-1.4454317E-1,-1.7607602E-3,-9.285467E-2,-1.6483437E-2],"split_indices":[6,12,3,23,0,23,37,0,31,10,23,20,37,37,0,37,20,76,37,174,172,3,6,0,0,158,30,0,0,9,0,23,37,20,12,175,23,28,23,35,23,0,0,0,0,0,0,0,0,0,0,0,0,0,0,0,0,0,0,0,0,0,0,0,0,0,0],"split_type":[0,0,0,0,0,0,0,0,0,0,0,0,0,0,0,0,0,0,0,0,0,0,0,0,0,0,0,0,0,0,0,0,0,0,0,0,0,0,0,0,0,0,0,0,0,0,0,0,0,0,0,0,0,0,0,0,0,0,0,0,0,0,0,0,0,0,0],"sum_hessian":[2.528649E4,7.8182993E3,1.7468191E4,8.2903755E1,7.7353955E3,8.64705E3,8.821143E3,4.6342255E1,3.6561504E1,7.108613E2,7.936188E3,3.7723406E3,5.048802E3,8.049112E0,2.8512392E1,5.995519E2,1.1130946E2,7.8926973E3,4.349085E1,3.0119077E3,7.6043274E2,2.4127676E3,2.6360344E3,3.2745738E0,4.774538E0,4.1325623E2,1.8629562E2,1.0945167E2,1.8577974E0,7.890725E3,1.9720044E0,1.759355E1,2.58973E1,3.0009827E3,1.0925143E1,4.804567E2,2.7997604E2,1.3089717E3,1.1037959E3,3.0452856E2,2.3315059E3,5.538648E1,3.5786975E2,1.20633125E2,6.5662506E1,7.8896465E3,1.0786644E0,1.600127E1,1.5922791E0,2.4021847E1,1.8754538E0,1.7058335E3,1.295149E3,8.703942E0,2.2212014E0,4.0817783E2,7.2278885E1,1.1484053E2,1.6513551E2,1.2458046E3,6.3167076E1,5.08052E2,5.9574384E2,2.4176598E2,6.276259E1,4.112926E2,1.9202133E3],"tree_param":{"num_deleted":"0","num_feature":"194","num_nodes":"67","size_leaf_vector":"1"}},{"base_weights":[1.2852969E-2,-1.4686879E0,6.809459E-1,-3.1990227E-1,-1.4808814E-1,1.0502216E0,3.347365E-1,-1.458639E-1,1.09149955E-1,-2.4311602E-1,1.1747549E0,9.8861396E-1,-1.270486E-1,-2.5408678E-2,-1.4340733E0,1.1799864E0,2.6801303E-1,8.78041E-1,1.1737719E0,3.7664315E-1,-2.7808928E-1,3.061219E-1,-4.2103913E-1,-1.4654899E-1,7.203733E-2,1.1809977E0,-1.4468668E-1,8.814927E-1,-1.8945688E-1,1.0061865E0,3.0622914E-1,1.6984569E-2,1.1744384E-1,7.890696E-1,1.4001249E-1,-5.0201154E-1,1.7720697E-2,9.675303E-2,1.7298922E-2,-3.1145742E-2,-1.5710597E-1,1.1811302E-1,1.2175091E-2,9.6380256E-2,-5.9418483E-3,3.6276241E-3,-8.3186164E-2,1.0154086E-1,-1.23078644E-1,-6.0745846E-3,5.183814E-2,9.5687225E-2,4.5436647E-2,1.3932288E-3,1.1808562E-1,-1.1185886E-1,-3.5563774E-2,-2.4232036E-2,9.406631E-2],"categories":[],"categories_nodes":[],"categories_segments":[],"categories_sizes":[],"default_left":[0,0,0,0,0,0,0,0,0,0,0,0,0,0,0,0,0,0,0,0,0,0,0,0,0,0,0,0,0,0,0,0,0,0,0,0,0,0,0,0,0,0,0,0,0,0,0,0,0,0,0,0,0,0,0,0,0,0,0],"id":7,"left_children":[1,3,5,7,-1,9,11,-1,-1,13,15,17,19,21,23,25,27,29,31,33,35,37,39,-1,-1,41,-1,43,45,47,49,-1,-1,51,53,55,57,-1,-1,-1,-1,-1,-1,-1,-1,-1,-1,-1,-1,-1,-1,-1,-1,-1,-1,-1,-1,-1,-1],"loss_changes":[2.37806E4,1.0412109E2,2.1166E3,1.2968617E2,0E0,1.2907051E3,2.5810908E3,0E0,0E0,1.826318E2,3.435254E1,7.140576E1,3.8129776E2,7.838843E1,8.42424E0,2.1012695E1,1.2296118E1,1.6230139E2,6.8359375E-1,1.12737366E2,2.5537427E2,2.8468563E1,3.3845295E1,0E0,0E0,8.75E-1,0E0,1.5007181E0,3.7395937E0,3.8640503E1,3.1773895E1,0E0,0E0,2.3229889E1,9.656413E1,1.9763751E2,3.9910452E2,0E0,0E0,0E0,0E0,0E0,0E0,0E0,0E0,0E0,0E0,0E0,0E0,0E0,0E0,0E0,0E0,0E0,0E0,0E0,0E0,0E0,0E0],"parents":[2147483647,0,0,1,1,2,2,3,3,5,5,6,6,9,9,10,10,11,11,12,12,13,13,14,14,15,15,16,16,17,17,18,18,19,19,20,20,21,21,22,22,25,25,27,27,28,28,29,29,30,30,33,33,34,34,35,35,36,36],"right_children":[2,4,6,8,-1,10,12,-1,-1,14,16,18,20,22,24,26,28,30,32,34,36,38,40,-1,-1,42,-1,44,46,48,50,-1,-1,52,54,56,58,-1,-1,-1,-1,-1,-1,-1,-1,-1,-1,-1,-1,-1,-1,-1,-1,-1,-1,-1,-1,-1,-1],"split_conditions":[6.2E1,1E-3,2.58E2,4.7E1,-1.4808814E-1,5.5E1,2E0,-1.458639E-1,1.09149955E-1,1E0,1.03E2,1.558E3,3E0,6E0,6.5068E-2,1E0,3E0,1E1,1.835737E0,5.5244E-2,9.94E2,1E0,1.5E1,-1.4654899E-1,7.203733E-2,9.66E2,-1.4468668E-1,1.26E2,3.333333E5,2.54812E-1,8.74E2,1.6984569E-2,1.1744384E-1,6.1455975E1,1.558E3,2.52E2,6.8E1,9.675303E-2,1.7298922E-2,-3.1145742E-2,-1.5710597E-1,1.1811302E-1,1.2175091E-2,9.6380256E-2,-5.9418483E-3,3.6276241E-3,-8.3186164E-2,1.0154086E-1,-1.23078644E-1,-6.0745846E-3,5.183814E-2,9.5687225E-2,4.5436647E-2,1.3932288E-3,1.1808562E-1,-1.1185886E-1,-3.5563774E-2,-2.4232036E-2,9.406631E-2],"split_indices":[6,12,3,23,0,23,37,0,0,10,23,4,27,37,21,76,37,2,5,21,3,158,37,0,0,4,0,23,5,21,3,0,0,13,4,6,24,0,0,0,0,0,0,0,0,0,0,0,0,0,0,0,0,0,0,0,0,0,0],"split_type":[0,0,0,0,0,0,0,0,0,0,0,0,0,0,0,0,0,0,0,0,0,0,0,0,0,0,0,0,0,0,0,0,0,0,0,0,0,0,0,0,0,0,0,0,0,0,0,0,0,0,0,0,0,0,0,0,0,0,0],"sum_hessian":[2.4023482E4,7.465978E3,1.6557506E4,7.8699394E1,7.387279E3,8.010872E3,8.546633E3,4.3538506E1,3.5160885E1,7.035207E2,7.3073516E3,3.5370737E3,5.0095586E3,5.9565594E2,1.07864746E2,7.2651333E3,4.2218166E1,2.2181672E3,1.3189065E3,1.1553141E3,3.8542446E3,3.2420486E2,2.7145108E2,1.0662964E2,1.2351085E0,7.2628877E3,2.2457259E0,1.7638102E1,2.4580065E1,1.8114534E3,4.0671393E2,1.0447533E0,1.3178618E3,4.203487E2,7.3496545E2,2.193279E3,1.6609656E3,5.3273346E1,2.7093152E2,2.4899591E2,2.2455177E1,7.2618643E3,1.0234703E0,1.6196888E1,1.4412136E0,1.8886951E1,5.693112E0,1.8045599E3,6.893475E0,1.4925337E2,2.5746057E2,2.787428E2,1.416059E2,6.564601E2,7.850539E1,4.1951114E2,1.7737681E3,1.2964308E3,3.645348E2],"tree_param":{"num_deleted":"0","num_feature":"194","num_nodes":"59","size_leaf_vector":"1"}},{"base_weights":[1.2370166E-2,-1.4033607E0,6.456984E-1,-3.5498363E-1,-1.4146608E-1,1.0232843E0,3.1012195E-1,-1.3931917E-1,1.0082781E0,-2.2760698E-1,1.1518564E0,7.414623E-1,-2.5392607E-1,1.1419956E-1,-1.4794229E-1,-2.71768E-2,-1.3276064E0,1.1569525E0,3.4222397E-1,9.9216944E-1,4.214074E-1,8.824764E-1,-3.3490285E-1,5.265797E-1,-2.4809767E-1,-1.4009672E0,8.290314E-2,1.1579946E0,-1.345614E-1,6.692628E-1,-2.8285995E-1,8.8354075E-1,1.1553773E0,8.3211863E-1,1.4458627E-1,9.040088E-1,-1.7167895E-1,-9.618583E-1,-2.4879354E-1,5.6594547E-2,-2.1423797E-1,-6.779408E-2,-4.2552683E-3,-1.4075692E-1,-4.411721E-2,1.114546E-1,1.16614394E-1,3.2696985E-2,1.003912E-1,2.8339986E-2,-1.07426934E-1,1.0110054E-1,2.6214873E-2,1.554607E-2,1.1562015E-1,8.552857E-2,-9.8169245E-2,-5.768201E-4,6.91747E-2,9.771358E-2,5.8277454E-3,-1.23704426E-1,-4.382486E-4,-3.4874536E-2,8.5225746E-2],"categories":[],"categories_nodes":[],"categories_segments":[],"categories_sizes":[],"default_left":[0,0,0,0,0,0,0,0,0,0,0,0,0,0,0,0,0,0,0,0,0,0,0,0,0,0,0,0,0,0,0,0,0,0,0,0,0,0,0,0,0,0,0,0,0,0,0,0,0,0,0,0,0,0,0,0,0,0,0,0,0,0,0,0,0],"id":8,"left_children":[1,3,5,7,-1,9,11,-1,13,15,17,19,21,-1,-1,23,25,27,29,31,33,35,37,39,41,43,-1,45,-1,47,49,51,53,55,57,59,-1,61,63,-1,-1,-1,-1,-1,-1,-1,-1,-1,-1,-1,-1,-1,-1,-1,-1,-1,-1,-1,-1,-1,-1,-1,-1,-1,-1],"loss_changes":[2.0484188E4,8.3149414E1,1.9997397E3,1.0986838E2,0E0,1.1947417E3,2.0338229E3,0E0,1.2903297E1,1.5276573E2,2.7392578E1,3.7966187E2,3.3368085E2,0E0,0E0,7.197452E1,1.8058273E1,1.9010742E1,9.091412E0,4.605713E1,2.3663174E2,1.5054901E1,1.8237714E2,1.8841984E1,3.712053E1,3.5842896E-2,0E0,1.0693359E0,0E0,2.9806051E0,7.3225946E0,1.2634766E2,6.9189453E-1,3.606189E1,1.0244058E2,1.478183E1,0E0,1.0753137E2,3.2775528E2,0E0,0E0,0E0,0E0,0E0,0E0,0E0,0E0,0E0,0E0,0E0,0E0,0E0,0E0,0E0,0E0,0E0,0E0,0E0,0E0,0E0,0E0,0E0,0E0,0E0,0E0],"parents":[2147483647,0,0,1,1,2,2,3,3,5,5,6,6,8,8,9,9,10,10,11,11,12,12,15,15,16,16,17,17,18,18,19,19,20,20,21,21,22,22,23,23,24,24,25,25,27,27,29,29,30,30,31,31,32,32,33,33,34,34,35,35,37,37,38,38],"right_children":[2,4,6,8,-1,10,12,-1,14,16,18,20,22,-1,-1,24,26,28,30,32,34,36,38,40,42,44,-1,46,-1,48,50,52,54,56,58,60,-1,62,64,-1,-1,-1,-1,-1,-1,-1,-1,-1,-1,-1,-1,-1,-1,-1,-1,-1,-1,-1,-1,-1,-1,-1,-1,-1,-1],"split_conditions":[6.2E1,1E-3,2.58E2,4.7E1,-1.4146608E-1,5.3E1,3E0,-1.3931917E-1,1.08E-4,1.4E1,1.03E2,2E0,3E0,1.1419956E-1,-1.4794229E-1,3E0,1.390454E8,1E0,6E0,1.432E3,2E0,6E0,2.52E2,1E0,4.5E1,1.2642705E9,8.290314E-2,2E0,-1.345614E-1,1.15E2,1.3333333E8,1E1,1.835737E0,3.5437E-1,2E0,1.136E3,-1.7167895E-1,3E0,6.8E1,5.6594547E-2,-2.1423797E-1,-6.779408E-2,-4.2552683E-3,-1.4075692E-1,-4.411721E-2,1.114546E-1,1.16614394E-1,3.2696985E-2,1.003912E-1,2.8339986E-2,-1.07426934E-1,1.0110054E-1,2.6214873E-2,1.554607E-2,1.1562015E-1,8.552857E-2,-9.8169245E-2,-5.768201E-4,6.91747E-2,9.771358E-2,5.8277454E-3,-1.23704426E-1,-4.382486E-4,-3.4874536E-2,8.5225746E-2],"split_indices":[6,12,3,23,0,23,32,0,0,16,23,27,27,0,0,32,18,76,27,4,32,35,6,81,23,17,0,31,0,23,8,2,5,20,30,23,0,35,24,0,0,0,0,0,0,0,0,0,0,0,0,0,0,0,0,0,0,0,0,0,0,0,0,0,0],"split_type":[0,0,0,0,0,0,0,0,0,0,0,0,0,0,0,0,0,0,0,0,0,0,0,0,0,0,0,0,0,0,0,0,0,0,0,0,0,0,0,0,0,0,0,0,0,0,0,0,0,0,0,0,0,0,0,0,0,0,0,0,0,0,0,0,0],"sum_hessian":[2.2843934E4,7.0602837E3,1.578365E4,7.5633835E1,6.98465E3,7.4259873E3,8.357663E3,4.292321E1,3.271063E1,6.920633E2,6.7339243E3,4.7357856E3,3.6218774E3,3.1555424E1,1.1552048E0,5.86265E2,1.05798256E2,6.6913774E3,4.254667E1,2.6544148E3,2.0813708E3,2.402592E2,3.3816182E3,1.6679527E2,4.1946976E2,1.02656654E2,3.1416047E0,6.6891294E3,2.2481437E0,2.7886171E1,1.4660497E1,1.5975337E3,1.056881E3,8.3721466E2,1.2441562E3,2.3893208E2,1.3271129E0,4.0713428E2,2.974484E3,1.6514738E2,1.6478851E0,1.3495297E2,2.8451678E2,1.0149201E2,1.1646378E0,1.0782382E3,5.610891E3,1.4763009E1,1.3123163E1,8.920041E0,5.740456E0,1.3250934E3,2.724403E2,1.02666E0,1.0558544E3,8.271779E2,1.0036724E1,9.767454E2,2.6741074E2,2.1977376E2,1.9158335E1,3.1601666E2,9.1117615E1,2.727563E3,2.4692096E2],"tree_param":{"num_deleted":"0","num_feature":"194","num_nodes":"65","size_leaf_vector":"1"}},{"base_weights":[1.6087692E-2,-1.3491594E0,6.2162524E-1,-3.5217416E-1,-1.3599294E-1,9.973383E-1,3.0073103E-1,-1.3373753E-1,9.813145E-1,-2.0534919E-1,1.1321487E0,9.33902E-1,-9.424659E-2,1.1205091E-1,-1.3719605E-1,-2.7012441E-2,-1.290817E0,1.1378996E0,2.941613E-1,1.0735713E0,7.928493E-1,8.857822E-1,-1.675117E-1,1.8883543E-1,-4.8573533E-1,-1.3492598E-1,9.064583E-2,1.1392118E0,-1.3352524E-1,8.1493396E-1,-1.8411815E-1,1.0813305E0,-2.807881E-1,9.4335324E-1,5.090997E-1,9.639379E-1,5.8752906E-1,-3.7382975E-1,1.06831074E-1,7.733327E-2,7.814585E-3,-8.327519E-2,1.6769957E-2,1.0932783E-1,1.14780985E-1,-5.4506995E-3,9.214812E-2,5.8121968E-2,-4.3184362E-2,1.0975584E-1,7.025873E-2,-3.2681996E-1,1.0090002E-1,7.318378E-2,1.0759552E-1,9.15145E-2,1.6775226E-2,8.3805956E-2,1.0604959E-1,9.561709E-2,-4.4929594E-2,-2.7467439E-2,-1.4915542E-1,-1.392075E-2,9.0994544E-2],"categories":[],"categories_nodes":[],"categories_segments":[],"categories_sizes":[],"default_left":[0,0,0,0,0,0,0,0,0,0,0,0,0,0,0,0,0,0,0,0,0,0,0,0,0,0,0,0,0,0,0,0,0,0,0,0,0,0,0,0,0,0,0,0,0,0,0,0,0,0,0,0,0,0,0,0,0,0,0,0,0,0,0,0,0],"id":9,"left_children":[1,3,5,7,-1,9,11,-1,13,15,17,19,21,-1,-1,23,25,27,29,31,33,35,37,39,41,-1,-1,43,-1,45,47,49,51,53,55,57,59,61,63,-1,-1,-1,-1,-1,-1,-1,-1,-1,-1,-1,-1,-1,-1,-1,-1,-1,-1,-1,-1,-1,-1,-1,-1,-1,-1],"loss_changes":[1.785964E4,7.079492E1,1.8040044E3,9.6282196E1,0E0,1.1179072E3,2.0190624E3,0E0,1.1787407E1,1.3463045E2,2.9538574E1,6.025E1,3.5718918E2,0E0,0E0,5.9353527E1,1.3826172E1,2.1499023E1,1.1009628E1,1.6650513E1,6.558136E1,7.4999695E0,2.6196722E2,2.6318459E1,4.3629105E1,0E0,0E0,1.1748047E0,0E0,2.000865E0,4.7145557E0,8.73645E0,4.049917E1,2.752948E1,7.445662E1,2.424942E0,2.8870901E1,2.9233722E2,3.9277075E2,0E0,0E0,0E0,0E0,0E0,0E0,0E0,0E0,0E0,0E0,0E0,0E0,0E0,0E0,0E0,0E0,0E0,0E0,0E0,0E0,0E0,0E0,0E0,0E0,0E0,0E0],"parents":[2147483647,0,0,1,1,2,2,3,3,5,5,6,6,8,8,9,9,10,10,11,11,12,12,15,15,16,16,17,17,18,18,19,19,20,20,21,21,22,22,23,23,24,24,27,27,29,29,30,30,31,31,32,32,33,33,34,34,35,35,36,36,37,37,38,38],"right_children":[2,4,6,8,-1,10,12,-1,14,16,18,20,22,-1,-1,24,26,28,30,32,34,36,38,40,42,-1,-1,44,-1,46,48,50,52,54,56,58,60,62,64,-1,-1,-1,-1,-1,-1,-1,-1,-1,-1,-1,-1,-1,-1,-1,-1,-1,-1,-1,-1,-1,-1,-1,-1,-1,-1],"split_conditions":[6.2E1,1E-3,2.58E2,4.7E1,-1.3599294E-1,5.5E1,2E0,-1.3373753E-1,1.08E-4,1E0,1.03E2,1.1107E-1,2E0,1.1205091E-1,-1.3719605E-1,8E0,1.04774E-1,1E0,4E0,1E0,1E0,2.52E2,9.94E2,2E0,3E0,-1.3492598E-1,9.064583E-2,2E0,-1.3352524E-1,2E-3,1.08E2,3.5466666E8,5.7931525E2,8.74E2,5.8E1,1.829577E9,4.7483154E3,3E0,6.8E1,7.733327E-2,7.814585E-3,-8.327519E-2,1.6769957E-2,1.0932783E-1,1.14780985E-1,-5.4506995E-3,9.214812E-2,5.8121968E-2,-4.3184362E-2,1.0975584E-1,7.025873E-2,-3.2681996E-1,1.0090002E-1,7.318378E-2,1.0759552E-1,9.15145E-2,1.6775226E-2,8.3805956E-2,1.0604959E-1,9.561709E-2,-4.4929594E-2,-2.7467439E-2,-1.4915542E-1,-1.392075E-2,9.0994544E-2],"split_indices":[6,12,3,23,0,23,37,0,0,152,23,20,32,0,0,37,20,76,32,174,172,23,3,27,30,0,0,31,0,12,23,8,8,3,23,18,14,28,24,0,0,0,0,0,0,0,0,0,0,0,0,0,0,0,0,0,0,0,0,0,0,0,0,0,0],"split_type":[0,0,0,0,0,0,0,0,0,0,0,0,0,0,0,0,0,0,0,0,0,0,0,0,0,0,0,0,0,0,0,0,0,0,0,0,0,0,0,0,0,0,0,0,0,0,0,0,0,0,0,0,0,0,0,0,0,0,0,0,0,0,0,0,0],"sum_hessian":[2.16013E4,6.636776E3,1.4964525E4,7.128885E1,6.565487E3,6.892482E3,8.072044E3,4.0996853E1,3.0291998E1,6.9466144E2,6.1978203E3,3.100464E3,4.9715796E3,2.9094904E1,1.1970938E0,5.9751733E2,9.714412E1,6.1552207E3,4.2599674E1,1.5545497E3,1.5459143E3,3.450422E2,4.6265376E3,4.0672495E2,1.9079237E2,9.500319E1,2.140937E0,6.1524956E3,2.7248049E0,2.0056906E1,2.2542768E1,1.5458948E3,8.654899E0,1.0086113E3,5.37303E2,2.716308E2,7.341138E1,2.6404434E3,1.9860942E3,6.3806686E1,3.4291827E2,1.2443489E2,6.6357475E1,9.902773E2,5.1622188E3,2.2429044E0,1.7814001E1,5.183213E0,1.7359556E1,1.48056E3,6.5334694E1,2.1473339E0,6.5075645E0,3.9116977E2,6.174416E2,2.4462804E2,2.9267496E2,1.2211466E2,1.4951614E2,5.4213593E1,1.9197786E1,2.4264355E3,2.1400775E2,1.5209648E3,4.651294E2],"tree_param":{"num_deleted":"0","num_feature":"194","num_nodes":"65","size_leaf_vector":"1"}},{"base_weights":[1.2510727E-2,-1.3038185E0,5.876306E-1,-3.378583E-1,-1.3141304E-1,9.723937E-1,2.742322E-1,-1.2902586E-1,1.011411E0,-2.1921146E-1,1.1157434E0,8.961406E-1,-9.114621E-2,1.0958659E-1,3.894911E-1,-5.4093044E-2,-1.2724763E0,1.1214747E0,2.6247084E-1,7.7580404E-1,1.1091626E0,-2.1534747E-1,3.757566E-1,-5.218414E-4,7.163219E-2,8.955241E-1,-1.4216812E-1,-1.3035762E-1,6.6610634E-2,1.1224563E0,-1.1379484E-1,5.899529E-1,-3.5387063E-1,9.310175E-1,3.80089E-1,1.1135591E0,5.4215896E-1,9.9755234E-1,-2.617572E-1,1.2359691E0,2.1583892E-1,1.0581026E-1,-2.0954846E-1,2.4635226E-3,-4.527771E-2,1.12262405E-1,1.872114E-2,8.744662E-2,1.0687039E-2,-1.2768297E-1,-4.115484E-3,9.5308475E-2,-7.813436E-2,-2.031584E-2,6.493815E-2,1.114484E-1,2.3105353E-2,-1.01143435E-1,9.0395145E-2,1.04295745E-1,5.2077165E-3,-8.072032E-2,-1.7952953E-2,1.2780067E-1,-8.0058746E-2,-1.6053867E-1,3.5412148E-2],"categories":[],"categories_nodes":[],"categories_segments":[],"categories_sizes":[],"default_left":[0,0,0,0,0,0,0,0,0,0,0,0,0,0,0,0,0,0,0,0,0,0,0,0,0,0,0,0,0,0,0,0,0,0,0,0,0,0,0,0,0,0,0,0,0,0,0,0,0,0,0,0,0,0,0,0,0,0,0,0,0,0,0,0,0,0,0],"id":10,"left_children":[1,3,5,7,-1,9,11,-1,13,15,17,19,21,-1,23,25,27,29,31,33,35,37,39,-1,-1,41,43,-1,-1,45,-1,47,49,51,53,55,57,59,61,63,65,-1,-1,-1,-1,-1,-1,-1,-1,-1,-1,-1,-1,-1,-1,-1,-1,-1,-1,-1,-1,-1,-1,-1,-1,-1,-1],"loss_changes":[1.5430512E4,6.1289062E1,1.710209E3,8.7155846E1,0E0,1.0878472E3,1.776769E3,0E0,1.054596E0,1.1898268E2,2.75E1,7.331787E1,2.857461E2,0E0,6.3889545E-1,4.9709183E1,6.4588165E0,1.3797363E1,8.126251E0,1.1342468E2,1.9945068E0,2.193258E2,1.4216992E2,0E0,0E0,2.6751198E1,2.8163225E1,0E0,0E0,6.7529297E-1,0E0,3.4788055E0,4.056185E0,5.0996826E1,8.236828E1,5.858154E-1,6.5172453E0,6.1116333E0,1.6800333E2,1.4901199E1,2.2076135E2,0E0,0E0,0E0,0E0,0E0,0E0,0E0,0E0,0E0,0E0,0E0,0E0,0E0,0E0,0E0,0E0,0E0,0E0,0E0,0E0,0E0,0E0,0E0,0E0,0E0,0E0],"parents":[2147483647,0,0,1,1,2,2,3,3,5,5,6,6,8,8,9,9,10,10,11,11,12,12,14,14,15,15,16,16,17,17,18,18,19,19,20,20,21,21,22,22,25,25,26,26,29,29,31,31,32,32,33,33,34,34,35,35,36,36,37,37,38,38,39,39,40,40],"right_children":[2,4,6,8,-1,10,12,-1,14,16,18,20,22,-1,24,26,28,30,32,34,36,38,40,-1,-1,42,44,-1,-1,46,-1,48,50,52,54,56,58,60,62,64,66,-1,-1,-1,-1,-1,-1,-1,-1,-1,-1,-1,-1,-1,-1,-1,-1,-1,-1,-1,-1,-1,-1,-1,-1,-1,-1],"split_conditions":[6.2E1,1E-3,2.58E2,4.7E1,-1.3141304E-1,5.5E1,2E0,-1.2902586E-1,4E0,1E0,1.03E2,1.558E3,1.198105E0,1.0958659E-1,1E0,1E0,1.04774E-1,1E0,6E0,6.12E2,6E0,2E0,1E0,-5.218414E-4,7.163219E-2,1E0,8E0,-1.3035762E-1,6.6610634E-2,8.04E2,-1.1379484E-1,2E0,3E0,3.15733E-1,6.8E1,3E0,3.665867E1,2.32182E-1,2.52E2,3.4E1,2.68E2,1.0581026E-1,-2.0954846E-1,2.4635226E-3,-4.527771E-2,1.12262405E-1,1.872114E-2,8.744662E-2,1.0687039E-2,-1.2768297E-1,-4.115484E-3,9.5308475E-2,-7.813436E-2,-2.031584E-2,6.493815E-2,1.114484E-1,2.3105353E-2,-1.01143435E-1,9.0395145E-2,1.04295745E-1,5.2077165E-3,-8.072032E-2,-1.7952953E-2,1.2780067E-1,-8.0058746E-2,-1.6053867E-1,3.5412148E-2],"split_indices":[6,12,3,23,0,23,37,0,36,10,23,4,0,0,110,158,20,76,27,4,27,27,10,0,0,81,37,0,0,4,0,30,36,20,24,30,12,20,6,37,4,0,0,0,0,0,0,0,0,0,0,0,0,0,0,0,0,0,0,0,0,0,0,0,0,0,0],"split_type":[0,0,0,0,0,0,0,0,0,0,0,0,0,0,0,0,0,0,0,0,0,0,0,0,0,0,0,0,0,0,0,0,0,0,0,0,0,0,0,0,0,0,0,0,0,0,0,0,0,0,0,0,0,0,0,0,0,0,0,0,0,0,0,0,0,0,0],"sum_hessian":[2.0380486E4,6.196569E3,1.4183918E4,6.58077E1,6.130761E3,6.3660894E3,7.817829E3,3.8602985E1,2.7204714E1,6.8354474E2,5.6825444E3,2.8927107E3,4.925118E3,2.3281137E1,3.9235773E0,5.918179E2,9.172686E1,5.6443184E3,3.8226383E1,1.8514595E3,1.0412513E3,3.8906907E3,1.0344276E3,2.222964E0,1.7006131E0,4.9452972E1,5.423649E2,9.0600945E1,1.1259123E0,5.64237E3,1.9479313E0,2.4990788E1,1.3235596E1,1.3288749E3,5.225846E2,1.0322831E3,8.968287E0,1.4262961E2,3.748061E3,1.6110413E2,8.733234E2,4.751642E1,1.936552E0,3.5346677E2,1.8889816E2,5.6411577E3,1.2126478E0,1.5217942E1,9.772844E0,2.5693374E0,1.0666258E1,1.3124053E3,1.6469604E1,1.6514677E2,3.5743784E2,1.0309398E3,1.343181E0,1.3548273E0,7.61346E0,1.359955E2,6.634101E0,4.8985553E2,3.2582056E3,1.5821089E2,2.893242E0,6.0881744E1,8.124417E2],"tree_param":{"num_deleted":"0","num_feature":"194","num_nodes":"67","size_leaf_vector":"1"}},{"base_weights":[1.9649783E-2,-1.2657368E0,5.666304E-1,-3.3337438E-1,-1.2754105E-1,9.5458245E-1,2.6767656E-1,-1.2484036E-1,9.223062E-1,-1.722648E-1,1.1001252E0,8.785569E-1,-6.5259546E-2,1.0837245E-1,-1.293817E-1,-2.1043796E-2,-1.2243388E0,1.1068143E0,2.1910569E-1,9.8602265E-1,7.159471E-1,7.892877E-1,-1.23893134E-1,2.8211075E-1,-3.5985664E-1,-1.2635939E-1,7.00018E-2,1.1077037E-1,-1.028141E-1,3.4019318E-1,-1.4037456E-1,9.9762636E-1,-1.504402E0,6.26621E-1,1.0643896E0,9.051221E-1,3.8783193E-1,-4.4178434E-2,-6.4669013E-1,3.1468384E-2,-1.599289E-1,-5.072337E-2,3.7541747E-2,8.131965E-2,4.462329E-3,1.00711346E-1,-6.9891445E-2,-1.5946116E-1,-4.5764666E-2,9.482643E-2,4.569729E-2,1.11418724E-1,4.130982E-2,1.0632228E-1,8.0692194E-2,8.2507215E-2,-6.520086E-2,6.723668E-2,-1.46958595E-2,-8.532736E-2,-1.7857678E-3],"categories":[],"categories_nodes":[],"categories_segments":[],"categories_sizes":[],"default_left":[0,0,0,0,0,0,0,0,0,0,0,0,0,0,0,0,0,0,0,0,0,0,0,0,0,0,0,0,0,0,0,0,0,0,0,0,0,0,0,0,0,0,0,0,0,0,0,0,0,0,0,0,0,0,0,0,0,0,0,0,0],"id":11,"left_children":[1,3,5,7,-1,9,11,-1,13,15,17,19,21,-1,-1,23,25,27,29,31,33,35,37,39,41,-1,-1,-1,-1,43,-1,45,47,49,51,53,55,57,59,-1,-1,-1,-1,-1,-1,-1,-1,-1,-1,-1,-1,-1,-1,-1,-1,-1,-1,-1,-1,-1,-1],"loss_changes":[1.352674E4,5.1374023E1,1.5650171E3,7.0468506E1,0E0,9.634453E2,1.5506044E3,0E0,1.0705038E1,1.0699632E2,3.041211E1,4.629077E1,2.4738454E2,0E0,0E0,6.0616623E1,7.26931E0,1.094043E1,8.424737E0,4.8217773E1,3.2754517E1,1.4391388E1,1.9248013E2,1.9593397E1,3.038684E1,0E0,0E0,0E0,0E0,5.337723E0,0E0,2.6612305E1,1.5836716E-2,4.6335846E1,6.599457E0,2.950241E0,3.360982E1,2.953663E2,7.9368256E1,0E0,0E0,0E0,0E0,0E0,0E0,0E0,0E0,0E0,0E0,0E0,0E0,0E0,0E0,0E0,0E0,0E0,0E0,0E0,0E0,0E0,0E0],"parents":[2147483647,0,0,1,1,2,2,3,3,5,5,6,6,8,8,9,9,10,10,11,11,12,12,15,15,16,16,17,17,18,18,19,19,20,20,21,21,22,22,23,23,24,24,29,29,31,31,32,32,33,33,34,34,35,35,36,36,37,37,38,38],"right_children":[2,4,6,8,-1,10,12,-1,14,16,18,20,22,-1,-1,24,26,28,30,32,34,36,38,40,42,-1,-1,-1,-1,44,-1,46,48,50,52,54,56,58,60,-1,-1,-1,-1,-1,-1,-1,-1,-1,-1,-1,-1,-1,-1,-1,-1,-1,-1,-1,-1,-1,-1],"split_conditions":[6.2E1,1E-3,2.58E2,4.7E1,-1.2754105E-1,5.5E1,2E0,-1.2484036E-1,1.08E-4,1E0,1.03E2,9.3599304E1,2E0,1.0837245E-1,-1.293817E-1,5E0,3.9629E-2,1E0,3.7E1,2.33909E-1,1.8E1,2.52E2,1.1E1,1.1E1,4E0,-1.2635939E-1,7.00018E-2,1.1077037E-1,-1.028141E-1,3E0,-1.4037456E-1,1E0,2.040354E0,5.68E2,1.174E3,8.825589E1,4.7483154E3,1E0,1.08E3,3.1468384E-2,-1.599289E-1,-5.072337E-2,3.7541747E-2,8.131965E-2,4.462329E-3,1.00711346E-1,-6.9891445E-2,-1.5946116E-1,-4.5764666E-2,9.482643E-2,4.569729E-2,1.11418724E-1,4.130982E-2,1.0632228E-1,8.0692194E-2,8.2507215E-2,-6.520086E-2,6.723668E-2,-1.46958595E-2,-8.532736E-2,-1.7857678E-3],"split_indices":[6,12,3,23,0,23,37,0,0,10,23,13,32,0,0,32,22,76,27,22,2,23,27,37,30,0,0,0,0,32,0,174,0,3,23,13,14,10,3,0,0,0,0,0,0,0,0,0,0,0,0,0,0,0,0,0,0,0,0,0,0],"split_type":[0,0,0,0,0,0,0,0,0,0,0,0,0,0,0,0,0,0,0,0,0,0,0,0,0,0,0,0,0,0,0,0,0,0,0,0,0,0,0,0,0,0,0,0,0,0,0,0,0,0,0,0,0,0,0,0,0,0,0,0,0],"sum_hessian":[1.9237197E4,5.742111E3,1.3495086E4,5.9329018E1,5.6827817E3,5.8723516E3,7.622735E3,3.432314E1,2.5005878E1,6.7169006E2,5.2006616E3,2.6883806E3,4.934354E3,2.3784445E1,1.2214327E0,5.8816895E2,8.35211E1,5.161219E3,3.9442295E1,1.6155989E3,1.0727819E3,3.1602527E2,4.6183286E3,3.105078E2,2.7766113E2,8.218792E1,1.3331833E0,5.159551E3,1.668197E0,3.743918E1,2.0031154E0,1.6087028E3,6.896072E0,8.561095E2,2.166724E2,2.4428552E2,7.1739746E1,4.0082463E3,6.100823E2,3.06042E2,4.465832E0,2.3155817E2,4.610296E1,1.3724478E1,2.37147E1,1.600161E3,8.541706E0,5.8670635E0,1.0290086E0,2.9403882E2,5.620707E2,2.0062212E2,1.6050274E1,8.983139E1,1.5445413E2,5.0649E1,2.1090748E1,5.0211874E2,3.5061277E3,4.5895117E2,1.5113109E2],"tree_param":{"num_deleted":"0","num_feature":"194","num_nodes":"61","size_leaf_vector":"1"}},{"base_weights":[1.599243E-2,-1.23267E0,5.341985E-1,-2.888227E-1,-1.2423952E-1,9.374894E-1,2.3971674E-1,-1.2122466E-1,9.064338E-1,-1.3154717E-1,1.0868133E0,8.287194E-1,-6.124793E-2,1.0683908E-1,-1.21185616E-1,1.3220601E-2,-1.1641502E0,1.0929582E0,1.5433612E-1,9.8857516E-1,6.751359E-1,7.8812426E-1,-1.1631307E-1,8.676874E-1,-5.571031E-2,-1.2234426E0,8.225348E-2,1.0941377E0,-1.070086E-1,6.590621E-1,-5.2348924E-1,1.0252019E0,4.3561453E-1,5.2765435E-1,1.0846175E0,8.7393606E-1,2.5416613E-1,-6.03845E-1,-2.7211234E-2,1.1148914E-1,-2.1057825E-1,2.7909512E-3,-6.3496895E-2,-2.702014E-2,-1.23891614E-1,1.0354884E-1,1.1053175E-1,-1.8159932E-2,7.666194E-2,-7.728168E-2,6.219804E-2,1.0922086E-1,9.22462E-2,-2.6948324E-1,6.088686E-2,3.3594996E-2,7.992753E-2,1.0874327E-1,2.3511296E-2,9.060424E-2,2.9519513E-2,7.635286E-2,-8.125787E-2,-6.817965E-2,1.266783E-1,8.505073E-2,-1.0249497E-2],"categories":[],"categories_nodes":[],"categories_segments":[],"categories_sizes":[],"default_left":[0,0,0,0,0,0,0,0,0,0,0,0,0,0,0,0,0,0,0,0,0,0,0,0,0,0,0,0,0,0,0,0,0,0,0,0,0,0,0,0,0,0,0,0,0,0,0,0,0,0,0,0,0,0,0,0,0,0,0,0,0,0,0,0,0,0,0],"id":12,"left_children":[1,3,5,7,-1,9,11,-1,13,15,17,19,21,-1,-1,23,25,27,29,31,33,35,37,39,41,43,-1,45,-1,47,49,51,53,55,57,59,61,63,65,-1,-1,-1,-1,-1,-1,-1,-1,-1,-1,-1,-1,-1,-1,-1,-1,-1,-1,-1,-1,-1,-1,-1,-1,-1,-1,-1,-1],"loss_changes":[1.1814276E4,4.879541E1,1.5321907E3,6.2815956E1,0E0,8.6938086E2,1.3223055E3,0E0,9.85215E0,9.991313E1,2.7208984E1,6.126355E1,2.3102267E2,0E0,0E0,3.462728E1,1.0686775E1,1.3280762E1,1.1444765E1,2.454309E1,7.731128E1,1.35577545E1,2.0144798E2,3.460623E1,2.637747E1,8.482132E-1,0E0,1.9658203E0,0E0,1.8607502E0,4.5946918E0,6.9539795E0,4.4156715E1,4.92045E1,5.588074E-1,4.539337E0,2.401197E1,1.05354614E2,2.5925674E2,0E0,0E0,0E0,0E0,0E0,0E0,0E0,0E0,0E0,0E0,0E0,0E0,0E0,0E0,0E0,0E0,0E0,0E0,0E0,0E0,0E0,0E0,0E0,0E0,0E0,0E0,0E0,0E0],"parents":[2147483647,0,0,1,1,2,2,3,3,5,5,6,6,8,8,9,9,10,10,11,11,12,12,15,15,16,16,17,17,18,18,19,19,20,20,21,21,22,22,23,23,24,24,25,25,27,27,29,29,30,30,31,31,32,32,33,33,34,34,35,35,36,36,37,37,38,38],"right_children":[2,4,6,8,-1,10,12,-1,14,16,18,20,22,-1,-1,24,26,28,30,32,34,36,38,40,42,44,-1,46,-1,48,50,52,54,56,58,60,62,64,66,-1,-1,-1,-1,-1,-1,-1,-1,-1,-1,-1,-1,-1,-1,-1,-1,-1,-1,-1,-1,-1,-1,-1,-1,-1,-1,-1,-1],"split_conditions":[6.2E1,1E-3,2.58E2,4.7E1,-1.2423952E-1,5.5E1,2E0,-1.2122466E-1,2E0,1E0,1.08E2,1.1107E-1,2E0,1.0683908E-1,-1.21185616E-1,1E0,1.04774E-1,1E0,5E0,1E0,5E0,2.22237E-1,5.4E1,1E0,1.2E1,2E0,8.225348E-2,2E0,-1.070086E-1,2E-3,1.1E1,7.0236E-2,5.7931525E2,1E0,3.74217E5,2.8710678E2,1.41E2,1E0,3.189692E3,1.1148914E-1,-2.1057825E-1,2.7909512E-3,-6.3496895E-2,-2.702014E-2,-1.23891614E-1,1.0354884E-1,1.1053175E-1,-1.8159932E-2,7.666194E-2,-7.728168E-2,6.219804E-2,1.0922086E-1,9.22462E-2,-2.6948324E-1,6.088686E-2,3.3594996E-2,7.992753E-2,1.0874327E-1,2.3511296E-2,9.060424E-2,2.9519513E-2,7.635286E-2,-8.125787E-2,-6.817965E-2,1.266783E-1,8.505073E-2,-1.0249497E-2],"split_indices":[6,12,3,23,0,23,37,0,2,152,23,20,32,0,0,158,20,76,32,158,11,20,23,81,37,27,0,31,0,12,29,20,8,25,26,13,23,177,8,0,0,0,0,0,0,0,0,0,0,0,0,0,0,0,0,0,0,0,0,0,0,0,0,0,0,0,0],"split_type":[0,0,0,0,0,0,0,0,0,0,0,0,0,0,0,0,0,0,0,0,0,0,0,0,0,0,0,0,0,0,0,0,0,0,0,0,0,0,0,0,0,0,0,0,0,0,0,0,0,0,0,0,0,0,0,0,0,0,0,0,0,0,0,0,0,0,0],"sum_hessian":[1.8256252E4,5.353985E3,1.2902268E4,5.491696E1,5.299068E3,5.444237E3,7.4580303E3,3.0973463E1,2.3943499E1,6.672675E2,4.776969E3,2.5215261E3,4.936504E3,2.2703318E1,1.2401809E0,5.860871E2,8.118041E1,4.745525E3,3.1444407E1,1.2328695E3,1.2886566E3,2.997402E2,4.6367637E3,4.288592E1,5.432012E2,7.920086E1,1.9795572E0,4.7434326E3,2.092437E0,1.8039454E1,1.3404953E1,1.1554794E3,7.7390205E1,9.4910815E2,3.3954843E2,2.5769037E2,4.2049828E1,7.155832E2,3.9211807E3,4.0171272E1,2.714647E0,4.7550998E2,6.769119E1,1.5600047E0,7.7640854E1,7.744255E2,3.969007E3,1.968146E0,1.6071308E1,1.1275918E1,2.1290352E0,6.935302E2,4.6194916E2,3.2952707E0,7.409493E1,5.577187E2,3.913895E2,3.381477E2,1.4007124E0,2.4361026E2,1.4080115E1,2.8652653E1,1.3397175E1,6.875669E2,2.8016289E1,3.0894565E2,3.612235E3],"tree_param":{"num_deleted":"0","num_feature":"194","num_nodes":"67","size_leaf_vector":"1"}},{"base_weights":[1.5900677E-2,-1.2049539E0,5.068159E-1,-1.2083209E0,9.74497E-2,9.157095E-1,2.2349158E-1,-1.2114589E0,9.5809646E-2,-1.3750513E-1,1.0724034E0,8.035091E-1,-5.7859395E-2,-1.21429704E-1,9.436555E-2,-1.0788875E-2,-1.1606553E0,1.080621E0,1.4455657E-1,8.882338E-1,5.162252E-1,2.592205E-1,-1.9821315E-1,2.1505004E-1,-3.5415688E-1,-1.2009108E-1,6.52592E-2,1.0821114E0,-1.0849207E-1,7.125054E-1,-1.7005649E-1,9.630365E-1,7.301534E-1,8.057841E-1,9.399923E-2,7.4019533E-1,1.473176E-1,-2.9301986E-1,1.8856315E-1,2.5571859E-2,-1.1998123E-1,-6.687858E-2,1.4562003E-2,1.0184298E-1,1.0942445E-1,8.128994E-2,-9.719482E-3,-5.456006E-2,1.645926E-2,9.9935256E-2,3.74892E-2,9.420535E-2,5.6190994E-2,9.0294495E-2,2.5526777E-2,3.9102264E-2,-5.690527E-2,8.417951E-2,2.8195068E-2,2.232835E-3,6.391565E-2,-8.308038E-2,-2.1892825E-2,1.204675E-1,-4.711217E-3],"categories":[],"categories_nodes":[],"categories_segments":[],"categories_sizes":[],"default_left":[0,0,0,0,0,0,0,0,0,0,0,0,0,0,0,0,0,0,0,0,0,0,0,0,0,0,0,0,0,0,0,0,0,0,0,0,0,0,0,0,0,0,0,0,0,0,0,0,0,0,0,0,0,0,0,0,0,0,0,0,0,0,0,0,0],"id":13,"left_children":[1,3,5,7,-1,9,11,13,-1,15,17,19,21,-1,-1,23,25,27,29,31,33,35,37,39,41,-1,-1,43,-1,45,47,49,51,53,55,57,59,61,63,-1,-1,-1,-1,-1,-1,-1,-1,-1,-1,-1,-1,-1,-1,-1,-1,-1,-1,-1,-1,-1,-1,-1,-1,-1,-1],"loss_changes":[1.0311802E4,3.738672E1,1.4213909E3,3.465625E1,0E0,8.289751E2,1.1831372E3,3.1242188E1,0E0,8.442936E1,3.3178223E1,5.7181274E1,2.1734973E2,0E0,0E0,4.5094822E1,6.022087E0,1.515918E1,7.1853957E0,2.0905273E1,6.6154724E1,8.054921E1,1.2418503E2,2.049361E1,3.6375862E1,0E0,0E0,2.2319336E0,0E0,1.2402978E0,3.3886359E0,2.6052734E1,2.054364E1,1.6950745E1,4.3846703E1,1.2920059E1,7.479986E1,1.0816222E2,1.5979062E2,0E0,0E0,0E0,0E0,0E0,0E0,0E0,0E0,0E0,0E0,0E0,0E0,0E0,0E0,0E0,0E0,0E0,0E0,0E0,0E0,0E0,0E0,0E0,0E0,0E0,0E0],"parents":[2147483647,0,0,1,1,2,2,3,3,5,5,6,6,7,7,9,9,10,10,11,11,12,12,15,15,16,16,17,17,18,18,19,19,20,20,21,21,22,22,23,23,24,24,27,27,29,29,30,30,31,31,32,32,33,33,34,34,35,35,36,36,37,37,38,38],"right_children":[2,4,6,8,-1,10,12,14,-1,16,18,20,22,-1,-1,24,26,28,30,32,34,36,38,40,42,-1,-1,44,-1,46,48,50,52,54,56,58,60,62,64,-1,-1,-1,-1,-1,-1,-1,-1,-1,-1,-1,-1,-1,-1,-1,-1,-1,-1,-1,-1,-1,-1,-1,-1,-1,-1],"split_conditions":[6.2E1,1E0,2.58E2,1E0,9.74497E-2,5.5E1,2E0,1E0,9.5809646E-2,1E0,1.03E2,8.7019E-2,3E0,-1.21429704E-1,9.436555E-2,6E0,1.04774E-1,1E0,3E0,9.10884E1,1E0,2E0,1.013833E0,1.1E1,3E0,-1.2009108E-1,6.52592E-2,2E0,-1.0849207E-1,1.26E2,3E0,1E0,5.7E1,1E0,1.47E2,2.06953E-1,2E0,2.52E2,1E0,2.5571859E-2,-1.1998123E-1,-6.687858E-2,1.4562003E-2,1.0184298E-1,1.0942445E-1,8.128994E-2,-9.719482E-3,-5.456006E-2,1.645926E-2,9.9935256E-2,3.74892E-2,9.420535E-2,5.6190994E-2,9.0294495E-2,2.5526777E-2,3.9102264E-2,-5.690527E-2,8.417951E-2,2.8195068E-2,2.232835E-3,6.391565E-2,-8.308038E-2,-2.1892825E-2,1.204675E-1,-4.711217E-3],"split_indices":[6,149,3,150,0,23,37,110,0,10,23,21,32,0,0,32,20,76,32,13,172,32,0,37,30,0,0,31,0,23,29,158,23,175,23,20,30,6,10,0,0,0,0,0,0,0,0,0,0,0,0,0,0,0,0,0,0,0,0,0,0,0,0,0,0],"split_type":[0,0,0,0,0,0,0,0,0,0,0,0,0,0,0,0,0,0,0,0,0,0,0,0,0,0,0,0,0,0,0,0,0,0,0,0,0,0,0,0,0,0,0,0,0,0,0,0,0,0,0,0,0,0,0,0,0,0,0,0,0,0,0,0,0],"sum_hessian":[1.7203354E4,4.9333003E3,1.2270054E4,4.9261357E3,7.1648216E0,5.0212114E3,7.2488423E3,4.9194507E3,6.684997E0,6.503077E2,4.370904E3,2.3671016E3,4.8817407E3,4.9134165E3,6.034122E0,5.795424E2,7.0765274E1,4.332369E3,3.8534737E1,1.8263804E3,5.407211E2,1.497598E3,3.3841428E3,3.4982822E2,2.2971419E2,6.9558716E1,1.2065558E0,4.3298896E3,2.479474E0,1.32859125E1,2.5248825E1,1.2362856E3,5.900948E2,3.2021323E2,2.2050787E2,2.8160495E2,1.215993E3,2.7181191E3,6.660238E2,3.4085013E2,8.978073E0,1.4076134E2,8.895286E1,7.0653546E2,3.623354E3,1.1816806E1,1.4691064E0,1.1600428E1,1.36483965E1,1.1637297E3,7.255588E1,2.5912787E2,3.3096692E2,2.7163254E2,4.8580704E1,1.5257158E2,6.79363E1,2.2981458E2,5.1790375E1,9.7042725E2,2.4556581E2,3.278986E2,2.3902205E3,1.2461893E2,5.4140485E2],"tree_param":{"num_deleted":"0","num_feature":"194","num_nodes":"65","size_leaf_vector":"1"}},{"base_weights":[1.1699487E-2,-1.1800426E0,4.7675222E-1,-2.8916115E-1,-1.18951775E-1,8.960795E-1,2.0386243E-1,-1.1554287E-1,8.7025803E-1,-1.5212725E-1,1.0627921E0,5.527417E-1,-1.5339614E-1,1.0409214E-1,-1.073122E-1,-3.4166448E-2,-1.1033822E0,1.0703475E0,2.2813822E-1,3.950974E-1,1.0538908E0,-2.34079E-1,2.9987964E-1,7.786801E-1,-9.49057E-2,-1.1816531E-1,8.747416E-2,1.0711848E0,-8.312156E-2,3.5921136E-1,-1.4230388E-1,7.971095E-1,1.9052936E-1,1.0760047E0,8.711874E-1,7.433826E-1,-3.0509862E-1,-3.339182E-1,7.8387386E-1,1.0608008E-1,-1.9195369E-1,1.075634E-1,-1.2879483E-2,1.0022066E-1,1.0844185E-1,-3.0960357E-2,5.638206E-2,8.927976E-2,3.8497355E-2,-1.678881E-1,2.2127477E-2,1.0784127E-1,2.43964E-2,1.01194836E-1,-5.8605163E-3,1.106866E-1,-1.1685494E-2,-1.2778884E-1,-2.4849277E-2,-4.8426747E-2,7.848379E-2,3.6297765E-2,9.51299E-2],"categories":[],"categories_nodes":[],"categories_segments":[],"categories_sizes":[],"default_left":[0,0,0,0,0,0,0,0,0,0,0,0,0,0,0,0,0,0,0,0,0,0,0,0,0,0,0,0,0,0,0,0,0,0,0,0,0,0,0,0,0,0,0,0,0,0,0,0,0,0,0,0,0,0,0,0,0,0,0,0,0,0,0],"id":14,"left_children":[1,3,5,7,-1,9,11,-1,13,15,17,19,21,-1,-1,23,25,27,29,31,33,35,37,39,41,-1,-1,43,-1,45,-1,47,49,51,53,55,57,59,61,-1,-1,-1,-1,-1,-1,-1,-1,-1,-1,-1,-1,-1,-1,-1,-1,-1,-1,-1,-1,-1,-1,-1,-1],"loss_changes":[9.042274E3,3.8313477E1,1.3427256E3,5.0737503E1,0E0,8.0858496E2,8.863297E2,0E0,8.329189E0,7.129308E1,2.4927246E1,2.838075E2,1.285758E2,0E0,0E0,2.80472E1,1.1887161E1,7.1875E0,8.536005E0,2.2504578E2,2.53833E0,2.0733304E2,1.6326694E2,3.2106525E1,2.108684E1,0E0,0E0,2.522461E0,0E0,4.984766E0,0E0,3.6063538E1,1.0475622E2,1.2659302E0,1.2903381E1,6.3408493E1,1.5287769E2,3.9199394E1,2.090799E1,0E0,0E0,0E0,0E0,0E0,0E0,0E0,0E0,0E0,0E0,0E0,0E0,0E0,0E0,0E0,0E0,0E0,0E0,0E0,0E0,0E0,0E0,0E0,0E0],"parents":[2147483647,0,0,1,1,2,2,3,3,5,5,6,6,8,8,9,9,10,10,11,11,12,12,15,15,16,16,17,17,18,18,19,19,20,20,21,21,22,22,23,23,24,24,27,27,29,29,31,31,32,32,33,33,34,34,35,35,36,36,37,37,38,38],"right_children":[2,4,6,8,-1,10,12,-1,14,16,18,20,22,-1,-1,24,26,28,30,32,34,36,38,40,42,-1,-1,44,-1,46,-1,48,50,52,54,56,58,60,62,-1,-1,-1,-1,-1,-1,-1,-1,-1,-1,-1,-1,-1,-1,-1,-1,-1,-1,-1,-1,-1,-1,-1,-1],"split_conditions":[6.2E1,1E-3,2.58E2,4.7E1,-1.18951775E-1,5.5E1,3E0,-1.1554287E-1,2E0,1.4E1,1.03E2,1.558E3,6.8E1,1.0409214E-1,-1.073122E-1,1E0,1.04774E-1,1E0,3.4E1,1.00647E-1,6.3E1,1E0,8.74E2,1E0,1E0,-1.1816531E-1,8.747416E-2,2E0,-8.312156E-2,4E-3,-1.4230388E-1,1E0,3E0,6.6106134E2,9.95E2,5.56E2,2.52E2,3.8601743E2,1.022E3,1.0608008E-1,-1.9195369E-1,1.075634E-1,-1.2879483E-2,1.0022066E-1,1.0844185E-1,-3.0960357E-2,5.638206E-2,8.927976E-2,3.8497355E-2,-1.678881E-1,2.2127477E-2,1.0784127E-1,2.43964E-2,1.01194836E-1,-5.8605163E-3,1.106866E-1,-1.1685494E-2,-1.2778884E-1,-2.4849277E-2,-4.8426747E-2,7.848379E-2,3.6297765E-2,9.51299E-2],"split_indices":[6,12,3,23,0,23,32,0,1,16,23,4,24,0,0,158,20,76,32,20,6,172,3,81,188,0,0,31,0,12,0,158,2,13,23,4,6,15,3,0,0,0,0,0,0,0,0,0,0,0,0,0,0,0,0,0,0,0,0,0,0,0,0],"split_type":[0,0,0,0,0,0,0,0,0,0,0,0,0,0,0,0,0,0,0,0,0,0,0,0,0,0,0,0,0,0,0,0,0,0,0,0,0,0,0,0,0,0,0,0,0,0,0,0,0,0,0,0,0,0,0,0,0,0,0,0,0,0,0],"sum_hessian":[1.6313215E4,4.5785938E3,1.1734621E4,4.851574E1,4.530078E3,4.62519E3,7.1094316E3,2.777037E1,2.0745369E1,6.346856E2,3.9905042E3,3.5966206E3,3.5128108E3,1.9497515E1,1.2478535E0,5.655858E2,6.909981E1,3.954425E3,3.6079052E1,2.737337E3,8.592837E2,2.9824246E3,5.303865E2,3.850259E1,5.270832E2,6.685703E1,2.2427762E0,3.9531213E3,1.3037705E0,3.4150574E1,1.9284774E0,9.22185E2,1.8151519E3,7.621463E2,9.7137405E1,2.013754E2,2.781049E3,2.2978696E2,3.005995E2,3.540732E1,3.0952747E0,1.3965663E1,5.1311755E2,6.4868805E2,3.3044333E3,7.8799376E0,2.6270638E1,7.4747327E2,1.7471173E2,2.8502628E1,1.7866493E3,7.596518E2,2.4944937E0,8.428862E1,1.2848785E1,1.4135905E2,6.0016335E1,1.5174187E2,2.6293071E3,2.0306435E2,2.672261E1,8.64465E1,2.14153E2],"tree_param":{"num_deleted":"0","num_feature":"194","num_nodes":"63","size_leaf_vector":"1"}},{"base_weights":[1.2930789E-2,-1.1594975E0,4.5315793E-1,-1.1626694E0,9.2711896E-2,2.6894644E-1,1.0179129E0,-1.1658193E0,9.319618E-2,7.6503783E-1,7.136522E-2,2.0048467E-2,1.0797831E0,-1.16837695E-1,8.946222E-2,6.498145E-1,1.0449446E0,4.442693E-1,-1.3467869E-1,3.3903545E-1,-1.4008087E-1,1.0746415E0,1.2745531E-1,8.115232E-1,-6.481722E-2,7.0257074E-1,1.0510541E0,6.868349E-1,-1.4996964E-1,-1.284508E0,-5.488507E-2,1.4524E-1,1.2584121E0,1.0750615E-1,4.0936062E-1,9.0562224E-2,4.9939886E-2,1.2372121E-3,-1.4318208E-1,-4.146105E-2,1.0075146E-1,3.1286594E-2,1.05233036E-1,5.0418545E-2,1.0053221E-1,-2.7742818E-2,6.9446295E-2,-1.3661775E-1,-1.1919989E-1,-1.0113191E-2,9.929187E-2,2.6614428E-2,-1.6200331E-1,-1.0301838E-1,1.4200413E-1,-1.6690396E-2,7.896208E-2],"categories":[],"categories_nodes":[],"categories_segments":[],"categories_sizes":[],"default_left":[0,0,0,0,0,0,0,0,0,0,0,0,0,0,0,0,0,0,0,0,0,0,0,0,0,0,0,0,0,0,0,0,0,0,0,0,0,0,0,0,0,0,0,0,0,0,0,0,0,0,0,0,0,0,0,0,0],"id":15,"left_children":[1,3,5,7,-1,9,11,13,-1,15,17,19,21,-1,-1,23,25,27,29,31,-1,33,-1,35,37,39,41,43,45,47,49,51,53,-1,55,-1,-1,-1,-1,-1,-1,-1,-1,-1,-1,-1,-1,-1,-1,-1,-1,-1,-1,-1,-1,-1,-1],"loss_changes":[7.9586304E3,2.89375E1,1.1659873E3,2.8819336E1,0E0,8.286391E2,1.701831E2,2.3165527E1,0E0,7.6983765E1,4.647141E2,7.3886765E1,1.2297363E0,0E0,0E0,1.9748608E2,7.269287E-1,3.1036627E2,3.5738147E2,2.3528526E1,0E0,2.685547E-1,0E0,4.0469116E1,3.3380833E1,5.6294236E0,3.1732178E-1,8.84212E1,6.743615E1,2.8128052E-1,1.7668958E2,2.4131088E1,9.984791E0,0E0,8.3624554E-1,0E0,0E0,0E0,0E0,0E0,0E0,0E0,0E0,0E0,0E0,0E0,0E0,0E0,0E0,0E0,0E0,0E0,0E0,0E0,0E0,0E0,0E0],"parents":[2147483647,0,0,1,1,2,2,3,3,5,5,6,6,7,7,9,9,10,10,11,11,12,12,15,15,16,16,17,17,18,18,19,19,21,21,23,23,24,24,25,25,26,26,27,27,28,28,29,29,30,30,31,31,32,32,34,34],"right_children":[2,4,6,8,-1,10,12,14,-1,16,18,20,22,-1,-1,24,26,28,30,32,-1,34,-1,36,38,40,42,44,46,48,50,52,54,-1,56,-1,-1,-1,-1,-1,-1,-1,-1,-1,-1,-1,-1,-1,-1,-1,-1,-1,-1,-1,-1,-1,-1],"split_conditions":[6.2E1,1E0,3E0,1E0,9.2711896E-2,2E0,2E0,1E0,9.319618E-2,1.558E3,1E0,6.94381E1,4E0,-1.16837695E-1,8.946222E-2,1E1,4.9E1,8E0,6E0,1.34E2,-1.4008087E-1,5.95855E-1,1.2745531E-1,1.8898709E2,1E1,5.4E1,5.7931525E2,2E0,2E0,1.6790035E1,1.558E3,1.27E2,3E0,1.0750615E-1,1.52E8,9.0562224E-2,4.9939886E-2,1.2372121E-3,-1.4318208E-1,-4.146105E-2,1.0075146E-1,3.1286594E-2,1.05233036E-1,5.0418545E-2,1.0053221E-1,-2.7742818E-2,6.9446295E-2,-1.3661775E-1,-1.1919989E-1,-1.0113191E-2,9.929187E-2,2.6614428E-2,-1.6200331E-1,-1.0301838E-1,1.4200413E-1,-1.6690396E-2,7.896208E-2],"split_indices":[6,150,31,149,0,37,28,110,0,4,10,5,1,0,0,2,24,37,2,26,0,14,0,15,36,2,8,31,31,5,4,26,37,0,8,0,0,0,0,0,0,0,0,0,0,0,0,0,0,0,0,0,0,0,0,0,0],"split_type":[0,0,0,0,0,0,0,0,0,0,0,0,0,0,0,0,0,0,0,0,0,0,0,0,0,0,0,0,0,0,0,0,0,0,0,0,0,0,0,0,0,0,0,0,0,0,0,0,0,0,0,0,0,0,0,0,0],"sum_hessian":[1.5417658E4,4.208309E3,1.120935E4,4.202364E3,5.945256E0,8.453475E3,2.7558743E3,4.1964966E3,5.867247E0,2.4070151E3,6.04646E3,1.6097304E2,2.5949011E3,4.191726E3,4.7701573E0,1.7074618E3,6.995534E2,2.151485E3,3.8949746E3,1.3208167E2,2.889137E1,2.534511E3,6.0390274E1,1.392278E3,3.1518384E2,1.4298036E1,6.852554E2,1.5277208E3,6.2376434E2,2.517759E2,3.6431987E3,1.1004356E2,2.2038113E1,2.5322961E3,2.214774E0,1.0683047E3,3.2397333E2,2.9927585E2,1.5907987E1,2.9887886E0,1.1309247E1,1.6075201E0,6.836478E2,9.725535E2,5.5516724E2,5.4254425E2,8.122009E1,1.26409904E2,1.2536599E2,3.4900618E3,1.531371E2,1.03784546E2,6.259013E0,1.0992657E0,2.0938847E1,1.1035224E0,1.1112515E0],"tree_param":{"num_deleted":"0","num_feature":"194","num_nodes":"57","size_leaf_vector":"1"}},{"base_weights":[9.487023E-3,3.245982E-1,-9.627437E-1,3.970073E-2,8.0223995E-1,-1.14978746E-1,1.0202452E0,5.537025E-1,-1.5355454E-1,-9.9436566E-2,9.4537205E-1,1.0389735E0,-1.1012483E0,-1.0412606E0,6.128772E-1,-6.419031E-1,-3.5297565E-2,-1.9721458E-2,-1.1236461E-1,1.0562315E0,1.7885509E-1,1.0601263E0,2.2746326E-1,1.179041E-2,-1.7929159E-1,-1.13819554E-1,7.63784E-2,6.625133E-1,-2.978071E-1,-7.2877795E-1,3.817351E-1,9.8102176E-1,-1.0239272E-1,4.116573E-2,-1.1315694E0,1.057296E0,-8.341658E-2,4.307281E-1,-4.2812482E-1,1.2057987E-2,1.0631193E0,-1.5709702E0,1.0453192E-1,5.6619167E-2,1.0140034E-1,-1.13002196E-1,9.7506784E-2,-7.761296E-2,9.782412E-2,5.130282E-2,-9.952415E-2,1.0279872E-1,-8.5855186E-2,7.6599843E-3,-3.84445E-2,-2.6797482E-3,8.4313504E-2,-1.5951343E-1,-8.271839E-3,1.00063995E-1,1.0678884E-1,3.797561E-2,1.2075921E-1,3.970384E-2,-6.669632E-2,1.0661607E-1,1.8064419E-2,-2.8709928E-2,-2.0673993E-1],"categories":[],"categories_nodes":[],"categories_segments":[],"categories_sizes":[],"default_left":[0,0,0,0,0,0,0,0,0,0,0,0,0,0,0,0,0,0,0,0,0,0,0,0,0,0,0,0,0,0,0,0,0,0,0,0,0,0,0,0,0,0,0,0,0,0,0,0,0,0,0,0,0,0,0,0,0,0,0,0,0,0,0,0,0,0,0,0,0],"id":16,"left_children":[1,3,5,7,9,-1,11,13,15,17,19,21,23,25,27,29,31,33,-1,35,37,39,41,-1,-1,-1,-1,43,45,47,49,51,53,55,57,59,-1,61,63,-1,65,67,-1,-1,-1,-1,-1,-1,-1,-1,-1,-1,-1,-1,-1,-1,-1,-1,-1,-1,-1,-1,-1,-1,-1,-1,-1,-1,-1],"loss_changes":[4.473945E3,1.500768E3,1.327013E3,6.86417E2,5.31885E2,0E0,1.3406891E1,1.7884705E2,2.900121E2,4.6139175E1,3.019961E2,5.0193787E0,2.8981686E0,1.2753021E1,8.2523315E1,8.734018E1,2.7587347E2,3.5627037E1,0E0,7.133301E0,6.906285E1,7.1084595E-1,1.4965619E1,0E0,0E0,0E0,0E0,5.7909973E1,1.0155078E2,7.373013E1,1.4475314E1,2.2529007E1,1.9160242E2,2.723441E1,1.3152664E1,7.95166E-1,0E0,1.2169544E1,2.640324E1,0E0,6.0543823E-1,1.4658432E0,0E0,0E0,0E0,0E0,0E0,0E0,0E0,0E0,0E0,0E0,0E0,0E0,0E0,0E0,0E0,0E0,0E0,0E0,0E0,0E0,0E0,0E0,0E0,0E0,0E0,0E0,0E0],"parents":[2147483647,0,0,1,1,2,2,3,3,4,4,6,6,7,7,8,8,9,9,10,10,11,11,12,12,13,13,14,14,15,15,16,16,17,17,19,19,20,20,21,21,22,22,27,27,28,28,29,29,30,30,31,31,32,32,33,33,34,34,35,35,37,37,38,38,40,40,41,41],"right_children":[2,4,6,8,10,-1,12,14,16,18,20,22,24,26,28,30,32,34,-1,36,38,40,42,-1,-1,-1,-1,44,46,48,50,52,54,56,58,60,-1,62,64,-1,66,68,-1,-1,-1,-1,-1,-1,-1,-1,-1,-1,-1,-1,-1,-1,-1,-1,-1,-1,-1,-1,-1,-1,-1,-1,-1,-1,-1],"split_conditions":[4.7417605E4,1.1111111E5,6E1,2E0,5.5E1,-1.14978746E-1,9.95E2,3.58616E-1,5.4E1,1E0,1.03E2,6E0,5.054772E0,1.94E2,4E1,8.340188E3,4.86E2,1.5E1,-1.1236461E-1,1E0,2E1,2.3205E-2,3.8094E-2,1.179041E-2,-1.7929159E-1,-1.13819554E-1,7.63784E-2,1.558E3,3.1E1,1E0,1E1,3.9288113E1,5E0,4E0,1.6E1,2E0,-8.341658E-2,2E0,1.064E3,1.2057987E-2,3.6E1,5.5E1,1.0453192E-1,5.6619167E-2,1.0140034E-1,-1.13002196E-1,9.7506784E-2,-7.761296E-2,9.782412E-2,5.130282E-2,-9.952415E-2,1.0279872E-1,-8.5855186E-2,7.6599843E-3,-3.84445E-2,-2.6797482E-3,8.4313504E-2,-1.5951343E-1,-8.271839E-3,1.00063995E-1,1.0678884E-1,3.797561E-2,1.2075921E-1,3.970384E-2,-6.669632E-2,1.0661607E-1,1.8064419E-2,-2.8709928E-2,-2.0673993E-1],"split_indices":[9,5,7,37,23,0,23,5,23,10,23,27,0,3,2,14,3,37,0,76,37,0,21,0,0,0,0,4,7,177,27,0,37,30,27,31,0,31,3,0,36,23,0,0,0,0,0,0,0,0,0,0,0,0,0,0,0,0,0,0,0,0,0,0,0,0,0,0,0],"split_type":[0,0,0,0,0,0,0,0,0,0,0,0,0,0,0,0,0,0,0,0,0,0,0,0,0,0,0,0,0,0,0,0,0,0,0,0,0,0,0,0,0,0,0,0,0,0,0,0,0,0,0,0,0,0,0,0,0,0,0,0,0,0,0,0,0,0,0,0,0],"sum_hessian":[1.4601497E4,1.10278955E4,3.5736018E3,6.908367E3,4.119529E3,3.265963E3,3.0763895E2,1.8871753E3,5.021192E3,5.6439105E2,3.5551377E3,3.0545273E2,2.1862233E0,6.691765E1,1.8202577E3,9.780118E2,4.04318E3,5.2458167E2,3.9809383E1,3.1056038E3,4.4953384E2,2.9739444E2,8.058278E0,1.0916272E0,1.094596E0,6.385778E1,3.0598729E0,1.7264324E3,9.382528E1,9.0176794E2,7.624385E1,2.4954794E2,3.793632E3,4.9825888E2,2.6322756E1,3.1042966E3,1.3072683E0,3.1790573E2,1.3162811E2,1.0754337E0,2.9631903E2,2.2311738E0,5.8271046E0,1.3571364E3,3.6929608E2,5.6800762E1,3.7024517E1,8.779592E2,2.380869E1,7.0179726E1,6.064132E0,2.4376564E2,5.782305E0,2.3212668E3,1.4723654E3,4.6022363E2,3.803525E1,1.7893467E1,8.429288E0,5.039976E2,2.6002988E3,2.997286E2,1.817712E1,2.939812E1,1.02229996E2,2.9509384E2,1.2251695E0,1.0622637E0,1.16891E0],"tree_param":{"num_deleted":"0","num_feature":"194","num_nodes":"69","size_leaf_vector":"1"}},{"base_weights":[1.5636375E-2,-1.1253275E0,4.0854585E-1,-2.703749E-1,-1.13454215E-1,8.425299E-1,1.6854149E-1,8.5478437E-1,-1.0944811E-1,-7.675175E-2,1.020705E0,6.97137E-1,-3.8474858E-2,9.471775E-2,2.9983327E-1,-3.7990054E-3,-1.1089504E-1,1.0328012E0,-6.1660045E-1,5.5278933E-1,1.0154076E0,-7.024228E-2,9.3541604E-1,-2.194569E-4,5.621952E-2,1.7454755E-1,-2.5689152E-1,1.0350021E0,-1.315917E-1,-8.2674545E-1,6.933637E-2,7.371999E-1,-4.563134E-2,1.0356241E0,8.002719E-1,-7.344123E-1,6.385793E-3,9.7711635E-1,-1.0534853E0,2.1051837E-2,-1.0391825E-1,-4.334717E-2,4.734536E-2,1.0014285E-1,1.0603207E-1,-1.0407882E-1,1.4695071E-2,9.0202205E-2,4.9245354E-2,-4.1926067E-2,2.3015123E-2,1.0390741E-1,4.1177433E-2,9.848179E-2,-1.6333116E-2,-9.725269E-2,1.2132525E-2,-7.89888E-3,7.776957E-2,1.0563927E-1,2.0450188E-2,6.870412E-2,-2.2265382E-1],"categories":[],"categories_nodes":[],"categories_segments":[],"categories_sizes":[],"default_left":[0,0,0,0,0,0,0,0,0,0,0,0,0,0,0,0,0,0,0,0,0,0,0,0,0,0,0,0,0,0,0,0,0,0,0,0,0,0,0,0,0,0,0,0,0,0,0,0,0,0,0,0,0,0,0,0,0,0,0,0,0,0,0],"id":17,"left_children":[1,3,5,7,-1,9,11,13,-1,15,17,19,21,-1,23,25,-1,27,29,31,33,35,37,-1,-1,39,41,43,-1,45,-1,47,49,51,53,55,57,59,61,-1,-1,-1,-1,-1,-1,-1,-1,-1,-1,-1,-1,-1,-1,-1,-1,-1,-1,-1,-1,-1,-1,-1,-1],"loss_changes":[6.2271196E3,2.7725098E1,1.0760676E3,3.7333466E1,0E0,6.026892E2,7.2820056E2,5.957079E-1,0E0,4.504441E1,6.167285E1,8.5474915E1,1.4803102E2,0E0,3.112178E-1,2.531112E1,0E0,1.7178955E1,6.9673023E0,1.4245676E2,1.7073975E0,2.357711E2,1.356517E1,0E0,0E0,1.4580813E1,3.009835E1,1.5368652E0,0E0,4.419654E0,0E0,3.9355896E1,3.1520142E1,7.1209717E-1,9.851013E0,9.776013E1,2.7362317E2,8.883392E0,8.849615E0,0E0,0E0,0E0,0E0,0E0,0E0,0E0,0E0,0E0,0E0,0E0,0E0,0E0,0E0,0E0,0E0,0E0,0E0,0E0,0E0,0E0,0E0,0E0,0E0],"parents":[2147483647,0,0,1,1,2,2,3,3,5,5,6,6,7,7,9,9,10,10,11,11,12,12,14,14,15,15,17,17,18,18,19,19,20,20,21,21,22,22,25,25,26,26,27,27,29,29,31,31,32,32,33,33,34,34,35,35,36,36,37,37,38,38],"right_children":[2,4,6,8,-1,10,12,14,-1,16,18,20,22,-1,24,26,-1,28,30,32,34,36,38,-1,-1,40,42,44,-1,46,-1,48,50,52,54,56,58,60,62,-1,-1,-1,-1,-1,-1,-1,-1,-1,-1,-1,-1,-1,-1,-1,-1,-1,-1,-1,-1,-1,-1,-1,-1],"split_conditions":[6.2E1,1E-3,2.58E2,1E0,-1.13454215E-1,1.14E2,2E0,4E0,-1.0944811E-1,1E0,4E0,1.558E3,1.558E3,9.471775E-2,1E0,6E0,-1.1089504E-1,1E0,4.4E1,1E1,6.3E1,2.52E2,2E1,-2.194569E-4,5.621952E-2,1.1E1,4E0,1E0,-1.315917E-1,1.94E2,6.933637E-2,1.22362E-1,9.48E2,6E0,3.2E1,2E0,6.8E1,6E0,2.43331E0,2.1051837E-2,-1.0391825E-1,-4.334717E-2,4.734536E-2,1.0014285E-1,1.0603207E-1,-1.0407882E-1,1.4695071E-2,9.0202205E-2,4.9245354E-2,-4.1926067E-2,2.3015123E-2,1.0390741E-1,4.1177433E-2,9.848179E-2,-1.6333116E-2,-9.725269E-2,1.2132525E-2,-7.89888E-3,7.776957E-2,1.0563927E-1,2.0450188E-2,6.870412E-2,-2.2265382E-1],"split_indices":[6,12,3,45,0,3,37,36,0,10,1,4,4,0,149,32,0,76,24,2,6,6,36,0,0,37,30,174,0,3,0,20,3,27,10,35,24,27,0,0,0,0,0,0,0,0,0,0,0,0,0,0,0,0,0,0,0,0,0,0,0,0,0],"split_type":[0,0,0,0,0,0,0,0,0,0,0,0,0,0,0,0,0,0,0,0,0,0,0,0,0,0,0,0,0,0,0,0,0,0,0,0,0,0,0,0,0,0,0,0,0,0,0,0,0,0,0,0,0,0,0,0,0,0,0,0,0,0,0],"sum_hessian":[1.3888632E4,3.5571665E3,1.0331466E4,3.8253586E1,3.5189128E3,3.6780964E3,6.653369E3,1.6157028E1,2.2096556E1,5.972415E2,3.080855E3,1.8717291E3,4.78164E3,1.3245093E1,2.9119349E0,5.5875415E2,3.848741E1,3.0586277E3,2.2227306E1,1.2895891E3,5.821401E2,4.6314927E3,1.5014714E2,1.8146116E0,1.0973234E0,3.2796063E2,2.307935E2,3.0563228E3,2.3048227E0,1.9472414E1,2.754893E0,9.856249E2,3.039642E2,5.286486E2,5.349147E1,4.7819318E2,4.1533E3,1.47562E2,2.5851424E0,3.1932352E2,8.637108E0,1.8618489E2,4.4608616E1,1.3313895E3,1.7249333E3,1.5906797E1,3.5656164E0,5.873763E2,3.982486E2,1.2886206E2,1.7510214E2,5.250793E2,3.5693343E0,4.4875126E1,8.616345E0,3.7399118E2,1.04201996E2,3.7402026E3,4.1309717E2,1.3349686E2,1.4065134E1,1.2076283E0,1.3775141E0],"tree_param":{"num_deleted":"0","num_feature":"194","num_nodes":"63","size_leaf_vector":"1"}},{"base_weights":[6.1280807E-3,-1.0914015E0,3.4860718E-1,-1.1092932E0,1.0354691E-1,1.7236915E-1,1.0114723E0,-1.1125606E0,9.061038E-2,6.430681E-1,1.2433007E-2,1.0603783E0,2.0320351E-1,-1.1136312E0,6.945375E-2,-1.0511962E0,6.8596524E-1,-4.1440673E-2,1.0543572E-1,-1.4528905E-2,1.0616877E0,-9.7040415E-1,4.3709156E-1,-1.4609699E0,-1.1085448E0,-1.0949381E-1,5.3785425E-2,8.712839E-1,4.497339E-1,-1.1070515E0,-1.03156725E-2,1.0627123E0,-1.3869703E-2,7.839106E-1,-1.412727E0,1.1350732E0,-5.696184E-2,-1.21760905E-1,-3.2122883E-1,-6.3172415E-2,-1.1117988E-1,8.774405E-2,-2.1176784E-1,2.974216E-2,1.006968E-1,-1.1192045E-1,3.124011E-2,2.9334247E-3,-8.888742E-2,1.05436824E-1,1.2832102E-1,-2.3682844E-3,1.0839806E-1,-1.1460819E-2,-1.8021451E-1,1.5562502E-1,1.3954501E-2,3.8207747E-2,-8.5536346E-2],"categories":[],"categories_nodes":[],"categories_segments":[],"categories_sizes":[],"default_left":[0,0,0,0,0,0,0,0,0,0,0,0,0,0,0,0,0,0,0,0,0,0,0,0,0,0,0,0,0,0,0,0,0,0,0,0,0,0,0,0,0,0,0,0,0,0,0,0,0,0,0,0,0,0,0,0,0,0,0],"id":18,"left_children":[1,3,5,7,-1,9,11,13,-1,15,17,19,21,23,-1,25,27,29,-1,-1,31,33,35,37,39,-1,-1,41,43,45,47,49,-1,51,53,55,57,-1,-1,-1,-1,-1,-1,-1,-1,-1,-1,-1,-1,-1,-1,-1,-1,-1,-1,-1,-1,-1,-1],"loss_changes":[4.9602266E3,1.2057861E2,1.1747953E3,2.1506348E1,0E0,5.9822076E2,8.3279785E1,6.786865E0,0E0,1.4719202E2,3.3303275E2,3.2978516E0,3.384385E1,3.8693848E0,0E0,4.0754776E0,8.568231E1,1.8710202E2,0E0,0E0,2.5942383E0,1.7047688E1,3.5310238E1,1.385849E1,4.0546875E0,0E0,0E0,2.211383E1,7.32359E1,3.111374E0,1.9100548E2,2.3044434E0,0E0,1.1839323E0,8.2671585E0,1.7564785E1,2.1638712E1,0E0,0E0,0E0,0E0,0E0,0E0,0E0,0E0,0E0,0E0,0E0,0E0,0E0,0E0,0E0,0E0,0E0,0E0,0E0,0E0,0E0,0E0],"parents":[2147483647,0,0,1,1,2,2,3,3,5,5,6,6,7,7,9,9,10,10,11,11,12,12,13,13,15,15,16,16,17,17,20,20,21,21,22,22,23,23,24,24,27,27,28,28,29,29,30,30,31,31,33,33,34,34,35,35,36,36],"right_children":[2,4,6,8,-1,10,12,14,-1,16,18,20,22,24,-1,26,28,30,-1,-1,32,34,36,38,40,-1,-1,42,44,46,48,50,-1,52,54,56,58,-1,-1,-1,-1,-1,-1,-1,-1,-1,-1,-1,-1,-1,-1,-1,-1,-1,-1,-1,-1,-1,-1],"split_conditions":[1E0,1E0,3E0,5.58241E1,1.0354691E-1,2E0,3.7834144E8,1E0,9.061038E-2,1.8694307E2,1E0,1E-6,9.6805E-2,2E0,6.945375E-2,3E0,6.0443E-2,1E-6,1.0543572E-1,-1.4528905E-2,2.60437E-1,5E0,1.48385E-1,1.3092531E1,5.3E1,-1.0949381E-1,5.3785425E-2,1E0,5E0,3E0,3E0,5.95855E-1,-1.3869703E-2,1.6962487E9,2.4561E-2,5.9E1,6.694637E3,-1.21760905E-1,-3.2122883E-1,-6.3172415E-2,-1.1117988E-1,8.774405E-2,-2.1176784E-1,2.974216E-2,1.006968E-1,-1.1192045E-1,3.124011E-2,2.9334247E-3,-8.888742E-2,1.05436824E-1,1.2832102E-1,-2.3682844E-3,1.0839806E-1,-1.1460819E-2,-1.8021451E-1,1.5562502E-1,1.3954501E-2,3.8207747E-2,-8.5536346E-2],"split_indices":[28,136,31,0,0,37,17,173,0,8,159,0,20,2,0,36,21,0,0,0,20,32,20,14,24,0,0,81,11,29,28,14,0,17,21,24,8,0,0,0,0,0,0,0,0,0,0,0,0,0,0,0,0,0,0,0,0,0,0],"split_type":[0,0,0,0,0,0,0,0,0,0,0,0,0,0,0,0,0,0,0,0,0,0,0,0,0,0,0,0,0,0,0,0,0,0,0,0,0,0,0,0,0,0,0,0,0,0,0,0,0,0,0,0,0,0,0,0,0,0,0],"sum_hessian":[1.3194259E4,3.1374873E3,1.0056771E4,3.1117886E3,2.569863E1,7.945529E3,2.1112422E3,3.107199E3,4.589525E0,2.0143094E3,5.9312197E3,1.9904916E3,1.20750694E2,3.105743E3,1.4562546E0,4.9160572E1,1.9651488E3,5.640531E3,2.906888E2,2.0399497E0,1.9884517E3,1.9542246E1,1.0120844E2,4.0693333E1,3.0650496E3,4.81462E1,1.0143703E0,1.0997383E3,8.654106E2,1.5909538E2,5.4814355E3,1.9868704E3,1.5812967E0,3.779592E0,1.5762654E1,4.1409317E1,5.9799126E1,3.7216965E1,3.476368E0,2.2097942E1,3.0429517E3,1.0981826E3,1.5555791E0,6.808448E2,1.8456583E2,1.5795454E2,1.1408496E0,5.2456616E3,2.3577351E2,1.9199958E3,6.687452E1,1.2734277E0,2.5061643E0,3.9360843E0,1.182657E1,2.8702812E1,1.2706506E1,3.8919067E1,2.0880062E1],"tree_param":{"num_deleted":"0","num_feature":"194","num_nodes":"59","size_leaf_vector":"1"}},{"base_weights":[1.4541943E-2,-1.0980723E0,3.6102787E-1,-2.4885385E-1,-1.1074352E-1,2.0473512E-1,9.713326E-1,-1.05914675E-1,8.2564545E-1,7.2671366E-1,6.747518E-2,5.5508412E-2,1.0530587E0,3.0231512E-1,9.671612E-2,6.118017E-1,1.0027777E0,2.2801444E-2,1.0481819E-1,-1.011328E0,4.8477694E-1,1.0480077E0,1.19422875E-1,5.7754375E-2,-2.903672E-2,7.837702E-1,-1.308852E-1,1.0173315E0,8.284922E-1,-3.1702265E-1,1.2274972E-1,3.2890475E-1,-1.3000056E0,9.128465E-1,-3.1177439E-2,1.0483432E-1,3.0524775E-2,8.568343E-2,3.8551517E-2,-6.0248E-2,2.3138065E-2,1.021623E-1,4.4325028E-2,9.5461085E-2,8.044775E-3,-3.5927173E-2,1.0892483E-1,7.269111E-2,-1.5624411E-3,7.617261E-2,-1.369216E-1,-1.0097456E-1,-1.9544812E-1,-5.8055993E-2,1.2302579E-1,2.122756E-2,-1.4603339E-1],"categories":[],"categories_nodes":[],"categories_segments":[],"categories_sizes":[],"default_left":[0,0,0,0,0,0,0,0,0,0,0,0,0,0,0,0,0,0,0,0,0,0,0,0,0,0,0,0,0,0,0,0,0,0,0,0,0,0,0,0,0,0,0,0,0,0,0,0,0,0,0,0,0,0,0,0,0],"id":19,"left_children":[1,3,5,7,-1,9,11,-1,13,15,17,19,21,23,-1,25,27,29,-1,31,33,35,-1,-1,-1,37,39,41,43,45,47,49,51,53,55,-1,-1,-1,-1,-1,-1,-1,-1,-1,-1,-1,-1,-1,-1,-1,-1,-1,-1,-1,-1,-1,-1],"loss_changes":[4.8506357E3,2.3482178E1,9.149929E2,3.0366829E1,0E0,5.473126E2,1.4633167E2,0E0,8.277302E-1,4.9844055E1,2.6504486E2,7.4356094E1,2.8808594E-2,9.3014604E-1,0E0,1.4386862E2,3.3895874E-1,1.9661356E2,0E0,1.8458054E1,2.5580355E1,1.138916E-1,0E0,0E0,0E0,2.6269836E1,3.6442543E1,5.957947E-1,3.8191261E0,7.855835E1,3.7395157E2,7.6998014E0,5.3489532E0,3.0702625E1,1.8898994E1,0E0,0E0,0E0,0E0,0E0,0E0,0E0,0E0,0E0,0E0,0E0,0E0,0E0,0E0,0E0,0E0,0E0,0E0,0E0,0E0,0E0,0E0],"parents":[2147483647,0,0,1,1,2,2,3,3,5,5,6,6,8,8,9,9,10,10,11,11,12,12,13,13,15,15,16,16,17,17,19,19,20,20,21,21,25,25,26,26,27,27,28,28,29,29,30,30,31,31,32,32,33,33,34,34],"right_children":[2,4,6,8,-1,10,12,-1,14,16,18,20,22,24,-1,26,28,30,-1,32,34,36,-1,-1,-1,38,40,42,44,46,48,50,52,54,56,-1,-1,-1,-1,-1,-1,-1,-1,-1,-1,-1,-1,-1,-1,-1,-1,-1,-1,-1,-1,-1,-1],"split_conditions":[6.2E1,1E-3,3E0,4.7E1,-1.1074352E-1,2E0,2E0,-1.05914675E-1,2E0,1.432E3,1E0,9.6805E-2,2.58E2,3E0,9.671612E-2,1E1,6.3E1,5.5E1,1.0481819E-1,7E0,9.3485E-2,2.10762E-1,1.19422875E-1,5.7754375E-2,-2.903672E-2,8.7638E-2,8.92E2,2.6E1,1.1613179E3,6.5E1,5.68E2,5.5969E-2,4.4731E-2,5E0,8E0,1.0483432E-1,3.0524775E-2,8.568343E-2,3.8551517E-2,-6.0248E-2,2.3138065E-2,1.021623E-1,4.4325028E-2,9.5461085E-2,8.044775E-3,-3.5927173E-2,1.0892483E-1,7.269111E-2,-1.5624411E-3,7.617261E-2,-1.369216E-1,-1.0097456E-1,-1.9544812E-1,-5.8055993E-2,1.2302579E-1,2.122756E-2,-1.4603339E-1],"split_indices":[6,12,31,23,0,27,28,0,31,4,159,20,3,36,0,2,6,23,0,27,21,12,0,0,0,21,3,36,15,24,3,22,20,27,37,0,0,0,0,0,0,0,0,0,0,0,0,0,0,0,0,0,0,0,0,0,0],"split_type":[0,0,0,0,0,0,0,0,0,0,0,0,0,0,0,0,0,0,0,0,0,0,0,0,0,0,0,0,0,0,0,0,0,0,0,0,0,0,0,0,0,0,0,0,0,0,0,0,0,0,0,0,0,0,0,0,0],"sum_hessian":[1.2580517E4,2.9869236E3,9.593593E3,3.287359E1,2.9540498E3,7.6387285E3,1.9548643E3,1.8749018E1,1.4124572E1,1.5895643E3,6.049164E3,1.6029343E2,1.7945709E3,3.6740541E0,1.0450518E1,1.1246454E3,4.6491885E2,5.7865933E3,2.6257108E2,4.5602997E1,1.1469044E2,1.7407126E3,5.385821E1,2.5263946E0,1.1476597E0,9.131509E2,2.1149458E2,4.246233E2,4.029558E1,1.3146414E3,4.4719517E3,8.057126E0,3.7545868E1,6.22634E1,5.2427036E1,1.7395157E3,1.1969094E0,7.7062085E2,1.4252998E2,9.1594505E1,1.19900085E2,4.2069873E2,3.9245555E0,3.4245693E1,6.0498877E0,1.2770199E3,3.762139E1,8.325715E2,3.6393804E3,6.860049E0,1.1970772E0,2.7771873E1,9.773996E0,1.0768594E1,5.1494804E1,4.552367E1,6.903368E0],"tree_param":{"num_deleted":"0","num_feature":"194","num_nodes":"57","size_leaf_vector":"1"}},{"base_weights":[1.2612095E-2,-1.0619692E0,3.1204093E-1,-1.080594E0,1.0200204E-1,1.5419185E-1,9.908932E-1,-1.0849057E0,9.865137E-2,5.9175915E-1,1.8327227E-2,1.0442631E0,2.3164487E-1,-1.0865667E0,5.247403E-1,6.3008994E-1,-1.06967054E-1,-3.8345012E-1,1.4224397E-1,-1.0230517E-1,1.0468885E0,-1.0127164E0,3.650509E-1,-1.0877796E0,-4.179422E-2,7.269519E-2,2.7594925E-3,8.6329776E-1,4.297685E-1,-6.605186E-1,-7.565929E-2,6.262428E-1,7.1684844E-3,1.0483594E0,-6.030962E-2,2.9951182E-1,-1.7039598E0,1.7411418E-1,1.2825912E0,-1.5455593E-1,-1.08438864E-1,-4.8678037E-2,6.0310032E-2,8.70399E-2,-1.967043E-1,2.0526871E-2,9.686478E-2,-7.0875145E-2,1.1716279E-1,-3.939249E-2,8.1731E-3,1.0485112E-1,1.3161056E-2,4.612356E-3,-1.1989906E-1,1.0493632E-1,-1.7430695E-2,8.658113E-2,-6.123368E-2,-9.147071E-3,-1.9952615E-1,4.7423128E-2,-4.9149837E-2,4.928385E-2,1.3817474E-1],"categories":[],"categories_nodes":[],"categories_segments":[],"categories_sizes":[],"default_left":[0,0,0,0,0,0,0,0,0,0,0,0,0,0,0,0,0,0,0,0,0,0,0,0,0,0,0,0,0,0,0,0,0,0,0,0,0,0,0,0,0,0,0,0,0,0,0,0,0,0,0,0,0,0,0,0,0,0,0,0,0,0,0,0,0],"id":20,"left_children":[1,3,5,7,-1,9,11,13,-1,15,17,19,21,23,25,27,-1,29,31,-1,33,35,37,39,41,-1,-1,43,45,47,49,51,53,55,-1,57,59,61,63,-1,-1,-1,-1,-1,-1,-1,-1,-1,-1,-1,-1,-1,-1,-1,-1,-1,-1,-1,-1,-1,-1,-1,-1,-1,-1],"loss_changes":[3.8688982E3,1.02710205E2,1.0075201E3,2.4222412E1,0E0,4.5364417E2,7.163818E1,7.501709E0,0E0,1.158125E2,2.9000906E2,1.0064941E1,1.9923214E1,3.2370605E0,3.163948E-1,8.221588E1,0E0,1.17045364E2,2.9103964E2,0E0,4.6499023E0,1.1095987E1,1.8542973E1,2.3405762E0,1.4540288E0,0E0,0E0,1.811029E1,1.1508829E2,6.4675385E1,3.2672455E1,2.0274115E2,1.6363684E2,2.213501E0,0E0,3.0485363E0,3.4781075E0,1.8176508E1,7.5162315E-1,0E0,0E0,0E0,0E0,0E0,0E0,0E0,0E0,0E0,0E0,0E0,0E0,0E0,0E0,0E0,0E0,0E0,0E0,0E0,0E0,0E0,0E0,0E0,0E0,0E0,0E0],"parents":[2147483647,0,0,1,1,2,2,3,3,5,5,6,6,7,7,9,9,10,10,11,11,12,12,13,13,14,14,15,15,17,17,18,18,20,20,21,21,22,22,23,23,24,24,27,27,28,28,29,29,30,30,31,31,32,32,33,33,35,35,36,36,37,37,38,38],"right_children":[2,4,6,8,-1,10,12,14,-1,16,18,20,22,24,26,28,-1,30,32,-1,34,36,38,40,42,-1,-1,44,46,48,50,52,54,56,-1,58,60,62,64,-1,-1,-1,-1,-1,-1,-1,-1,-1,-1,-1,-1,-1,-1,-1,-1,-1,-1,-1,-1,-1,-1,-1,-1,-1,-1],"split_conditions":[1E0,1E0,3E0,5.932905E1,1.0200204E-1,2E0,4.172127E8,7.97E2,9.865137E-2,1E0,5.4E1,4.7E1,4.108E-2,6.8816E-2,4.3079613E1,4.9621E-2,-1.06967054E-1,3.6267296E1,1E-2,-1.0230517E-1,1.78923E-1,2.4561E-2,1.34E2,6.37794E-1,1E0,7.269519E-2,2.7594925E-3,1E0,1.432E3,1E0,5E1,1E0,1E0,1.4E1,-6.030962E-2,1.9153907E9,1.202649E0,1.00084E-1,4E0,-1.5455593E-1,-1.08438864E-1,-4.8678037E-2,6.0310032E-2,8.70399E-2,-1.967043E-1,2.0526871E-2,9.686478E-2,-7.0875145E-2,1.1716279E-1,-3.939249E-2,8.1731E-3,1.0485112E-1,1.3161056E-2,4.612356E-3,-1.1989906E-1,1.0493632E-1,-1.7430695E-2,8.658113E-2,-6.123368E-2,-9.147071E-3,-1.9952615E-1,4.7423128E-2,-4.9149837E-2,4.928385E-2,1.3817474E-1],"split_indices":[28,136,31,0,0,37,17,23,0,45,23,23,21,22,5,21,0,5,12,0,21,21,26,5,185,0,0,81,4,177,23,158,185,2,0,17,5,21,37,0,0,0,0,0,0,0,0,0,0,0,0,0,0,0,0,0,0,0,0,0,0,0,0,0,0],"split_type":[0,0,0,0,0,0,0,0,0,0,0,0,0,0,0,0,0,0,0,0,0,0,0,0,0,0,0,0,0,0,0,0,0,0,0,0,0,0,0,0,0,0,0,0,0,0,0,0,0,0,0,0,0,0,0,0,0,0,0,0,0,0,0,0,0],"sum_hessian":[1.2022121E4,2.6193452E3,9.402775E3,2.596598E3,2.274727E1,7.6298774E3,1.7728981E3,2.5916672E3,4.930814E0,1.8069705E3,5.8229067E3,1.6561096E3,1.16788506E2,2.5893203E3,2.3468614E0,1.7668289E3,4.014168E1,1.3720834E3,4.450823E3,1.6075217E0,1.6545021E3,1.067015E1,1.06118355E2,2.5862766E3,3.0438201E0,1.3396949E0,1.0071666E0,8.148716E2,9.519572E2,7.21476E2,6.5060736E2,9.703293E2,3.4804941E3,1.6533928E3,1.1092843E0,3.8769717E0,6.7931786E0,8.882414E1,1.7294214E1,1.5672925E1,2.5706035E3,1.946137E0,1.0976833E0,8.1352295E2,1.3486317E0,6.729739E2,2.7898334E2,7.0356714E2,1.7908861E1,2.147829E2,4.3582446E2,5.2285095E2,4.4747833E2,3.372534E3,1.0796027E2,1.6521781E3,1.2146562E0,2.4227939E0,1.4541777E0,1.2404916E0,5.552687E0,6.1418686E1,2.7405455E1,2.595117E0,1.4699097E1],"tree_param":{"num_deleted":"0","num_feature":"194","num_nodes":"65","size_leaf_vector":"1"}},{"base_weights":[1.1913895E-2,-1.0770277E0,3.1498668E-1,-2.4294405E-1,-1.0863119E-1,7.6593584E-1,1.1500303E-1,-1.0304516E-1,7.893346E-1,-7.150774E-2,9.993186E-1,6.4184743E-1,-1.9966211E-2,2.9146355E-1,9.392854E-2,2.921202E-3,-1.0174226E0,1.0149993E0,-9.647503E-2,4.888003E-1,9.816249E-1,-5.2294318E-2,8.641645E-1,-1.001826E-2,6.358933E-2,-2.473258E-2,1.0347654E-1,-1.0812741E-1,6.5236494E-2,1.0171282E0,-8.862436E-2,5.2529293E-1,-4.494259E-1,7.3633915E-1,-4.1200332E-2,1.0015577E0,7.546726E-1,-6.6331035E-1,1.4102751E-2,9.3227E-1,2.5272176E-1,-1.0877113E-3,-2.0044838E-1,9.103271E-2,1.0405147E-1,-6.9285505E-2,7.387712E-2,-6.0773015E-2,7.652953E-2,8.757206E-2,3.694756E-2,-7.095805E-2,2.6120633E-2,2.4394194E-2,1.0067522E-1,8.539499E-2,-6.261348E-2,-1.751245E-2,-1.10079646E-1,-6.0104067E-3,6.932752E-2,9.668844E-2,-9.088724E-2,-1.4319289E-1,7.8660436E-2],"categories":[],"categories_nodes":[],"categories_segments":[],"categories_sizes":[],"default_left":[0,0,0,0,0,0,0,0,0,0,0,0,0,0,0,0,0,0,0,0,0,0,0,0,0,0,0,0,0,0,0,0,0,0,0,0,0,0,0,0,0,0,0,0,0,0,0,0,0,0,0,0,0,0,0,0,0,0,0,0,0,0,0,0,0],"id":21,"left_children":[1,3,5,7,-1,9,11,-1,13,15,17,19,21,23,-1,25,27,29,31,33,35,37,39,-1,-1,41,-1,-1,-1,43,-1,45,47,49,51,53,55,57,59,61,63,-1,-1,-1,-1,-1,-1,-1,-1,-1,-1,-1,-1,-1,-1,-1,-1,-1,-1,-1,-1,-1,-1,-1,-1],"loss_changes":[3.7886545E3,1.909082E1,8.097814E2,2.422798E1,0E0,5.392687E2,4.4248254E2,0E0,6.990471E-1,4.2400497E1,3.7171387E1,6.551288E1,1.416555E2,6.661572E-1,0E0,1.5984232E1,5.389229E0,9.511963E0,7.116548E0,1.1507999E2,1.0224915E0,1.9395891E2,7.0446167E0,0E0,0E0,1.4945757E1,0E0,0E0,0E0,4.361328E0,0E0,3.5840878E0,4.414585E0,3.0244476E1,5.680563E1,1.1645203E0,5.4416046E0,9.988814E1,2.1741621E2,1.0880112E1,1.8119118E1,0E0,0E0,0E0,0E0,0E0,0E0,0E0,0E0,0E0,0E0,0E0,0E0,0E0,0E0,0E0,0E0,0E0,0E0,0E0,0E0,0E0,0E0,0E0,0E0],"parents":[2147483647,0,0,1,1,2,2,3,3,5,5,6,6,8,8,9,9,10,10,11,11,12,12,13,13,15,15,16,16,17,17,18,18,19,19,20,20,21,21,22,22,25,25,29,29,31,31,32,32,33,33,34,34,35,35,36,36,37,37,38,38,39,39,40,40],"right_children":[2,4,6,8,-1,10,12,-1,14,16,18,20,22,24,-1,26,28,30,32,34,36,38,40,-1,-1,42,-1,-1,-1,44,-1,46,48,50,52,54,56,58,60,62,64,-1,-1,-1,-1,-1,-1,-1,-1,-1,-1,-1,-1,-1,-1,-1,-1,-1,-1,-1,-1,-1,-1,-1,-1],"split_conditions":[6.2E1,1E-3,2.58E2,4.7E1,-1.0863119E-1,5.4E1,2E0,-1.0304516E-1,2E0,1E0,1.03E2,1.432E3,1.558E3,1E0,9.392854E-2,1E0,8.6E1,1E0,2E0,6.12E2,6.3E1,2.52E2,6E0,-1.001826E-2,6.358933E-2,1.2E1,1.0347654E-1,-1.0812741E-1,6.5236494E-2,2E0,-8.862436E-2,1.08E2,1E-5,1.49402E-1,5.9E1,3.420135E7,1.023E3,8.4E1,6.8E1,6E0,2.4307498E3,-1.0877113E-3,-2.0044838E-1,9.103271E-2,1.0405147E-1,-6.9285505E-2,7.387712E-2,-6.0773015E-2,7.652953E-2,8.757206E-2,3.694756E-2,-7.095805E-2,2.6120633E-2,2.4394194E-2,1.0067522E-1,8.539499E-2,-6.261348E-2,-1.751245E-2,-1.10079646E-1,-6.0104067E-3,6.932752E-2,9.668844E-2,-9.088724E-2,-1.4319289E-1,7.8660436E-2],"split_indices":[6,12,3,23,0,23,27,0,31,10,23,4,4,150,0,136,4,76,30,4,6,6,27,0,0,30,0,0,0,31,0,23,0,20,24,18,24,23,24,35,14,0,0,0,0,0,0,0,0,0,0,0,0,0,0,0,0,0,0,0,0,0,0,0,0],"split_type":[0,0,0,0,0,0,0,0,0,0,0,0,0,0,0,0,0,0,0,0,0,0,0,0,0,0,0,0,0,0,0,0,0,0,0,0,0,0,0,0,0,0,0,0,0,0,0,0,0,0,0,0,0,0,0,0,0,0,0,0,0,0,0,0,0],"sum_hessian":[1.1477749E4,2.4984077E3,8.979342E3,2.780284E1,2.470605E3,2.75782E3,6.2215215E3,1.5772242E1,1.2030599E1,6.012082E2,2.156612E3,1.2680414E3,4.95348E3,3.4660935E0,8.564505E0,5.582773E2,4.2930923E1,2.1262593E3,3.0352728E1,8.759312E2,3.9211017E2,4.7796533E3,1.7382648E2,1.9537017E0,1.5123917E0,5.446564E2,1.3620949E1,4.1689205E1,1.2417186E0,2.1243455E3,1.9137294E0,1.0814072E1,1.9538654E1,5.968028E2,2.7912842E2,3.573149E2,3.4795258E1,4.6759958E2,4.3120537E3,1.5593317E2,1.7893316E1,5.418695E2,2.786829E0,3.887825E2,1.735563E3,1.2777025E0,9.536369E0,1.772801E1,1.8106444E0,4.314835E2,1.653193E2,8.653096E1,1.9259744E2,2.759816E0,3.5455508E2,3.2817314E1,1.9779433E0,2.2165622E2,2.4594336E2,3.8881443E3,4.2390967E2,1.5352173E2,2.411437E0,3.9011736E0,1.3992143E1],"tree_param":{"num_deleted":"0","num_feature":"194","num_nodes":"65","size_leaf_vector":"1"}},{"base_weights":[5.1636244E-3,-1.0679556E0,2.8881446E-1,-2.5446042E-1,-1.0773436E-1,1.506765E-1,9.474924E-1,-1.0181741E-1,7.317113E-1,6.372057E-1,3.8632136E-2,1.0319072E0,3.0854687E-1,9.562564E-2,-8.1571735E-2,8.231923E-1,3.9574477E-1,3.4097116E-3,1.03334896E-1,-8.160933E-2,1.0349E0,-1.0817767E0,5.027431E-1,8.4138393E-1,-2.6428646E-1,1.5497005E-1,1.0069102E0,9.5098145E-2,-3.083511E-1,1.03684865E-1,-6.033523E-2,-1.1435217E-1,-1.3277394E-2,1.1495157E0,2.5554383E-1,8.6007036E-2,4.228207E-3,8.5438825E-2,-2.4877958E-1,4.1802518E-2,-3.0232131E-2,-1.8000007E-2,1.01839975E-1,4.560763E-2,-5.048582E-3,-5.886457E-2,-1.5985927E-2,1.20398045E-1,-2.249938E-2,1.20405726E-1,4.66774E-3],"categories":[],"categories_nodes":[],"categories_segments":[],"categories_sizes":[],"default_left":[0,0,0,0,0,0,0,0,0,0,0,0,0,0,0,0,0,0,0,0,0,0,0,0,0,0,0,0,0,0,0,0,0,0,0,0,0,0,0,0,0,0,0,0,0,0,0,0,0,0,0],"id":22,"left_children":[1,3,5,7,-1,9,11,-1,13,15,17,19,21,-1,-1,23,25,27,-1,-1,29,31,33,35,37,39,41,43,45,-1,-1,-1,-1,47,49,-1,-1,-1,-1,-1,-1,-1,-1,-1,-1,-1,-1,-1,-1,-1,-1],"loss_changes":[3.3327275E3,1.7207031E1,7.878004E2,2.1399145E1,0E0,3.9027213E2,8.064563E1,0E0,5.1409225E0,5.9857544E1,2.0392851E2,8.175415E0,4.8225586E1,0E0,0E0,1.5180359E1,8.5933044E1,1.6074869E2,0E0,0E0,4.8518066E0,1.1350174E0,2.4590324E1,1.1071838E1,3.496186E1,5.075419E1,2.4355927E0,2.283912E2,5.3098984E1,0E0,0E0,0E0,0E0,3.4713707E0,2.2506638E1,0E0,0E0,0E0,0E0,0E0,0E0,0E0,0E0,0E0,0E0,0E0,0E0,0E0,0E0,0E0,0E0],"parents":[2147483647,0,0,1,1,2,2,3,3,5,5,6,6,8,8,9,9,10,10,11,11,12,12,15,15,16,16,17,17,20,20,21,21,22,22,23,23,24,24,25,25,26,26,27,27,28,28,33,33,34,34],"right_children":[2,4,6,8,-1,10,12,-1,14,16,18,20,22,-1,-1,24,26,28,-1,-1,30,32,34,36,38,40,42,44,46,-1,-1,-1,-1,48,50,-1,-1,-1,-1,-1,-1,-1,-1,-1,-1,-1,-1,-1,-1,-1,-1],"split_conditions":[6.2E1,1E-3,3E0,4.7E1,-1.0773436E-1,2E0,4.86E2,-1.0181741E-1,1.08E-4,1.21487E-1,1E0,4.6E1,5.06E2,9.562564E-2,-8.1571735E-2,1E0,1.558E3,7E0,1.03334896E-1,-8.160933E-2,3.960295E3,2.158069E3,3.7834144E8,6.334545E8,1.0467539E3,1E1,1.4081356E3,8.5498E-2,4.3079613E1,1.03684865E-1,-6.033523E-2,-1.1435217E-1,-1.3277394E-2,1.27556E-1,5.4E1,8.6007036E-2,4.228207E-3,8.5438825E-2,-2.4877958E-1,4.1802518E-2,-3.0232131E-2,-1.8000007E-2,1.01839975E-1,4.560763E-2,-5.048582E-3,-5.886457E-2,-1.5985927E-2,1.20398045E-1,-2.249938E-2,1.20405726E-1,4.66774E-3],"split_indices":[6,12,31,23,0,27,3,0,0,20,159,23,3,0,0,174,4,37,0,0,12,9,17,8,12,2,9,20,5,0,0,0,0,21,23,0,0,0,0,0,0,0,0,0,0,0,0,0,0,0,0],"split_type":[0,0,0,0,0,0,0,0,0,0,0,0,0,0,0,0,0,0,0,0,0,0,0,0,0,0,0,0,0,0,0,0,0,0,0,0,0,0,0,0,0,0,0,0,0,0,0,0,0,0,0],"sum_hessian":[1.0946817E4,2.2879998E3,8.658817E3,2.6423565E1,2.2615762E3,7.158719E3,1.5000981E3,1.4873073E1,1.1550493E1,1.339132E3,5.8195874E3,1.3244963E3,1.7560185E2,1.0420435E1,1.1300583E0,7.551016E2,5.8403033E2,5.621535E3,1.9805232E2,1.7022073E0,1.3227941E3,2.0961329E1,1.5464052E2,7.4290045E2,1.2201147E1,4.198714E2,1.6415895E2,4.344514E3,1.2770208E3,1.3215891E3,1.2049924E0,1.9488384E1,1.4729447E0,4.1751553E1,1.1288898E2,7.258507E2,1.7049791E1,8.526905E0,3.674242E0,2.6659787E2,1.5327353E2,1.4332438E0,1.6272571E2,1.2479834E3,3.0965308E3,4.41215E2,8.358057E2,4.0279545E1,1.4720057E0,1.951263E1,9.337634E1],"tree_param":{"num_deleted":"0","num_feature":"194","num_nodes":"51","size_leaf_vector":"1"}},{"base_weights":[1.146721E-2,-1.0600917E0,2.757553E-1,-2.1632232E-1,-1.0693406E-1,1.4749165E-1,9.3458366E-1,8.443258E-1,-1.001808E-1,6.230313E-1,4.32816E-2,1.0290236E0,2.6032352E-1,9.240284E-2,3.1157285E-2,7.8250706E-1,3.7841976E-1,1.1315958E-2,1.0290909E-1,1.0306928E0,-1.3116345E-2,-1.1235505E0,4.698995E-1,8.84163E-1,6.4249015E-1,2.3972088E-1,9.723013E-1,1.3908531E-1,-1.892103E-1,4.2435232E-1,1.03398815E-1,-1.20649874E-1,1.9357346E-2,1.0339526E0,2.3163551E-1,8.927743E-2,-1.2035842E-1,-2.1207201E-1,6.810539E-2,3.921713E-2,-4.8573155E-2,1.0183781E-1,4.759672E-2,4.0431846E-2,5.6871667E-4,4.2854333E-3,-3.5327226E-2,8.093325E-2,-8.754726E-2,1.1221482E-1,-1.5884852E-3,-9.042242E-2,3.8786452E-2],"categories":[],"categories_nodes":[],"categories_segments":[],"categories_sizes":[],"default_left":[0,0,0,0,0,0,0,0,0,0,0,0,0,0,0,0,0,0,0,0,0,0,0,0,0,0,0,0,0,0,0,0,0,0,0,0,0,0,0,0,0,0,0,0,0,0,0,0,0,0,0,0,0],"id":23,"left_children":[1,3,5,7,-1,9,11,13,-1,15,17,19,21,-1,-1,23,25,27,-1,29,-1,31,33,35,37,39,41,43,45,47,-1,-1,-1,49,51,-1,-1,-1,-1,-1,-1,-1,-1,-1,-1,-1,-1,-1,-1,-1,-1,-1,-1],"loss_changes":[2.9789905E3,1.6009277E1,7.128939E2,2.0689331E1,0E0,3.5003845E2,8.727783E1,1.654501E-1,0E0,4.9233887E1,1.8261153E2,2.4699707E0,4.990411E1,0E0,0E0,1.035849E1,4.1201584E1,1.4387202E2,0E0,1.967041E0,0E0,2.7120934E0,1.9726082E1,9.022583E0,3.624283E1,4.543692E1,1.6858368E0,1.2135215E2,8.3222496E1,4.813956E0,0E0,0E0,0E0,4.0760193E0,1.9113174E1,0E0,0E0,0E0,0E0,0E0,0E0,0E0,0E0,0E0,0E0,0E0,0E0,0E0,0E0,0E0,0E0,0E0,0E0],"parents":[2147483647,0,0,1,1,2,2,3,3,5,5,6,6,7,7,9,9,10,10,11,11,12,12,15,15,16,16,17,17,19,19,21,21,22,22,23,23,24,24,25,25,26,26,27,27,28,28,29,29,33,33,34,34],"right_children":[2,4,6,8,-1,10,12,14,-1,16,18,20,22,-1,-1,24,26,28,-1,30,-1,32,34,36,38,40,42,44,46,48,-1,-1,-1,50,52,-1,-1,-1,-1,-1,-1,-1,-1,-1,-1,-1,-1,-1,-1,-1,-1,-1,-1],"split_conditions":[6.2E1,1E-3,3E0,1E0,-1.0693406E-1,2E0,4.86E2,4E0,-1.001808E-1,6.6616E-2,1E0,1E0,5.28E2,9.240284E-2,3.1157285E-2,2.3159197E3,5E0,5E0,1.0290909E-1,1.14E2,-1.3116345E-2,2.3036123E3,5.7154246E8,1E0,3.6E2,2.516E3,6.3E1,5.3398E-2,1E0,1.1E1,1.03398815E-1,-1.20649874E-1,1.9357346E-2,8.597858E3,9.4774637E8,8.927743E-2,-1.2035842E-1,-2.1207201E-1,6.810539E-2,3.921713E-2,-4.8573155E-2,1.0183781E-1,4.759672E-2,4.0431846E-2,5.6871667E-4,4.2854333E-3,-3.5327226E-2,8.093325E-2,-8.754726E-2,1.1221482E-1,-1.5884852E-3,-9.042242E-2,3.8786452E-2],"split_indices":[6,12,31,45,0,27,3,36,0,21,159,187,3,0,0,14,11,37,0,3,0,9,18,81,3,3,6,21,10,37,0,0,0,9,18,0,0,0,0,0,0,0,0,0,0,0,0,0,0,0,0,0,0],"split_type":[0,0,0,0,0,0,0,0,0,0,0,0,0,0,0,0,0,0,0,0,0,0,0,0,0,0,0,0,0,0,0,0,0,0,0,0,0,0,0,0,0,0,0,0,0,0,0,0,0,0,0,0,0],"sum_hessian":[1.0516993E4,2.0801184E3,8.436875E3,2.2818165E1,2.0573003E3,7.0630356E3,1.3738391E3,9.67671E0,1.3141455E1,1.2686863E3,5.794349E3,1.2045923E3,1.6924689E2,7.7785573E0,1.8981526E0,7.666596E2,5.0202667E2,5.6133438E3,1.810056E2,1.2029731E3,1.6191202E0,2.1686342E1,1.4756055E2,4.4109686E2,3.2556274E2,4.0811624E2,9.391042E1,3.4288738E3,2.1844697E3,7.204141E0,1.1957689E3,2.0480537E1,1.2058063E0,4.2829292E1,1.04731255E2,4.3985498E2,1.2418764E0,3.7379112E0,3.2182483E2,3.376253E2,7.049096E1,8.4970474E1,8.939951E0,1.1467601E3,2.2821138E3,9.05038E2,1.2794318E3,5.8491125E0,1.3550286E0,3.944656E1,3.3827326E0,1.2084358E1,9.26469E1],"tree_param":{"num_deleted":"0","num_feature":"194","num_nodes":"53","size_leaf_vector":"1"}},{"base_weights":[3.3989633E-3,-1.0527234E0,2.472316E-1,-2.407566E-1,-1.0622183E-1,5.3984404E-1,2.2461427E-2,-9.9140786E-2,7.280656E-1,-1.3571376E-1,6.9547975E-1,-4.919762E-2,8.984094E-1,8.9244395E-2,3.2940412E-1,-2.6145557E-2,-9.5567596E-1,8.8720006E-1,-9.636772E-2,-1.162043E0,-1.997187E-2,-1.5334338E-1,9.338818E-1,-1.4498469E-2,6.799723E-2,-1.0204513E-1,7.943579E-1,8.128884E-1,-1.1557937E-1,-2.2595462E-1,9.096688E-1,2.830413E-1,-5.9904224E-1,-1.1945246E0,1.04567505E-1,5.0469946E-2,-4.1795206E-1,9.761988E-2,-1.6885302E0,9.6111435E-1,1.22871876E-1,-1.2684747E-2,9.969191E-2,9.220674E-2,-4.666011E-2,-6.3339315E-2,1.356726E-1,-1.3346341E-1,1.01614214E-1,9.1796175E-2,-1.1590927E-1,1.6869765E-2,8.646885E-2,-9.353299E-2,1.3674969E-2,2.3084808E-2,-1.2101543E-1,1.1797189E-2,-5.338145E-2,-6.766079E-2,9.405981E-3,-2.3745732E-1,5.9749104E-2,-4.2284023E-2,9.668929E-2,-1.7309518E-1,8.499017E-2],"categories":[],"categories_nodes":[],"categories_segments":[],"categories_sizes":[],"default_left":[0,0,0,0,0,0,0,0,0,0,0,0,0,0,0,0,0,0,0,0,0,0,0,0,0,0,0,0,0,0,0,0,0,0,0,0,0,0,0,0,0,0,0,0,0,0,0,0,0,0,0,0,0,0,0,0,0,0,0,0,0,0,0,0,0,0,0],"id":24,"left_children":[1,3,5,7,-1,9,11,-1,13,15,17,19,21,-1,23,25,27,29,31,33,35,37,39,-1,-1,41,43,45,-1,47,49,51,53,55,-1,57,59,-1,61,63,65,-1,-1,-1,-1,-1,-1,-1,-1,-1,-1,-1,-1,-1,-1,-1,-1,-1,-1,-1,-1,-1,-1,-1,-1,-1,-1],"loss_changes":[2.6033906E3,1.4363525E1,5.401824E2,1.7602009E1,0E0,3.7525024E2,2.9168375E2,0E0,4.0783787E-1,6.0074272E1,4.4037134E2,1.3969193E2,1.3253357E1,0E0,8.821653E-1,3.6893684E1,